/* Generated by Edge Impulse
 *
 * Permission is hereby granted, free of charge, to any person obtaining a copy
 * of this software and associated documentation files (the "Software"), to deal
 * in the Software without restriction, including without limitation the rights
 * to use, copy, modify, merge, publish, distribute, sublicense, and/or sell
 * copies of the Software, and to permit persons to whom the Software is
 * furnished to do so, subject to the following conditions:
 *
 * The above copyright notice and this permission notice shall be included in
 * all copies or substantial portions of the Software.
 *
 * THE SOFTWARE IS PROVIDED "AS IS", WITHOUT WARRANTY OF ANY KIND, EXPRESS OR
 * IMPLIED, INCLUDING BUT NOT LIMITED TO THE WARRANTIES OF MERCHANTABILITY,
 * FITNESS FOR A PARTICULAR PURPOSE AND NONINFRINGEMENT. IN NO EVENT SHALL THE
 * AUTHORS OR COPYRIGHT HOLDERS BE LIABLE FOR ANY CLAIM, DAMAGES OR OTHER
 * LIABILITY, WHETHER IN AN ACTION OF CONTRACT, TORT OR OTHERWISE, ARISING FROM,
 * OUT OF OR IN CONNECTION WITH THE SOFTWARE OR THE USE OR OTHER DEALINGS IN THE
 * SOFTWARE.
 */
// Generated on: 14.10.2023 09:19:23

#include <stdio.h>
#include <stdlib.h>
#include "edge-impulse-sdk/tensorflow/lite/c/builtin_op_data.h"
#include "edge-impulse-sdk/tensorflow/lite/c/common.h"
#include "edge-impulse-sdk/tensorflow/lite/micro/micro_mutable_op_resolver.h"
#include "edge-impulse-sdk/porting/ei_classifier_porting.h"

#if EI_CLASSIFIER_PRINT_STATE
#if defined(__cplusplus) && EI_C_LINKAGE == 1
extern "C" {
    extern void ei_printf(const char *format, ...);
}
#else
extern void ei_printf(const char *format, ...);
#endif
#endif

#if defined __GNUC__
#define ALIGN(X) __attribute__((aligned(X)))
#elif defined _MSC_VER
#define ALIGN(X) __declspec(align(X))
#elif defined __TASKING__
#define ALIGN(X) __align(X)
#elif defined __ICCARM__
#define ALIGN(x) __attribute__((aligned(x)))
#endif

#ifndef EI_MAX_SCRATCH_BUFFER_COUNT
#ifndef CONFIG_IDF_TARGET_ESP32S3
#define EI_MAX_SCRATCH_BUFFER_COUNT 6
#else
#define EI_MAX_SCRATCH_BUFFER_COUNT 12
#endif // CONFIG_IDF_TARGET_ESP32S3
#endif // EI_MAX_SCRATCH_BUFFER_COUNT

#ifndef EI_MAX_OVERFLOW_BUFFER_COUNT
#define EI_MAX_OVERFLOW_BUFFER_COUNT 10
#endif // EI_MAX_OVERFLOW_BUFFER_COUNT

using namespace tflite;
using namespace tflite::ops;
using namespace tflite::ops::micro;

namespace {

#if defined(EI_CLASSIFIER_ALLOCATION_STATIC_HIMAX) || defined(EI_CLASSIFIER_ALLOCATION_STATIC_HIMAX_GNU)
constexpr int kTensorArenaSize = 6400;
#else
constexpr int kTensorArenaSize = 5376;
#endif

#if defined(EI_CLASSIFIER_ALLOCATION_STATIC)
uint8_t tensor_arena[kTensorArenaSize] ALIGN(16);
#elif defined(EI_CLASSIFIER_ALLOCATION_STATIC_HIMAX)
#pragma Bss(".tensor_arena")
uint8_t tensor_arena[kTensorArenaSize] ALIGN(16);
#pragma Bss()
#elif defined(EI_CLASSIFIER_ALLOCATION_STATIC_HIMAX_GNU)
uint8_t tensor_arena[kTensorArenaSize] ALIGN(16) __attribute__((section(".tensor_arena")));
#else
#define EI_CLASSIFIER_ALLOCATION_HEAP 1
uint8_t* tensor_arena = NULL;
#endif

static uint8_t* tensor_boundary;
static uint8_t* current_location;

template <int SZ, class T> struct TfArray {
  int sz; T elem[SZ];
};
enum used_operators_e {
  OP_RESHAPE, OP_CONV_2D, OP_MAX_POOL_2D, OP_FULLY_CONNECTED, OP_SOFTMAX,  OP_LAST
};
struct TensorInfo_t { // subset of TfLiteTensor used for initialization from constant memory
  TfLiteAllocationType allocation_type;
  TfLiteType type;
  void* data;
  TfLiteIntArray* dims;
  size_t bytes;
  TfLiteQuantization quantization;
};
struct NodeInfo_t { // subset of TfLiteNode used for initialization from constant memory
  struct TfLiteIntArray* inputs;
  struct TfLiteIntArray* outputs;
  void* builtin_data;
  used_operators_e used_op_index;
};

typedef struct {
  TfLiteTensor tensor;
  int16_t index;
} TfLiteTensorWithIndex;

typedef struct {
  TfLiteEvalTensor tensor;
  int16_t index;
} TfLiteEvalTensorWithIndex;

TfLiteContext ctx{};
static const int MAX_TFL_TENSOR_COUNT = 4;
static TfLiteTensorWithIndex tflTensors[MAX_TFL_TENSOR_COUNT];
static const int MAX_TFL_EVAL_COUNT = 4;
static TfLiteEvalTensorWithIndex tflEvalTensors[MAX_TFL_EVAL_COUNT];
TfLiteRegistration registrations[OP_LAST];
TfLiteNode tflNodes[15];

const TfArray<2, int> tensor_dimension0 = { 2, { 1,512 } };
const TfArray<1, float> quant0_scale = { 1, { 0.00390625, } };
const TfArray<1, int> quant0_zero = { 1, { -128 } };
const TfLiteAffineQuantization quant0 = { (TfLiteFloatArray*)&quant0_scale, (TfLiteIntArray*)&quant0_zero, 0 };
const ALIGN(16) int32_t tensor_data1[4] = { 1, 1, 16, 32, };
const TfArray<1, int> tensor_dimension1 = { 1, { 4 } };
const ALIGN(16) int32_t tensor_data2[4] = { 1, 16, 1, 32, };
const TfArray<1, int> tensor_dimension2 = { 1, { 4 } };
const ALIGN(16) int32_t tensor_data3[4] = { 1, 1, 8, 32, };
const TfArray<1, int> tensor_dimension3 = { 1, { 4 } };
const ALIGN(16) int32_t tensor_data4[4] = { 1, 8, 1, 64, };
const TfArray<1, int> tensor_dimension4 = { 1, { 4 } };
const ALIGN(16) int32_t tensor_data5[4] = { 1, 1, 4, 64, };
const TfArray<1, int> tensor_dimension5 = { 1, { 4 } };
const ALIGN(16) int32_t tensor_data6[4] = { 1, 4, 1, 128, };
const TfArray<1, int> tensor_dimension6 = { 1, { 4 } };
const ALIGN(8) int32_t tensor_data7[2] = { -1, 256, };
const TfArray<1, int> tensor_dimension7 = { 1, { 2 } };
const ALIGN(8) int32_t tensor_data8[2] = { 461, -461, };
const TfArray<1, int> tensor_dimension8 = { 1, { 2 } };
const TfArray<1, float> quant8_scale = { 1, { 2.8034937713528052e-05, } };
const TfArray<1, int> quant8_zero = { 1, { 0 } };
const TfLiteAffineQuantization quant8 = { (TfLiteFloatArray*)&quant8_scale, (TfLiteIntArray*)&quant8_zero, 0 };
const ALIGN(16) int8_t tensor_data9[2*256] = { 
  -23, 10, -5, 14, -69, 51, 79, -84, 14, -91, 81, -27, 64, 17, 75, 35, -49, -4, 56, -52, 53, -48, 78, 26, -78, 31, -70, 79, 25, -81, -53, 9, -31, 54, 57, -82, -68, 23, 52, -40, -73, -50, 61, 53, -25, -123, 1, -51, 48, 79, 51, -52, -12, -44, 66, -9, 23, -8, -41, -39, -40, 53, 17, -43, 57, -24, 60, -18, 89, 8, 64, 34, -13, 40, -17, 69, -27, -18, -70, 11, 22, -52, -63, 42, -77, 50, 65, -73, -51, 4, -41, -44, -26, 62, -26, -52, 71, -30, 32, -7, 17, 67, -96, 46, 99, -41, 70, -6, -40, 83, -26, -69, -76, 7, 27, 1, 40, -49, -85, 11, -5, -57, 3, -23, 13, -73, 8, -20, 21, 20, 31, -1, 13, 107, -5, -33, -82, -127, -61, -3, 61, 37, 93, 7, 3, 83, -3, -83, -33, -106, 38, -34, -64, 95, -52, -59, -88, 11, 10, -35, 68, -9, -7, -21, 12, 75, 62, -24, -94, 83, 75, 31, 5, -40, -101, 35, 2, -68, 97, -73, -89, -34, -17, 71, -38, 25, 35, -85, -90, 100, 79, 16, 70, -18, -100, 59, 12, 59, 72, -30, -23, 68, -47, -58, -49, 30, -52, 6, -14, -90, 32, 84, -26, 63, -26, 0, -37, -32, -36, 39, 60, 51, 69, 76, 15, 67, 102, 100, 29, 25, -99, 12, -31, 49, 61, -11, -54, 23, 67, -35, 48, 96, 22, -38, -85, -29, -33, 31, 45, -37, 103, -107, 31, 67, 9, -75, 
  -32, -89, -81, -80, -11, 26, -57, 22, 12, 11, -52, 41, -68, 19, -74, -64, 34, 12, -20, 65, 10, 48, -23, 14, 83, 15, 78, -57, -88, 25, -5, 57, -51, -6, -32, 83, 61, -72, -49, 49, 29, 67, -38, -59, 11, 56, 52, 51, -79, -80, 44, 38, 80, 43, -68, -66, 79, -63, 4, 28, 16, -28, -75, 26, -16, 45, -34, 46, -54, -74, -12, -82, 3, 46, -23, -70, 61, -22, 31, 3, -97, 90, 0, -4, 30, 26, -53, 79, 39, 16, 30, -15, 30, -5, 29, -25, -17, -54, -63, 4, 67, -41, 25, -47, -41, 74, -9, 6, -29, -30, -52, 16, 85, 5, -21, 55, -67, 15, 14, -50, -33, 101, -11, 14, 16, 3, 21, -12, 43, -49, -86, 61, 39, -32, 6, -55, 101, 101, 42, 42, -65, 38, -30, 64, 93, -4, -93, 36, 46, 47, -94, -19, 60, -69, -46, 59, 45, 73, -14, 90, -72, -63, -72, -56, 53, 2, -58, -56, 37, 8, -48, -27, 5, 58, 52, 22, -89, 38, 1, 25, 63, -44, 53, -58, 13, -55, -81, 66, 33, -41, -56, 3, -93, 7, 68, 21, 3, -34, -68, -40, -12, -23, 19, 13, 37, -77, 9, -94, 17, 96, -58, -40, 103, -22, 58, 68, -28, -24, 38, 14, -2, -63, 11, -63, -67, -36, -22, -99, -59, -64, 98, -77, -21, 9, -83, -66, 3, -71, -86, -37, -7, -36, 36, 68, 69, 100, 93, -101, -103, 85, -80, 105, 17, -20, -18, 73, 
};
const TfArray<2, int> tensor_dimension9 = { 2, { 2,256 } };
const TfArray<1, float> quant9_scale = { 1, { 0.002749043982475996, } };
const TfArray<1, int> quant9_zero = { 1, { 0 } };
const TfLiteAffineQuantization quant9 = { (TfLiteFloatArray*)&quant9_scale, (TfLiteIntArray*)&quant9_zero, 0 };
const ALIGN(16) int32_t tensor_data10[128] = { 0, 1363, 1929, 3524, 1453, 2202, 1384, 745, 4183, 2266, 2683, -781, 263, -1224, 2128, 2408, 78, 2064, 1760, -101, -895, 943, 2252, -1588, -617, 1475, -8, 3079, 4317, -980, 665, 192, 2394, 268, 672, 1241, -1356, 1178, 1893, 1299, 989, 482, 2469, 1225, -1454, -6, 1676, 1466, 2293, 1768, 1901, 1080, 1465, -1529, 1877, 1967, 260, 795, 1784, -521, 4360, 326, 509, -487, 1957, -643, 4424, 2329, 1579, 1055, 1914, 2032, -2130, 1715, -979, 4251, -499, 1331, -474, 3300, 928, 1474, 1051, 2565, 321, 747, 3194, -881, -1154, -2449, -1414, -2269, -281, 1165, 962, 2505, 387, 992, 2704, 1518, 159, 2009, 974, 1765, 1379, 1074, 2068, 1215, -589, 3260, 3220, -57, 1873, 2362, 0, 361, 2919, 1690, 2313, 1753, 3091, 1780, 1932, 2758, -1996, 633, -1750, 1426, };
const TfArray<1, int> tensor_dimension10 = { 1, { 128 } };
const TfArray<128, float> quant10_scale = { 128, { 4.1158882595482282e-06, 1.0859092071768828e-05, 8.7442977019236423e-06, 1.0119581020262558e-05, 1.0561597264313605e-05, 9.8220534709980711e-06, 1.1588987945287954e-05, 9.3067783382139169e-06, 1.0864211617445108e-05, 1.0732070222729817e-05, 9.7299362096237019e-06, 1.1208868272660766e-05, 8.9598697741166689e-06, 4.2940569073834922e-06, 8.959360457083676e-06, 8.5114324974711053e-06, 1.2346746188995894e-05, 9.2834243332617916e-06, 9.2792715804534964e-06, 1.4642162568634376e-05, 4.5545857574325055e-06, 1.0852408195205498e-05, 1.005111334961839e-05, 4.443772468221141e-06, 1.0955910511256661e-05, 8.2469141489127651e-06, 9.9172011687187478e-06, 9.9676735771936364e-06, 8.4827088357997127e-06, 1.0582742106635123e-05, 7.6131627793074585e-06, 1.0200615179201122e-05, 8.3827380876755342e-06, 1.0946199836325832e-05, 7.8131215559551492e-06, 7.3121577770507429e-06, 1.1188249118276872e-05, 1.1448228178778663e-05, 1.0322455636924133e-05, 1.0110713446920272e-05, 1.1562760846572928e-05, 9.2902764663449489e-06, 9.6027133622555993e-06, 1.0058679436042439e-05, 4.3902205106860492e-06, 1.215180782310199e-05, 1.1263384294579737e-05, 8.0618829088052735e-06, 8.949443326855544e-06, 9.1717720351880416e-06, 9.4106489996192977e-06, 1.2451910151867196e-05, 1.055837310559582e-05, 4.6559248403355014e-06, 8.9443383330944926e-06, 7.7454915299313143e-06, 1.5468587662326172e-05, 1.0573591680440586e-05, 8.6644886323483661e-06, 1.1201076631550677e-05, 8.3936802184325643e-06, 9.9644103102036752e-06, 8.5388146544573829e-06, 4.2105048123630695e-06, 9.4528331828769296e-06, 1.0426332664792426e-05, 7.7233416959643364e-06, 7.5974976425641216e-06, 8.8801598394638859e-06, 1.0243426004308276e-05, 9.0880275820381939e-06, 9.0611347332014702e-06, 4.226327746437164e-06, 8.5820456661167555e-06, 4.3330951484676916e-06, 8.5642795966123231e-06, 1.1468822776805609e-05, 9.7671509138308465e-06, 9.9061198852723464e-06, 8.8022261479636654e-06, 9.1448637249413878e-06, 1.1002363862644415e-05, 7.7377617344609462e-06, 9.9367434813757427e-06, 1.3121052688802592e-05, 9.7812244348460808e-06, 8.6999725681380369e-06, 9.8796117526944727e-06, 1.1865918168041389e-05, 4.9261948333878536e-06, 4.6288128032756504e-06, 4.171703494648682e-06, 9.2979917099000886e-06, 9.404383490618784e-06, 8.7393000285374001e-06, 1.0366241440351587e-05, 1.0360597116232384e-05, 8.115592208923772e-06, 8.9180794020649046e-06, 9.9605013019754551e-06, 8.9663490143720992e-06, 8.907920346246101e-06, 9.5000232249731198e-06, 1.0350555385230109e-05, 9.109796337725129e-06, 8.0842273746384308e-06, 9.3370035756379366e-06, 7.800497769494541e-06, 4.2736669456644449e-06, 8.7422013166360557e-06, 8.3470158642739989e-06, 8.1329708336852491e-06, 8.4017865447094664e-06, 9.3707676569465548e-06, 4.1532298382662702e-06, 9.776789738680236e-06, 9.5318955573020503e-06, 9.7003103292081505e-06, 8.5712617874378338e-06, 1.0065962669614237e-05, 8.1972184489131905e-06, 1.1302589882689063e-05, 9.2203727035666816e-06, 1.0737595403043088e-05, 5.1795559556921944e-06, 1.088541466742754e-05, 4.7191333578666672e-06, 9.9957242127857171e-06, } };
const TfArray<128, int> quant10_zero = { 128, { 0,0,0,0,0,0,0,0,0,0,0,0,0,0,0,0,0,0,0,0,0,0,0,0,0,0,0,0,0,0,0,0,0,0,0,0,0,0,0,0,0,0,0,0,0,0,0,0,0,0,0,0,0,0,0,0,0,0,0,0,0,0,0,0,0,0,0,0,0,0,0,0,0,0,0,0,0,0,0,0,0,0,0,0,0,0,0,0,0,0,0,0,0,0,0,0,0,0,0,0,0,0,0,0,0,0,0,0,0,0,0,0,0,0,0,0,0,0,0,0,0,0,0,0,0,0,0,0 } };
const TfLiteAffineQuantization quant10 = { (TfLiteFloatArray*)&quant10_scale, (TfLiteIntArray*)&quant10_zero, 0 };
const ALIGN(16) int8_t tensor_data11[128*1*3*64] = { 
  /* [0][0][][] */ 75,-6,60,91,-15,-76,3,34,-29,-90,115,112,-119,-22,50,-25,4,77,-73,-25,-70,-76,-71,5,122,24,53,37,-100,-123,105,-125,-70,-66,-99,108,43,84,15,-32,84,-106,-28,10,-96,-115,-73,76,51,6,-43,-64,-47,-71,27,104,34,-7,111,4,-123,112,98,-81, 25,82,-27,90,-126,-1,-50,25,-4,44,-79,103,25,-72,-92,-73,-16,10,97,109,-64,-17,11,-111,7,-53,-89,-117,-42,24,-1,-70,-21,105,-122,-62,12,-102,46,-4,-113,-94,-124,40,8,-109,-14,8,-52,19,-98,108,34,-97,-126,90,95,82,112,6,-82,-110,31,-78, -3,-74,-75,108,46,-55,-89,-103,-51,72,55,68,63,-91,-10,-18,-7,-100,48,-95,-105,32,-127,-17,-93,-22,-112,100,-117,-31,29,-8,-19,25,69,-78,122,11,1,111,118,-65,60,6,-22,17,53,-25,114,-102,-38,-10,93,126,-103,35,83,65,-109,-93,121,31,-62,-116, 
  /* [1][0][][] */ 46,27,-35,6,24,39,32,13,-14,72,17,-16,39,-42,16,8,-57,-3,-25,12,-20,-34,52,46,16,-37,-36,3,62,10,33,-34,-15,-3,-5,41,6,49,19,1,13,-30,-44,41,127,-15,11,19,80,19,31,62,-22,1,24,-14,12,24,45,47,71,-64,-29,49, -58,10,4,-50,-29,-24,11,19,-67,59,-30,24,-29,-116,4,-23,-60,-53,17,5,6,-20,30,39,-28,-26,-36,-6,69,-35,8,-22,-64,36,14,-7,46,16,-12,38,16,10,28,-66,97,-23,-29,-2,44,-9,-37,6,-33,36,40,23,-12,-26,46,-30,-21,-48,-5,-29, -54,65,59,69,60,86,-13,12,-25,75,14,20,-69,-91,53,-18,-56,-19,-39,80,22,44,61,-31,-38,59,15,68,51,26,23,2,-101,-36,-47,12,24,31,16,-28,0,-17,40,-8,-5,16,7,20,14,35,-54,-27,38,27,4,40,-7,47,12,13,31,-72,21,34, 
  /* [2][0][][] */ -41,-4,48,61,51,-54,-43,-3,46,44,19,4,14,-116,11,-81,-33,-49,29,13,18,36,82,-40,-88,53,-17,2,103,-9,57,32,-103,0,24,72,40,127,-45,55,-55,-5,-8,-52,115,-50,-33,20,96,81,88,95,42,-18,58,2,36,-24,83,17,59,-82,18,-8, -5,89,-50,22,43,61,-68,-43,-25,95,0,46,-41,-68,22,-9,-29,-11,-14,-33,-8,-31,105,-27,-79,51,-50,16,61,-53,-16,29,-73,-46,-71,-50,41,7,8,29,1,-37,19,-63,84,-16,-49,-28,-11,4,-5,66,-48,37,45,-23,-23,7,40,19,60,-114,-16,-7, -76,57,-21,67,86,99,46,77,-51,43,-72,75,-84,-23,17,-23,23,36,4,32,36,8,75,-33,-49,57,15,9,58,-23,11,49,-82,8,-37,-6,25,99,44,-22,42,30,26,12,-5,5,23,42,106,15,44,-3,57,83,91,-22,71,34,51,63,85,42,16,-34, 
  /* [3][0][][] */ 48,33,1,11,-9,-96,13,-30,1,21,-13,-65,104,-30,-6,13,29,60,-51,21,-52,36,-39,19,17,-57,-28,32,30,63,6,-31,73,27,57,-25,33,-23,34,9,-15,37,-28,53,96,7,-6,7,24,72,96,66,18,22,-51,3,-20,23,-18,-6,-17,45,-8,90, -32,-41,22,-49,-52,-9,-29,-11,3,62,44,-25,71,-80,1,14,-33,15,-45,28,-32,-49,62,13,-22,27,12,-19,20,-40,-33,-6,64,15,-64,-58,-66,45,-7,-10,-24,18,-61,-8,84,-27,17,10,44,5,51,2,31,-13,-14,-8,24,-40,5,9,25,-18,-54,8, -79,11,36,5,-12,27,-22,11,-14,30,-6,69,-58,-100,-47,-66,-5,-73,-50,49,31,46,43,-3,-54,8,-5,13,99,25,-30,50,-102,13,-54,33,69,59,58,32,-8,48,69,-94,24,19,-12,52,13,12,-66,-17,-22,39,27,22,40,-40,32,-57,44,-127,-28,13, 
  /* [4][0][][] */ 12,11,-64,12,5,8,-40,-9,-32,11,-29,9,23,3,-61,-39,19,11,-9,-38,-23,-31,1,-48,7,11,21,-27,9,-40,-17,-30,-23,16,-32,8,-35,6,-65,-24,-59,-55,5,16,-52,14,14,-19,43,-52,-49,-52,-49,34,26,-17,12,-3,12,28,-61,-14,-59,-63, 13,12,54,-48,56,-23,-12,-23,-9,-60,-16,52,8,127,-3,76,5,-26,21,46,-34,8,1,-38,16,54,25,-25,18,15,-21,55,99,-2,-23,-46,2,-63,-33,51,45,9,5,-9,-34,28,-24,-23,11,6,-35,-7,60,-35,-39,-9,16,26,-22,-26,-11,-15,53,2, -17,30,21,-23,0,-13,53,-62,3,-3,-8,-12,14,96,5,14,-15,71,-20,-30,56,-38,23,19,80,-56,49,-10,-27,47,30,-8,26,13,70,30,-35,-33,47,26,-9,60,6,-6,-38,71,29,-5,-8,-32,39,-8,54,25,25,31,-15,-33,-55,-19,-37,31,32,-36, 
  /* [5][0][][] */ -36,-16,0,6,57,42,6,8,7,85,33,9,74,-89,-28,-66,13,17,-4,-7,-50,50,5,29,-58,-19,-46,18,24,-39,-13,-15,-38,28,-20,21,27,42,-48,-1,-32,40,-13,-34,43,-51,-53,-4,82,-44,-6,20,-27,-5,2,33,49,28,7,-25,56,-76,-6,1, -7,62,-13,-5,31,-35,-3,59,-1,47,-83,44,-64,-66,13,-113,-54,-15,1,12,51,21,64,19,-90,46,28,32,78,12,-15,-5,-63,-36,43,-42,30,-7,-20,-17,26,5,36,-31,46,-18,-67,40,61,58,-6,55,-14,32,-14,26,-38,-28,19,10,6,-127,-11,-23, -48,44,24,13,124,13,57,-13,-14,43,-8,72,-60,-89,44,-63,13,-33,-72,46,20,68,110,51,-115,51,22,8,48,-3,2,17,-19,13,4,50,75,15,42,-17,-23,-18,91,-15,8,20,-39,68,43,10,-20,22,19,75,86,-47,62,61,-8,-22,67,17,68,-32, 
  /* [6][0][][] */ 61,34,40,9,-18,-37,33,-4,27,61,26,-11,84,-78,-22,-52,-44,16,-43,-15,-41,-25,7,-15,-8,26,-16,-20,22,-5,26,26,-1,60,24,7,30,18,22,19,-32,16,-46,8,127,-2,-22,32,21,37,14,12,-8,-19,42,23,-8,23,59,-42,4,-20,-21,77, -22,6,11,5,20,65,-46,-16,15,102,73,-5,26,-64,-9,-34,-33,-51,-43,-8,-10,36,58,36,-51,9,-13,-37,38,12,-49,-3,34,35,-2,30,-42,93,-28,35,-36,6,22,-79,65,-15,20,8,-5,33,3,48,19,-1,-1,-21,10,11,-33,-52,53,-112,-33,22, -32,-1,47,-4,11,20,-49,45,29,82,-59,4,-39,-43,-45,-54,-3,8,37,-10,19,36,27,48,-25,20,-11,12,87,-1,29,-2,-63,-37,-6,49,40,36,35,3,-6,22,4,-13,57,-21,-8,14,77,-36,-63,39,-11,21,-5,-24,26,-16,5,-17,8,-99,-15,11, 
  /* [7][0][][] */ -56,-5,7,-59,23,-1,-62,45,47,-40,17,-13,-33,17,-13,-3,0,-25,14,67,53,41,60,66,56,-13,29,-44,-24,13,-56,-15,39,1,24,22,22,-67,-14,-35,-53,-57,61,-21,-74,27,-50,51,36,-63,-64,-62,-22,24,56,48,-24,-11,20,45,-6,-7,4,-81, 51,-54,5,17,48,18,80,-25,60,-36,-22,-30,45,101,19,74,17,54,19,-69,33,10,-37,54,-9,-46,-47,5,-45,-13,-19,-18,38,61,31,10,7,-46,20,14,52,45,50,-1,-113,47,69,-16,-11,55,42,53,34,-13,-46,66,-14,32,-31,-29,-28,67,50,18, 0,-62,-75,-30,-16,-18,-41,-48,-52,-127,49,-13,33,60,-43,48,19,68,-32,-27,-31,-21,-55,-44,108,-68,-45,29,11,-51,-5,47,71,12,2,6,-18,-25,-8,-75,57,-40,-34,60,-7,7,49,-11,-21,-1,3,0,-26,-18,-29,-47,-56,-45,-62,35,-32,83,-64,9, 
  /* [8][0][][] */ 62,-39,-30,11,-57,19,37,-69,45,-39,28,-54,52,48,43,77,-23,65,43,-52,21,18,-23,-23,14,-34,3,15,-35,41,3,35,75,-11,7,8,-62,-5,-42,28,57,-10,3,67,17,-20,-21,7,-24,14,-15,5,13,-40,-17,26,27,-40,23,-22,4,81,5,46, 44,-55,-65,-10,-97,-35,4,-47,-38,24,115,-75,49,70,-36,45,-4,20,60,-39,4,-36,-28,-49,117,30,31,-70,18,-17,-35,-51,84,25,-19,-38,-83,-65,-17,-65,34,1,-56,-7,49,2,22,-13,37,27,-1,-18,19,-13,-60,43,-63,-48,-22,7,-55,38,-23,20, 16,16,-24,5,27,-3,-72,46,-19,63,31,-15,127,-60,-37,30,0,-51,5,26,-15,32,-8,-38,68,-42,-16,27,25,10,44,-66,43,17,9,23,35,19,-26,-25,-47,-2,16,-31,84,-3,-47,53,-16,-15,7,47,-29,-16,6,-51,-32,-49,-19,-62,-33,-8,3,15, 
  /* [9][0][][] */ 0,10,53,44,-42,-52,79,20,23,-18,-33,39,-19,42,62,52,-5,58,38,-43,4,7,31,-20,24,6,10,20,-69,-19,4,19,64,-39,75,-33,-17,-53,-36,-52,26,19,-12,74,-17,42,-5,5,-80,61,-22,2,-4,-14,-15,27,-42,-37,-67,-15,-39,44,58,37, 18,-54,-29,-9,-42,-60,-25,-55,-7,-13,104,-45,14,65,-32,-5,-6,37,0,-6,13,-12,-9,32,40,-37,-62,-9,-80,29,-8,13,111,-1,1,-12,-79,8,-35,2,-27,0,-43,29,15,53,37,-61,-53,15,34,36,-16,-56,-7,-26,-32,-27,-39,-16,-12,-26,-18,-1, -18,-8,-28,-20,-33,-22,46,-12,-20,-20,46,-9,63,8,-20,59,42,24,18,53,-13,15,-24,-36,127,10,22,-21,80,-51,-24,-47,83,15,-13,32,-16,0,-8,-55,-36,57,-119,-17,93,-29,-13,-22,39,31,-5,43,-19,4,9,22,32,-32,41,22,-32,32,28,2, 
  /* [10][0][][] */ -4,43,16,45,42,-12,-4,71,-27,3,96,-37,49,-21,34,-13,9,11,-86,-17,12,14,42,34,85,36,-20,4,53,56,8,-34,52,47,-35,-18,26,1,-1,-70,-9,-20,9,49,63,60,-26,38,-44,83,-12,46,-55,-23,-10,-34,-42,41,-7,48,51,74,-51,-13, 16,-23,10,40,16,46,-65,-44,-41,76,109,23,105,-55,43,-2,-74,-56,-58,-36,-5,-9,0,8,40,-39,27,-25,58,-51,-5,-12,25,-51,-3,9,2,77,-17,-36,-9,-40,-33,-36,100,-44,-3,-46,35,44,-12,7,-54,36,42,-73,-24,-17,54,-31,12,-94,-26,-34, -66,13,-41,1,-11,43,-39,73,-43,65,-53,6,4,38,30,-90,-37,22,-31,-19,50,-36,16,64,6,51,46,60,24,-5,5,-9,-70,-8,33,23,-26,-13,36,51,-22,50,28,14,-26,-27,41,59,2,-38,-61,-29,0,-16,-5,-2,19,53,8,-65,-23,-127,15,26, 
  /* [11][0][][] */ 10,-25,47,-50,24,9,31,-40,1,-58,13,0,-25,61,-21,55,-5,-16,3,-27,28,14,-33,-11,52,-37,44,40,-61,-8,1,56,90,45,52,-15,-42,-44,3,47,61,39,51,57,-39,48,37,9,-50,-7,16,25,-25,-2,35,33,19,26,7,-4,-27,80,31,-44, 33,0,-45,-15,-35,-28,-13,-55,34,-30,37,16,49,36,15,33,56,54,37,-68,-4,-22,-83,42,81,-65,15,0,-79,14,-6,36,61,-2,40,-24,10,-39,35,-7,-13,9,-1,-14,-65,11,31,36,-110,-9,-30,14,21,-54,-18,-13,-12,31,-51,-17,-28,78,-3,-3, 52,-59,6,9,-60,-56,-23,-7,24,-76,65,-17,124,120,-5,35,-13,-15,21,-57,20,-11,-62,-13,127,-59,-32,-36,-18,16,30,21,127,26,-21,9,-36,32,-10,-28,1,58,14,6,23,-10,16,34,-54,43,43,33,34,-67,-23,42,-55,34,-32,-9,4,68,-33,-20, 
  /* [12][0][][] */ -9,-3,6,85,-51,49,-40,-23,-17,29,-12,27,20,-125,46,-13,31,-24,-67,3,18,-39,82,-34,-35,19,-37,66,79,-15,23,23,-45,-7,0,48,43,75,-27,-55,-7,63,44,-50,49,-27,37,-1,24,17,90,57,9,39,-20,-32,13,44,75,3,74,-104,19,34, -50,-4,30,-52,-8,30,17,9,32,51,-7,64,21,-75,24,-127,5,25,-64,-48,-17,-56,46,27,-67,12,-39,43,12,40,-16,-21,-95,30,-19,-64,-1,98,38,-24,-76,-42,47,-100,86,-74,-41,-36,27,-52,-16,60,-31,18,-32,-19,4,-33,18,-64,-21,-107,46,16, -50,81,61,64,15,76,54,88,-40,89,-27,55,-114,-52,42,-88,8,-20,-54,48,16,-30,41,-47,-27,-28,70,-23,122,21,17,15,-16,38,-58,-2,67,61,3,-21,51,38,-15,0,-16,19,-51,-24,87,36,-38,-21,-8,90,30,17,1,58,32,5,46,6,26,-8, 
  /* [13][0][][] */ -115,-89,110,-87,-1,-56,-121,29,-88,-20,85,45,-36,-6,13,-19,-57,-39,22,56,-65,108,103,-59,70,78,11,58,73,25,19,-73,-103,6,81,72,-72,-82,-9,80,94,69,77,-115,-85,0,8,-37,-37,-125,63,-18,48,22,-75,114,78,106,15,-36,39,38,-50,-103, 90,55,99,-84,-74,40,10,17,-34,13,-9,-28,-14,-123,-109,20,-110,31,84,49,-126,-119,-82,-15,-51,-69,-88,-69,-61,89,-98,99,31,-5,-12,-80,80,-21,64,109,47,-126,-125,-57,-38,51,-101,-100,-56,16,-11,-31,-45,55,66,72,-69,78,24,-101,-11,-118,0,-63, -34,-67,-88,25,2,-127,-7,103,-103,-115,56,89,-10,63,-69,113,-50,-36,-49,-8,12,-55,-106,-68,108,91,46,-43,-2,-20,-26,-87,92,-10,-11,111,-122,-26,-93,23,8,70,-51,-43,100,23,43,74,-17,-69,117,-83,32,-109,30,3,-3,36,41,-124,49,-68,96,78, 
  /* [14][0][][] */ -31,60,8,80,9,13,48,69,-25,80,11,64,77,-24,15,-44,9,-42,-27,32,-41,14,0,71,-25,-8,-5,15,66,-27,-22,-48,-43,38,7,32,60,95,-2,-24,-17,29,-8,-13,110,0,-28,-20,58,94,104,25,-12,38,10,4,12,31,10,55,-9,-89,6,37, -43,20,33,-25,50,26,-75,-24,-68,59,-39,18,5,-44,33,-101,20,-39,33,-21,-42,-32,18,-20,-22,70,-6,-46,127,-64,-16,4,-112,-24,-60,9,-5,29,18,5,-51,-17,53,-74,24,-8,-14,-26,33,32,-27,61,-20,43,54,3,-42,57,26,-65,-37,-79,7,46, -21,22,24,93,70,97,38,64,19,27,-62,11,-90,-65,48,-57,-55,-5,-2,-20,-24,74,103,57,-101,20,-40,83,65,10,52,-42,-62,-39,15,15,8,1,54,-13,-49,-8,17,14,58,37,-25,52,21,41,15,37,-13,30,40,42,73,27,50,55,63,-27,46,-38, 
  /* [15][0][][] */ 54,-54,-28,-13,2,-24,-31,46,37,-36,-13,-115,100,62,63,94,58,-6,35,7,-79,59,-12,-46,102,-60,-4,-56,23,-44,71,-11,127,43,66,-5,8,31,-31,-38,15,70,-16,9,23,14,-22,-21,-37,34,79,7,54,-6,25,-32,-47,2,3,-34,0,24,-13,103, -31,-36,23,-52,-48,31,-28,88,-48,28,56,-20,63,57,36,41,-62,-43,-59,72,-36,-15,19,27,37,25,-59,5,85,-86,-53,-117,84,-45,-63,-38,67,50,30,28,-94,-25,-19,-57,25,-77,-9,6,-58,-22,-22,74,-42,-32,-17,-25,-64,-33,-28,30,61,-72,-51,-34, -100,-47,-34,15,-30,46,-84,-1,-12,-13,46,30,22,-50,24,-16,31,-64,16,-38,58,0,12,-13,-39,-48,67,-9,-44,-73,21,-61,32,43,32,-56,-46,-33,56,-50,-10,-59,27,-104,28,-64,14,52,22,-60,18,-49,-32,12,-37,-1,4,17,42,-8,-39,12,-5,44, 
  /* [16][0][][] */ 23,2,-33,-13,-40,-41,-22,-38,36,-90,32,23,65,48,2,2,-11,0,57,21,49,-31,-3,-29,14,-33,-34,-39,-51,21,14,19,69,13,27,33,-37,-86,24,-27,23,-13,23,63,-25,16,19,23,-45,-2,-4,16,-2,-44,-12,3,38,38,-40,3,-9,58,-26,27, 24,-11,-8,-84,-31,-43,23,-39,16,-88,21,32,53,105,37,52,55,38,66,-4,12,27,-5,-20,27,2,-42,-26,-46,-5,-24,49,37,9,30,5,-47,-66,10,16,10,27,26,23,-72,18,25,13,-18,-40,-6,-49,22,34,-33,38,-11,42,22,-1,-28,34,31,-19, 13,-8,-38,-8,-64,-7,-17,8,45,-29,91,-29,127,45,-3,16,22,28,41,11,-39,24,-49,-13,115,-17,11,-39,-24,44,19,50,73,-7,-17,38,-34,-10,-27,-10,49,31,-28,-5,0,10,55,13,-42,35,52,9,-29,-30,-4,-8,-34,18,-50,-31,-21,4,-37,-28, 
  /* [17][0][][] */ -90,30,-7,-12,59,19,16,8,-11,18,2,-24,19,-74,-22,-44,13,-63,8,85,-23,31,58,23,-59,3,-45,-27,75,-37,-60,-77,-49,23,16,-26,-23,86,12,-27,2,33,7,-41,15,-44,-57,-51,55,-47,-25,6,35,16,61,-25,-15,-50,51,-19,-43,-127,-46,4, -70,3,50,-69,70,75,38,69,-42,32,-80,34,-95,-61,39,-101,11,-77,-10,26,-20,34,36,-32,-56,69,9,69,97,-59,9,48,4,-27,29,-33,-4,-45,53,11,27,-58,53,-90,-77,26,-36,-37,81,-32,-25,-5,-16,58,10,-39,60,54,37,61,-22,-55,12,-6, 13,82,60,28,33,62,50,-35,33,5,-37,80,5,-88,74,-57,8,-28,-8,58,81,44,100,14,-53,39,53,19,11,55,-38,10,3,65,45,61,99,-28,-5,16,-47,-3,33,23,-16,-29,-4,74,2,64,12,7,36,38,66,-22,5,31,67,-4,-11,69,56,25, 
  /* [18][0][][] */ 54,19,32,32,40,13,4,68,21,58,113,-7,69,-98,63,-65,-62,39,-13,-31,38,-48,44,30,-54,34,7,0,40,-18,3,-31,-48,-39,-11,25,-14,119,50,31,-39,5,-1,23,109,-59,43,-7,84,64,10,79,-47,-8,-4,32,-8,-10,43,44,42,-116,33,28, -1,31,24,-6,20,76,-41,3,32,99,1,-25,3,-110,55,-14,-12,-53,28,34,42,-60,69,38,-92,-13,50,-32,71,-57,-31,-35,-28,-47,-73,-54,19,64,-34,19,-56,1,25,-44,99,-18,-55,-17,16,44,-11,24,17,15,-2,-30,-20,34,43,3,34,-127,-45,6, -14,76,56,26,80,83,-60,27,21,8,-21,-28,5,-52,79,-76,-47,17,-77,17,16,-27,22,25,-108,57,-41,33,80,1,-27,51,-91,15,45,12,56,97,63,70,-6,-32,34,-49,24,-1,43,-3,16,37,43,44,7,36,7,-13,24,72,-6,0,-8,-33,32,49, 
  /* [19][0][][] */ 17,1,-7,-15,-10,-2,6,-22,7,-41,12,-23,-8,93,-41,30,-17,9,3,-17,-10,28,-54,30,0,-18,38,-16,-35,24,20,-6,24,-21,20,36,-29,-41,-2,-22,36,29,-11,-4,-27,-10,-16,-25,-43,-23,-32,22,-22,0,-17,-20,16,-11,16,-17,-32,56,5,20, -8,-34,32,-60,-4,-34,-6,-2,40,-70,54,-7,0,40,-5,60,16,16,-3,-8,19,33,-2,13,39,11,15,-28,-39,-21,-18,-4,39,30,18,-31,-8,3,1,-5,-4,4,20,32,-45,18,-11,15,8,-41,28,-41,15,21,-29,44,-9,32,-20,-34,9,15,36,-36, 43,-44,-41,-34,-41,-10,7,-45,41,8,81,9,127,77,7,57,-10,-12,3,-57,1,-12,-20,-1,61,-28,-20,-39,-42,0,33,36,120,-6,2,-25,-30,25,-7,-32,35,24,-30,13,-3,38,42,24,1,-30,22,31,10,0,-45,10,18,-6,-37,-31,-8,7,12,9, 
  /* [20][0][][] */ -100,2,14,70,-80,-12,-96,66,79,-53,62,30,-98,81,-124,-80,-44,-8,48,74,-80,39,-15,-109,86,-9,-39,-25,-38,-72,-67,-108,7,-96,66,-51,-87,55,-1,84,11,19,65,5,99,-107,-26,71,34,-78,50,-48,-68,55,-5,-33,-110,70,-90,-88,59,59,99,55, 80,-126,-37,-105,90,-59,-58,-89,57,96,-39,-102,-54,-111,-86,-40,-120,-32,-51,-96,48,-1,56,13,-72,84,-4,-1,66,54,-42,68,-41,-38,-7,-16,-7,-86,85,71,-38,-106,-10,9,24,-30,21,-78,75,-96,-28,-97,-113,71,-49,-14,99,-127,-7,-72,-45,-40,-107,-102, -100,44,73,-10,-63,91,76,85,-55,19,22,61,92,-4,51,5,-8,-24,-127,15,-58,-5,15,-29,16,18,63,98,-96,91,33,-2,58,48,-80,-104,-44,-24,-48,-65,29,-21,3,64,78,-32,-80,-83,17,5,-9,-53,7,111,-22,18,66,29,32,-91,74,-49,80,43, 
  /* [21][0][][] */ -4,-65,-10,-19,-54,-40,29,-34,-22,-80,31,-16,6,69,-11,54,22,51,-20,-12,49,49,-46,57,48,-62,3,-37,-31,44,-41,-23,-4,30,63,-2,-14,5,-8,-19,34,46,-7,29,-41,35,29,44,-83,35,62,-1,25,-34,-46,70,30,40,17,-40,-51,127,27,-31, 27,-87,-75,-7,-61,-64,45,-46,-1,-46,84,-64,30,57,-9,63,50,-9,59,-36,-45,-49,-14,21,60,-57,-62,-10,-42,-23,-31,-9,81,2,13,-57,-89,-25,-38,-46,-2,35,-30,52,6,-28,-4,21,-95,-14,54,2,-9,-53,-18,-17,-12,-39,-41,17,2,-10,-45,-13, 61,-37,22,1,-6,-2,-2,-18,42,18,54,-70,28,106,-45,56,-32,-21,48,59,42,-13,46,-4,76,-41,-18,-44,46,-42,-20,30,101,39,43,-1,-28,29,1,-5,55,7,14,-27,57,-31,30,-9,51,-38,3,28,4,26,54,-22,-47,-41,-13,-25,15,5,-57,52, 
  /* [22][0][][] */ -65,-21,3,-53,73,90,11,52,22,22,-13,2,58,-84,5,-81,19,17,4,6,40,-25,-11,35,-70,8,4,-12,55,10,-16,-9,8,-19,-55,-39,14,38,-13,5,3,3,31,-56,68,-20,11,59,24,-12,-14,-38,-44,-6,-27,-12,-12,-8,36,-47,-26,-72,6,-21, -14,-10,10,-7,34,5,-43,62,-53,41,-8,37,16,-84,49,-9,-2,33,-59,-39,-25,-26,20,19,-11,-47,-14,-18,61,41,-28,27,-127,18,-37,11,19,41,-24,18,-53,38,-14,-17,55,-23,10,59,90,-18,15,82,-26,-21,-25,38,-23,-39,-33,48,48,-63,4,36, -71,44,14,94,99,77,43,21,-8,114,-51,44,-106,-41,-13,-6,-16,29,-40,15,37,67,63,2,-67,2,-22,78,95,26,23,-46,-68,12,2,16,66,19,36,59,-21,48,52,-39,13,-41,-65,47,94,32,3,52,-20,14,14,-11,7,30,37,46,64,-12,-18,-35, 
  /* [23][0][][] */ -46,-45,80,-38,12,-39,57,-94,-34,-73,38,38,-82,84,-55,62,50,-111,-26,19,0,-78,-70,84,-19,-59,-119,-62,87,34,-42,-41,5,-4,-103,81,-45,-68,27,56,87,-1,-78,-51,-45,-39,39,72,30,37,-35,89,-64,-18,85,84,84,-118,52,53,63,11,13,15, -47,51,89,-30,10,-27,-127,100,-56,-60,-110,-95,-105,31,63,43,-47,81,-7,20,42,-84,-100,-22,-34,107,-20,-54,-2,-90,-24,-10,-30,40,79,12,27,-114,22,-28,12,46,17,-68,-109,17,-57,-15,-63,71,-99,78,-110,-114,104,89,10,13,-115,80,31,-112,-22,-119, -117,-81,-22,-112,95,88,-50,-75,-55,112,-102,-43,78,-119,37,97,107,39,60,101,40,78,-39,-102,63,35,-22,-90,-117,94,-85,-101,-61,-66,95,-2,47,88,-93,-96,84,-73,-12,112,25,24,1,73,-28,-111,73,94,-88,-94,-119,-63,-2,-2,22,34,51,87,67,-60, 
  /* [24][0][][] */ -40,-3,47,17,29,20,-28,-44,-26,-71,31,50,-17,122,19,54,61,-13,19,-32,50,14,-54,25,51,-12,28,43,-50,-1,23,36,25,41,54,-54,-20,-84,50,-22,43,-21,-7,0,-23,-15,20,21,-2,30,9,-9,-27,-16,-14,-11,14,-2,-45,42,-64,104,-20,9, 8,22,-9,-54,-5,-44,12,18,51,-32,26,8,46,101,-5,11,36,55,49,-35,-13,-47,-48,-1,28,-44,-18,-38,-21,33,22,-29,66,3,63,26,-67,-33,22,-15,50,47,13,21,-4,13,-6,11,-78,-48,50,-20,-42,-51,-58,49,-3,-29,26,-10,-15,3,-31,-35, 56,5,-33,7,-97,-71,0,-21,-29,-58,127,-73,123,86,14,53,-4,44,37,-73,34,-52,-27,18,100,-9,-29,28,4,6,-25,37,92,25,28,6,-31,-43,-42,-1,1,41,-7,37,35,13,-37,-52,-1,33,51,33,-32,-73,-62,4,-25,-41,-3,4,-51,8,-10,15, 
  /* [25][0][][] */ -25,-38,12,-40,60,68,-5,42,-9,55,-13,-1,-44,-102,58,-10,37,9,-79,53,-66,15,15,-37,-127,24,-51,49,61,-38,0,-65,-103,-53,-29,42,8,58,50,-59,13,-18,-25,0,-25,-60,-10,65,71,61,-39,34,-60,-5,5,23,40,8,9,-14,23,-104,0,1, -71,70,40,-39,29,75,-14,44,-63,32,-72,54,-50,-103,63,-91,37,30,-21,3,50,-28,73,27,-87,19,-21,6,94,22,9,-22,-121,44,-71,39,19,-3,56,74,-57,-56,40,3,63,-38,-73,20,95,50,-43,18,57,12,9,-34,-11,5,-12,30,52,-78,41,14, -52,84,48,82,90,12,-31,60,17,77,-105,-14,-30,-76,63,-38,35,-37,-80,-1,29,39,105,81,-119,53,81,51,40,29,27,48,-57,76,25,-38,119,-24,-16,-18,-30,38,-5,36,-8,-29,36,-10,-1,90,9,50,74,3,14,4,-21,30,87,-40,-10,-2,42,-68, 
  /* [26][0][][] */ 44,4,50,-60,49,47,7,-56,51,-67,21,66,4,67,5,8,-15,58,81,-39,-38,8,24,30,31,35,-22,-18,-8,-31,-22,-13,48,41,-3,-42,-17,-50,44,-8,50,6,52,-50,-4,33,-8,2,-64,-54,-22,-13,35,-13,-22,51,73,-23,-7,59,32,87,47,5, 9,25,-42,-12,30,-57,16,-54,48,-58,46,18,54,41,-11,14,70,66,53,-26,-34,46,-11,1,16,-66,44,27,-61,23,-27,32,73,52,40,38,-69,21,29,-2,-39,-44,-15,26,-34,19,60,-21,-30,-22,40,-33,-1,-15,-15,30,-45,-25,34,25,37,71,23,38, 14,-63,-62,20,-46,7,5,-54,-25,-16,103,-46,100,82,0,43,46,-24,30,-11,-33,-4,-33,5,115,-20,-1,-60,-35,50,-20,-28,127,-41,18,44,0,41,-56,-35,-28,-51,-21,20,-12,55,5,-51,-7,34,26,-49,24,-26,-74,-18,-43,-57,7,7,-15,19,-47,40, 
  /* [27][0][][] */ 78,-17,-19,-4,-10,-68,44,28,22,13,-1,-25,17,-21,-25,-30,-54,38,-27,-4,10,10,-6,34,13,-13,38,-16,-33,21,7,28,13,18,42,-4,-58,40,19,25,1,-15,-18,85,-13,2,-40,-30,46,101,104,65,-19,-41,-28,-44,-1,16,11,-42,65,84,9,58, 26,-36,-36,-41,-66,23,-33,-14,-11,42,127,-52,41,-84,25,-8,-40,39,-23,-9,34,3,0,-50,18,-25,-24,-41,28,-59,27,-44,48,9,2,18,-35,-23,-13,31,-46,31,-21,-5,120,0,26,-15,16,38,30,38,-61,-37,21,-38,-42,-13,30,-17,-37,35,3,11, 7,22,-3,-49,24,-19,-63,57,44,53,3,34,-41,-31,-11,-64,-46,-6,31,30,59,47,29,14,-60,36,57,-15,50,-48,-33,4,-11,25,18,-34,69,100,60,-28,26,-31,51,-17,42,-16,16,-19,-45,-32,-64,54,-25,27,-2,26,9,-9,32,-17,48,-119,21,36, 
  /* [28][0][][] */ 20,-14,-47,-10,-10,-22,46,-67,49,-33,110,-67,63,26,10,89,-11,24,-26,19,-65,-25,8,40,111,18,-81,-88,18,-52,-31,-13,107,-3,28,66,-51,-2,-45,-55,25,-5,26,71,72,-33,51,39,-10,-23,72,17,7,-44,-25,75,-16,44,56,50,-14,43,-109,-12, -35,-6,22,-13,-64,-18,-49,-3,-103,32,116,-20,2,-12,29,72,-33,-65,12,65,-59,-63,-53,-43,84,28,7,-63,29,-87,-34,-110,41,-38,-68,4,37,61,-49,14,-60,-72,-95,-50,19,-34,-7,41,-4,18,28,-3,30,-18,-12,-79,-43,-77,15,-7,47,-68,-127,-8, 7,-55,-32,-37,0,-49,-5,-27,-84,61,20,-27,-5,-51,9,2,7,42,-22,38,-48,40,20,-63,-45,-52,48,-33,25,-64,8,-9,30,-23,7,4,12,-20,-23,-44,33,-36,-12,21,-26,5,-66,-48,69,33,42,-56,46,1,64,-16,6,59,-19,-61,2,-65,-22,-7, 
  /* [29][0][][] */ 14,0,-27,-38,-21,28,62,15,-15,-32,27,44,32,112,47,80,-13,-20,60,-52,-17,55,-15,-20,70,-14,-26,26,-31,35,45,32,5,12,66,-43,-33,16,20,-18,46,45,-13,1,-35,77,-26,-10,-21,-31,-37,-63,42,36,-26,35,-17,5,-36,27,-21,113,64,10, 74,-59,-46,-71,-18,-4,50,-67,-8,-76,27,-22,87,99,-28,81,-11,-20,-8,-25,26,3,-61,-40,94,20,-6,-52,-59,57,-32,35,66,31,-16,-19,-49,-23,-34,-56,15,29,-45,47,-26,28,21,32,-79,3,59,30,-4,-60,-28,60,7,-42,-20,4,6,38,-48,13, 50,12,19,52,-27,-74,-9,-58,22,-57,79,-19,93,127,-8,27,15,61,-5,-16,-39,-11,1,30,62,-28,-41,1,17,-30,0,16,61,51,14,-43,-78,-48,-35,28,29,-31,20,40,11,-8,-8,15,-41,24,54,-10,4,-28,-54,-6,1,-6,-61,-43,1,94,9,-20, 
  /* [30][0][][] */ -22,48,13,48,-25,116,10,-68,-32,27,101,59,13,-86,19,-67,-52,-28,-76,39,25,-55,11,-65,-49,42,-37,-52,18,-39,-74,5,-6,26,-67,-35,-14,76,42,-51,-38,25,14,-23,87,26,-20,55,41,-70,-71,-67,-38,26,30,12,67,34,51,-1,-13,-127,35,-59, -51,-35,19,-45,-5,105,-47,-41,-17,-58,5,12,-37,29,28,12,-25,7,-13,35,-14,9,-40,-10,9,65,-24,-4,23,12,37,74,110,1,69,12,5,-9,9,63,-14,8,41,-80,-40,38,48,56,39,-73,-112,-102,-10,-12,23,57,64,28,-16,1,-30,23,29,-65, 6,-12,88,86,-56,-8,89,13,63,-56,-37,-62,-7,47,-38,57,-4,-14,-43,-89,66,-6,43,76,54,12,61,19,-10,36,-10,11,34,-12,3,-49,-56,38,-13,-36,-37,64,28,98,-63,84,68,-23,-109,65,-53,-54,-16,49,-23,33,-19,-8,-42,14,34,-7,-12,53, 
  /* [31][0][][] */ 9,-39,26,-46,-44,-57,-9,17,77,-72,-23,46,31,66,42,17,1,-12,47,9,-3,28,21,19,82,18,-33,51,-41,44,-21,79,55,33,67,45,-38,4,23,-46,-22,-26,35,47,-86,14,-11,-1,-91,7,-24,-5,40,-64,-63,17,40,-23,-69,27,3,60,-33,5, 30,-8,14,-67,-30,-81,-32,-51,21,-70,98,-9,77,106,18,33,8,15,-8,-32,27,14,-48,44,53,-80,-9,-35,-73,14,32,52,24,-42,1,-41,-46,28,9,18,32,-33,-5,34,-25,-5,-40,38,-61,-23,10,40,-23,-37,-48,36,25,-32,-58,13,-15,53,-38,51, 87,-31,12,2,-37,-60,-5,0,-11,-17,126,-43,127,5,2,85,-37,9,91,-11,-51,19,-37,41,61,-9,12,2,29,24,4,-21,123,-23,-7,-2,19,11,-31,-9,20,16,-63,-11,43,-14,11,-30,-39,39,50,-12,15,-28,43,-13,-18,-23,-33,6,15,24,-54,51, 
  /* [32][0][][] */ 20,29,-8,-53,78,-21,-78,-8,-70,66,28,45,83,-50,61,-8,-81,-36,12,-2,50,46,34,4,-89,-19,-46,34,49,-7,-12,16,-21,-28,-58,21,37,29,16,-29,-88,-49,52,-23,2,32,-28,-30,72,62,-59,-24,2,-33,28,-57,35,-35,37,-51,10,-64,41,13, -14,84,-33,42,-25,74,-43,18,22,127,-21,75,-96,-76,62,-66,23,-37,-34,44,21,39,8,-6,-56,18,-56,-8,52,19,25,-43,-53,-41,-15,45,-20,16,56,47,12,-38,-14,-96,33,34,22,70,59,66,-39,-44,-13,-29,34,-34,11,44,35,30,20,-117,-47,12, -45,67,74,8,113,64,-61,8,17,4,-31,33,-5,-83,24,-60,-30,-61,-71,-11,-5,59,9,32,-87,81,80,101,22,43,50,7,12,65,39,81,106,25,27,-25,-53,1,19,-39,-52,52,18,39,74,81,54,27,36,18,42,12,36,39,68,53,74,63,-24,-55, 
  /* [33][0][][] */ -19,-13,-28,53,-12,-17,8,64,-23,46,41,-5,60,-100,34,-29,-23,29,-64,56,29,0,3,36,-48,-23,1,-33,84,39,-37,19,26,20,-7,53,-24,30,-38,-2,-14,22,-3,18,117,13,-59,31,82,5,-13,81,-10,26,38,-42,-53,-5,6,-10,60,-31,-27,-13, 19,55,-44,20,21,31,17,35,-42,93,-33,-41,4,-61,15,-10,-16,7,-44,-5,38,-45,33,20,-27,41,-38,36,16,-33,-23,23,-23,41,-12,-27,-14,5,-26,18,-64,20,-34,-33,8,-17,-4,18,17,-22,-15,-14,4,63,-9,12,-43,22,-41,2,44,-108,-32,14, 12,33,9,66,17,61,23,53,-52,62,-45,-22,-94,-81,4,-61,6,8,-41,53,-13,-11,85,5,-127,30,24,61,107,-21,-18,37,-35,30,-33,15,13,5,15,-30,-13,-25,70,24,35,7,3,50,13,-24,26,36,16,11,67,-27,56,36,60,28,8,18,-31,-10, 
  /* [34][0][][] */ 63,13,-37,61,-33,-33,49,45,23,61,48,38,10,-57,-25,-86,-85,-47,-36,8,-27,64,-14,-32,-35,43,-23,66,118,71,-35,-33,-29,40,42,41,55,88,-72,-1,-47,-57,-24,1,60,47,34,80,114,59,82,55,-14,87,-6,-5,-29,63,51,30,2,-78,-33,63, -24,62,11,-22,15,77,1,-17,12,119,-34,58,-27,-66,-23,-46,28,-82,-76,-35,-20,49,42,14,-112,5,-17,21,70,-64,-86,-94,-121,43,-50,-57,-54,115,-40,8,-64,43,24,-10,94,-49,-57,-15,23,-52,-55,50,8,3,5,9,15,51,-29,-67,-7,-108,-28,35, -95,83,-22,93,38,91,-59,67,-68,114,3,87,-114,-91,-20,-63,-68,-17,-44,-13,63,0,29,28,-18,79,12,19,19,57,39,42,-127,33,12,-47,83,22,48,-2,-9,53,68,-62,67,39,-41,69,118,-4,-59,26,-18,64,73,6,-26,73,92,-10,5,22,-24,18, 
  /* [35][0][][] */ -97,-7,-11,-20,73,59,25,-31,-27,-41,-7,97,1,83,31,-41,42,-56,-18,-2,56,-1,-5,34,-17,79,-11,2,-18,-7,20,-43,8,-18,-34,-43,67,-109,0,87,7,-49,70,-97,1,21,-41,58,-57,35,-101,-31,62,1,48,60,-31,70,73,85,-29,-90,101,-110, 43,-16,57,16,46,-15,-4,50,-40,-37,67,-60,-5,78,4,6,-6,100,1,-75,25,78,-32,72,7,-3,69,-28,7,-37,7,53,45,1,94,31,-32,-61,74,-12,-13,56,30,115,-58,-42,66,-37,40,21,-59,-16,-41,50,17,77,3,63,48,-37,-11,99,53,47, -9,-92,-74,30,-118,-40,-47,-110,31,-31,33,-106,112,104,62,90,-29,-19,25,-18,-28,3,-33,-56,112,-102,14,-84,20,-64,32,76,42,-6,-52,-25,-127,-51,-25,-83,22,-44,30,114,8,47,-46,51,-25,-56,65,-14,-36,-77,-86,19,10,-79,-43,-36,-53,78,-8,-8, 
  /* [36][0][][] */ 12,-36,-11,-37,28,39,40,-7,31,-54,7,-26,49,44,-2,26,35,11,-7,26,44,-35,0,-34,59,40,-21,4,-10,33,-31,-11,48,30,54,1,-38,4,38,-19,3,38,53,-34,-62,58,1,6,-31,-66,-68,-40,-17,19,28,15,53,-18,-37,43,20,93,-11,-35, 21,-31,-26,-41,-38,-15,29,-27,35,-63,4,-32,52,97,27,-10,45,43,43,-83,-7,-3,7,30,67,13,-23,-17,-25,-3,3,4,76,-11,45,-38,-60,18,0,-19,-32,47,-58,2,-52,52,32,12,-59,-10,2,-1,-34,1,-44,48,21,27,-6,26,-54,32,-13,16, 20,-39,-40,27,-24,-32,39,-35,-37,-14,77,-17,46,38,-16,26,-32,52,8,-44,-39,4,-8,4,41,-55,-54,-57,-2,29,38,-25,127,-7,21,37,-48,9,-4,21,20,-41,-34,10,29,-6,47,18,17,8,18,9,-9,7,-59,48,32,-57,-6,23,29,61,-45,-29, 
  /* [37][0][][] */ -13,28,-7,64,23,15,-54,43,8,86,37,28,10,-40,-18,-10,-30,0,31,39,-29,44,23,-39,1,-14,-23,12,26,-6,-32,-40,-62,29,6,-26,61,33,17,-11,-41,-5,18,-38,29,-38,17,25,69,29,-40,1,26,10,56,-44,11,-38,35,-12,60,-72,-16,8, -20,56,-19,62,32,-24,11,57,-9,20,-26,-48,-33,-85,-32,0,25,-49,-64,32,4,-12,37,-20,-21,-36,14,1,65,33,-29,9,-84,47,-15,31,32,47,-19,3,-11,-29,37,7,62,-2,2,20,72,51,5,31,31,23,54,10,14,14,47,46,54,11,-53,41, -3,13,-20,-4,26,22,-8,-12,-2,87,-38,40,-47,-127,38,-71,-38,-8,-1,64,-6,-27,61,13,3,28,-41,4,27,-33,-13,-41,-46,-13,15,19,6,51,-45,40,-45,-18,40,-29,5,-17,-29,-33,51,-20,-51,-17,5,0,15,-17,-24,30,24,15,-30,-41,4,-41, 
  /* [38][0][][] */ -30,13,38,90,7,21,-27,-11,-48,123,94,-12,2,-27,16,5,-18,24,-2,25,-41,28,36,14,-59,28,46,26,68,-3,-39,-33,35,10,-10,78,-18,53,44,16,-15,8,42,-67,41,-40,-21,47,19,-20,70,-8,-17,56,-8,-54,44,-14,18,-10,41,-69,-15,-13, 20,34,-41,-30,44,3,7,34,-3,87,-37,46,24,-127,-39,-77,-20,-28,-49,16,42,1,63,-35,-69,7,-40,25,57,17,-44,32,-69,-44,-15,2,-1,65,-6,4,-40,41,49,5,74,-11,-64,-8,-10,-10,-14,29,-7,52,-42,-40,-47,-19,-34,-28,26,-81,28,-37, -31,12,56,40,58,31,-28,48,-45,45,-72,5,-57,-57,60,14,-56,-34,-18,50,-13,64,67,14,-27,25,-31,39,84,27,-35,-32,-57,-4,33,-29,92,73,14,44,25,33,-4,-10,-34,-60,7,36,85,30,33,52,14,74,64,30,49,60,-9,44,63,-52,-30,-44, 
  /* [39][0][][] */ -95,33,34,-6,61,42,-18,26,49,-37,25,40,-15,-26,30,-62,-18,-42,-4,-1,15,49,16,36,-36,6,-15,35,7,0,-47,-5,22,-53,-1,13,-25,16,-12,58,22,-12,25,0,-63,-31,3,43,-36,4,-22,-77,51,24,-34,14,33,-38,-37,14,19,-53,55,3, 51,12,-17,63,13,22,36,-37,66,-45,-48,-43,-6,42,-31,35,45,18,53,-46,14,-21,-12,-21,-20,34,-3,37,12,5,-6,64,48,57,56,28,58,-52,45,-9,28,-3,18,51,-14,59,-21,-12,-34,-8,1,-22,57,-9,64,9,-18,14,-47,-15,55,55,63,3, 70,-48,-57,18,2,-9,2,-36,13,-100,56,-56,69,127,-33,-9,39,-31,-16,-73,-20,-17,-69,27,60,-82,-31,-25,-49,-22,2,-34,48,-24,-9,-59,-58,0,27,-47,18,-42,-40,-3,-42,-10,43,-47,-10,16,55,17,-44,-40,-43,36,-8,-51,-21,-38,-16,51,-50,-55, 
  /* [40][0][][] */ 35,0,-6,-32,-5,11,-16,-25,55,-95,54,28,37,104,29,20,15,50,30,17,-18,46,-37,-20,74,-24,-38,5,5,-4,48,7,63,33,19,-30,22,-51,15,15,-19,-33,4,-4,-65,-1,56,2,-77,24,-46,-5,-40,0,-35,31,6,0,-21,-13,0,118,8,-42, -38,3,-7,-28,26,-18,47,-31,7,-33,14,32,36,108,-40,28,40,8,-10,-10,-2,-36,0,21,36,-12,10,-31,13,51,1,42,37,20,58,7,6,-59,-7,28,-14,40,14,-10,-39,45,36,-28,-44,4,3,-49,35,-34,-43,6,-33,-30,5,39,-3,66,39,-47, 64,-40,-45,37,-72,-62,35,-61,14,-20,115,9,127,70,-18,47,-12,18,5,-67,39,-20,-41,36,104,-32,-47,13,-19,-33,38,-1,118,-35,-2,-27,1,-28,-5,32,37,-25,10,-12,20,-10,26,-26,5,-29,21,-31,29,-32,-53,43,-24,12,9,44,-18,29,34,49, 
  /* [41][0][][] */ -3,16,41,3,27,69,-73,23,-53,32,7,-1,4,-99,35,-79,-67,-63,-70,70,28,15,94,33,-79,-17,-20,-24,-1,-56,-22,-29,-38,4,-19,-49,1,-4,34,-21,9,36,-18,0,-35,25,18,40,26,-42,2,30,-27,-25,-30,28,-28,-40,34,-57,69,-12,3,-36, -57,-15,26,-49,16,63,13,-36,-3,-58,-4,18,-8,20,13,30,18,-26,2,45,-34,37,-53,47,-34,23,51,60,45,21,14,54,79,36,72,22,13,-39,28,23,-25,3,22,40,-127,4,51,34,-25,-14,-45,16,-34,27,39,38,66,62,38,-2,-50,72,52,-63, 54,-7,26,3,-16,-76,-8,-73,-43,-69,60,-48,108,86,11,6,17,2,-35,-60,39,1,-50,-53,17,-16,-16,38,-37,53,-18,53,-14,-3,-43,-37,13,-50,9,-38,-12,-24,13,-16,-57,17,7,-15,-113,9,-19,33,-47,-75,-48,50,26,-52,-39,32,45,42,12,2, 
  /* [42][0][][] */ -40,-2,26,-6,-49,36,-59,36,-48,-35,-19,-44,25,-15,-36,-84,-44,-111,-13,38,-38,-5,-3,-64,-25,-33,-64,9,1,-127,-57,-74,-37,25,-18,-63,40,65,-53,11,-76,-92,-16,-83,16,-15,-12,-34,-1,4,-67,-36,-51,-24,-59,-59,-14,-4,-29,-55,0,-107,-16,-27, -19,47,15,83,45,-40,-61,-6,38,34,3,-10,63,-59,-13,6,-39,34,-31,11,-48,14,41,46,-30,-28,3,35,85,-15,16,-39,27,-3,44,32,-11,76,48,-26,34,12,-6,-4,72,-68,11,65,66,32,80,31,-39,-35,-20,-55,-38,-41,-26,-46,70,-32,-57,-4, -73,37,-12,37,32,13,29,79,-14,48,57,47,47,-33,-6,-47,-8,-45,-36,-11,27,-19,-14,28,-15,28,57,-43,65,-56,-20,17,-40,-16,-10,28,-8,-5,-10,11,7,-24,-17,22,14,-44,-56,-25,15,-50,36,11,45,28,71,-35,43,32,48,32,-14,-97,-14,18, 
  /* [43][0][][] */ 19,-49,29,68,31,-53,16,77,-27,110,38,21,-5,-120,14,-6,4,-48,-56,-28,13,-5,10,52,-12,25,-25,18,84,-47,39,30,-29,52,-34,2,-28,18,22,30,-7,42,-61,32,127,2,-22,41,48,14,73,36,-38,60,4,-4,9,-2,25,39,0,-56,21,62, -83,-36,20,-9,54,59,-73,40,-60,72,-9,8,-38,-109,30,-13,33,-27,30,42,6,26,51,-55,-70,41,30,-28,86,23,-12,-41,-46,-56,-80,-5,-32,45,-41,24,-70,19,61,-43,63,14,-52,-44,60,-7,-34,53,37,61,9,-54,-18,34,13,-30,25,-57,1,30, -32,55,51,-5,15,14,2,11,-15,111,-32,28,-76,-63,18,-70,-27,-10,-10,28,58,-10,33,-16,-21,26,3,53,51,-8,-36,2,-61,8,20,-10,-5,41,-23,51,-12,-10,7,-35,0,27,-5,-6,119,31,15,28,11,7,11,15,15,-27,50,32,39,7,12,30, 
  /* [44][0][][] */ -5,-16,-65,-14,42,48,-30,41,85,54,-73,-99,70,100,7,-92,-90,14,-75,78,-64,-51,69,-41,54,-112,109,-45,73,21,-123,25,15,-97,-1,-66,116,-66,-2,58,113,-11,-72,19,-58,-115,96,5,-75,-46,44,94,-47,112,-60,84,61,37,53,-51,-59,44,-2,3, -103,-109,53,-78,115,-9,22,-49,-98,-94,-120,82,-33,-51,-7,-120,54,54,-60,62,-69,-58,-66,-50,54,7,81,37,22,-68,-104,93,-56,-78,-96,34,110,-116,7,-81,-98,21,39,-65,-69,-23,3,-75,-81,-95,82,57,64,-19,-54,74,112,-67,94,-4,-119,-95,-11,21, 4,-127,-64,78,-84,37,-100,-59,16,-42,58,68,89,101,-103,67,-86,90,-79,-105,50,-23,-66,-6,56,90,5,113,-100,-114,-73,-48,-87,-83,20,76,75,-68,48,-70,-103,-74,100,6,92,-30,-104,92,66,67,-18,-20,-51,21,87,60,-38,22,63,91,-16,37,70,-121, 
  /* [45][0][][] */ 29,33,-24,-48,-20,5,46,-27,62,-25,21,-18,18,127,41,47,8,48,52,-15,-22,26,-44,40,41,14,-17,31,1,10,-4,23,21,-1,14,-26,20,-35,-29,47,38,11,24,44,-47,38,62,4,12,-17,-21,-40,22,-6,-34,14,-6,7,-47,24,18,35,41,-22, 64,8,-6,-16,-24,-94,43,17,-11,-25,-21,3,25,102,-17,52,24,-22,53,-2,-17,14,-26,11,84,-23,-26,-45,-80,-21,-18,-32,31,11,-18,23,-22,-36,31,-1,19,31,4,25,-23,45,19,11,-16,-21,-25,21,-46,16,-27,-27,-60,-8,9,-47,-32,33,-60,3, 7,30,-54,4,-28,-22,-2,15,-20,-60,67,5,74,32,-32,68,4,-4,46,-18,-22,-19,-2,14,63,-45,-35,-2,28,-31,36,-19,100,40,-26,46,-39,-20,1,-19,-8,-1,-30,39,19,52,38,39,-34,-24,68,20,4,16,-17,17,-1,15,-5,-15,-16,70,-50,-15, 
  /* [46][0][][] */ 42,17,0,-1,-15,-80,36,-45,39,-69,-44,25,-15,60,-40,3,53,21,46,9,-30,-27,-30,50,34,-35,-38,45,-87,47,-26,-12,-7,-21,53,-4,-60,2,-4,-17,13,-12,-20,-4,4,49,39,-22,-92,-30,-28,-44,34,11,-46,63,-31,-13,21,21,-55,19,-2,-27, 20,-37,-39,19,-56,-79,51,7,15,-41,72,-33,26,106,12,57,-22,63,54,-51,24,-8,-44,-13,67,-11,-9,-30,-34,-5,-40,-14,81,-28,-22,-50,-41,4,-45,3,3,11,-50,-19,-7,12,31,-64,15,14,48,-18,1,-16,-42,43,-16,-4,30,-9,2,-18,16,18, -17,7,10,28,-3,25,11,10,-18,15,59,-37,66,101,22,39,-53,-3,3,26,11,-49,-3,7,115,8,-32,9,74,28,-37,-63,127,32,-12,23,-70,42,21,17,-15,33,-94,29,74,22,-28,-7,0,42,51,61,21,21,6,12,-23,-45,4,-35,19,-47,-77,53, 
  /* [47][0][][] */ 0,-38,66,-61,38,31,-56,-28,-13,-38,-2,-30,34,21,48,75,-19,-28,81,20,31,56,-55,17,-16,-42,47,-43,9,27,36,35,67,-23,69,26,53,-37,32,69,-14,-8,-35,15,10,-33,65,-12,-27,-51,-15,8,41,-40,7,-46,64,-30,15,-2,-2,50,56,-82, 7,24,67,-7,-33,30,77,22,16,-65,8,-2,83,28,-7,39,-10,47,-24,-36,-2,-39,-59,52,33,36,37,-28,-17,-43,-12,77,34,-33,-19,63,6,-3,-19,3,-34,17,-21,39,38,-42,62,-41,-85,38,-44,52,56,1,-48,-9,-27,-47,0,49,28,86,-22,21, -38,-85,8,0,-16,-105,-3,-62,24,-127,85,-32,75,121,26,11,68,-16,-12,-14,23,-70,-42,-68,110,-10,-55,-6,-84,-18,46,-8,53,-44,59,-67,-32,-24,-9,30,31,59,-15,41,68,62,23,-25,-30,-23,-2,-7,7,31,-86,-35,41,-48,-68,-17,-62,9,-67,-27, 
  /* [48][0][][] */ -44,52,-45,-2,2,8,-56,-32,43,104,24,-6,68,-61,-13,-41,4,-11,61,37,-41,-29,13,21,-61,47,-14,38,37,-56,35,41,0,-5,-30,60,46,27,6,-39,-17,-50,39,-54,68,23,-25,1,89,21,-7,-1,8,80,30,-41,27,-12,44,-14,41,-97,4,48, 66,22,-32,1,38,15,-25,75,-64,26,31,-21,-31,-119,-17,-108,-55,-40,-73,1,-58,55,89,-18,-48,33,-34,-17,46,-35,41,38,-77,-17,1,9,12,47,-3,-56,-7,41,-46,29,95,9,31,-40,82,-35,74,27,0,41,42,-6,-63,-1,40,10,1,-36,28,57, -61,-4,31,-5,52,34,20,52,-13,57,-18,24,-127,-109,32,28,-55,38,-31,56,-29,45,78,58,-116,16,34,17,69,-42,20,-38,-60,19,32,55,86,68,-41,-23,-46,-53,7,-34,18,-35,40,-7,97,-28,42,55,44,35,57,-27,-31,-17,3,32,15,29,72,-4, 
  /* [49][0][][] */ 66,-58,62,11,-9,-46,13,-15,36,-14,6,-36,97,-81,31,-10,-57,-38,-19,-20,4,-38,48,10,33,-63,47,58,34,45,-29,12,40,24,24,-28,40,-38,46,-69,-13,35,-72,51,83,-39,12,-34,-14,92,60,73,54,54,53,-5,-71,-15,-29,-50,-20,97,-35,54, 3,1,-40,0,31,68,-49,11,-70,109,108,-17,102,-117,45,5,26,-2,20,56,-31,-57,3,-45,-8,52,-43,-6,32,-25,-36,17,99,27,-20,2,-51,18,17,-3,-22,13,36,-42,30,-61,32,-17,72,62,-18,28,-3,-35,53,-2,54,-24,-52,-69,33,-28,-5,32, -29,19,46,-60,82,62,-1,17,37,10,-19,7,-44,-3,21,-31,24,33,11,41,37,19,38,-37,-53,-22,-2,23,87,-49,-13,26,-118,-28,21,-16,28,2,61,55,-7,-36,37,-99,-7,0,-30,52,63,-50,-19,2,-7,-12,74,31,13,-22,73,-54,56,-127,57,-21, 
  /* [50][0][][] */ -29,10,-8,-7,-16,64,-33,53,-30,38,30,5,42,-52,59,-9,-17,-47,-73,10,-12,30,71,-36,-84,77,-16,46,59,29,-19,19,1,-28,-66,16,-12,53,12,47,-16,2,40,-17,3,-52,-9,56,68,-37,22,-27,-19,10,28,-70,12,9,16,28,56,-127,-21,49, 8,70,33,61,43,-10,-18,74,42,97,-17,-9,-88,-54,55,-38,-39,-9,-40,-13,4,2,61,-24,-99,-14,59,51,3,-2,-49,26,-37,0,-32,-32,15,-12,38,45,-24,-20,56,-87,2,-50,-28,57,41,73,-26,19,12,35,14,-21,53,54,26,-31,-15,-106,37,-28, -13,109,23,97,117,64,33,-5,-28,107,-84,26,-19,-22,90,30,-63,-43,-40,19,40,-6,37,60,-99,89,-12,33,84,11,43,1,-106,2,21,62,76,89,-3,50,-44,-43,71,-44,16,-29,-8,15,-1,18,25,13,68,-4,31,57,-22,90,86,17,6,21,90,40, 
  /* [51][0][][] */ -19,14,-27,15,16,30,-1,-29,21,-62,-17,-10,20,74,31,64,8,52,21,-17,-2,0,-56,38,23,35,36,35,-72,0,26,44,3,47,39,13,-21,-34,-28,-18,-12,28,-4,44,-86,11,18,38,-37,-4,-20,0,12,7,25,-7,7,45,-27,24,-16,103,24,-14, 3,0,-17,-60,-61,-46,-6,11,36,-32,81,5,52,22,-8,35,5,20,7,-30,-29,-41,1,-41,91,-61,9,-41,-90,8,28,-19,41,-43,-14,13,9,-44,-22,-8,-5,37,10,36,16,10,48,30,-79,-24,-20,29,-39,-38,-47,49,-42,-47,-17,-23,-41,69,-22,17, 50,-50,19,-42,-63,8,16,-20,28,-27,81,12,66,44,-3,38,-16,59,5,-12,-54,-5,-18,-6,127,4,4,8,-32,7,-9,-9,105,13,-21,35,3,-15,-44,-61,-20,-2,-48,47,14,-11,27,-45,21,3,60,43,-12,-28,-45,44,-39,-20,-40,-26,-25,6,0,45, 
  /* [52][0][][] */ 62,-7,19,10,-46,-35,72,4,66,-87,22,32,-21,127,-21,17,7,11,41,-17,50,10,-63,-31,18,-7,-3,-38,-88,14,-16,-14,28,12,31,18,27,-56,24,18,55,54,-29,67,18,10,-26,4,-18,38,2,1,-23,-2,-41,-9,-13,0,6,-11,-48,83,-7,15, 43,-14,-35,-44,-4,-52,-2,-18,-36,-75,102,-35,14,98,4,41,9,55,37,-48,-7,-50,9,33,46,-5,-8,-15,-3,-14,43,-6,14,-43,-34,-57,-4,-65,-8,-28,-22,-40,-53,-19,31,43,0,-5,-40,-50,65,11,-35,-26,-2,46,-16,39,-12,26,-67,-10,30,-40, 74,-13,-5,-43,-81,-44,7,34,21,9,76,-61,74,21,-24,85,25,70,80,-46,44,-32,-78,-8,112,-52,17,-21,18,0,37,2,104,18,32,29,-41,15,-46,-61,-4,11,-47,-4,32,-11,-6,-59,20,-38,79,-29,42,-68,-44,-38,2,-26,-7,-25,-54,12,9,54, 
  /* [53][0][][] */ -23,51,60,-81,-72,-33,1,-103,68,42,31,-33,-86,20,-115,81,-47,-41,-44,-2,109,100,-80,91,-93,-21,32,-106,-108,-18,-31,2,21,-26,-91,-109,2,-96,25,-38,-32,-32,-86,-4,-51,-17,100,-66,107,-47,44,32,-12,-18,65,90,-26,-95,33,-99,-114,82,-2,13, 45,-124,-40,3,-96,4,-66,-82,-99,-90,30,0,38,-76,51,-66,-8,-71,-68,60,69,-105,-13,-68,-38,-79,15,45,-74,4,3,-25,-118,9,0,-118,65,96,-9,-76,-6,29,94,-86,1,-31,2,56,31,-53,41,63,-122,-40,-107,-33,-14,-113,-87,22,-16,-81,-48,-3, -17,-39,61,-84,25,79,40,-43,7,56,85,91,-97,-16,-69,-45,-24,77,-100,-80,79,49,98,87,-3,-29,-57,68,-8,-95,16,91,-73,-96,17,-40,-52,12,-34,7,41,69,99,22,-12,40,-116,27,-101,60,-110,4,-84,87,-103,47,-4,-30,78,-106,-127,-116,-27,-79, 
  /* [54][0][][] */ 43,-8,-22,-5,30,-74,34,-14,4,-40,-28,-22,-38,-19,-61,-53,-18,70,3,-39,53,-24,17,-27,-28,-58,42,10,5,14,-22,15,-75,43,13,43,-43,-12,-38,-23,14,24,24,71,-57,-43,23,-14,-46,66,64,-19,42,-19,23,-26,14,-57,-48,-10,-4,-32,20,79, 15,27,3,-13,-44,-53,27,-21,-73,18,64,0,40,35,23,-19,-20,34,-28,-56,-26,30,52,-67,-2,37,29,15,31,-25,-64,42,87,38,-39,53,35,79,-17,50,-58,47,36,2,89,-56,-2,49,-28,-42,3,25,9,26,18,-38,57,27,-54,-33,-34,29,-37,27, -78,-32,2,-75,8,55,23,-31,-44,68,-8,20,-28,-58,-30,-127,-7,-36,36,75,-40,34,45,45,-17,40,-34,-35,44,-49,46,-20,-6,38,46,16,46,56,56,52,5,2,75,-32,-24,-56,6,-2,4,0,16,25,-8,39,49,-60,-26,-21,54,-19,65,-54,24,18, 
  /* [55][0][][] */ -57,38,11,105,19,-26,-41,74,-51,121,19,11,9,-76,71,26,-79,-14,-66,-2,59,-3,31,24,16,54,61,61,104,-61,26,-36,-58,58,-58,57,55,28,-3,29,29,17,-41,-94,19,-16,23,26,41,-24,-60,41,60,70,77,-31,-61,-52,61,-60,63,-116,47,77, -51,48,-28,-62,95,-28,-64,28,-52,100,-89,-4,14,-115,-50,-127,-71,-31,32,54,-65,33,32,66,-125,-28,62,42,76,27,-52,-8,-121,5,-69,5,25,-3,-41,-49,-75,32,-40,-86,75,20,22,15,65,53,4,30,-24,-16,-17,1,38,-1,59,24,-53,-33,49,44, -72,55,48,5,110,78,-4,-27,34,-2,-85,56,-16,-52,43,-29,21,-19,-42,-8,65,69,125,25,-20,46,69,36,126,-44,-22,-29,-41,13,-42,6,123,94,-13,-33,44,15,-3,-15,-55,-64,5,53,31,-30,20,-14,73,57,59,-22,44,24,35,81,-8,55,69,-23, 
  /* [56][0][][] */ 2,25,17,14,12,34,22,-39,7,-63,45,-29,-1,65,6,48,-4,37,22,-32,-4,11,-37,33,38,-30,3,-26,-36,36,1,-20,40,-17,32,-12,-27,1,-23,28,38,-6,21,16,-37,33,-20,-30,-59,-29,-42,-20,14,18,20,35,-5,-7,0,9,-25,79,-22,11, 2,-2,-14,-14,-6,-28,8,-28,23,-64,33,19,20,35,26,1,26,38,0,-17,-24,21,-48,11,73,-13,9,-6,-19,39,-17,17,52,-19,9,16,1,-38,6,-17,-14,37,-11,21,8,-1,19,-21,-52,-32,-12,-16,31,-13,8,24,9,-4,17,-19,-30,82,-27,-11, 39,-52,-20,-20,-63,-60,37,-17,10,-71,72,-49,127,44,9,41,12,32,41,-52,-11,7,-49,30,69,-26,8,-6,-38,11,-21,-20,80,-16,-18,-19,-38,-7,6,-49,16,36,-10,29,36,32,21,12,-44,-12,1,2,16,-44,-11,41,-11,19,-29,16,-46,3,9,8, 
  /* [57][0][][] */ -25,-30,-12,31,38,79,-28,33,-41,25,16,13,-14,-80,0,-99,19,-69,-46,47,22,17,24,29,-59,6,-38,-9,106,-9,-55,36,-44,-40,13,-6,71,-6,22,29,-56,-1,6,-52,61,-9,25,-10,61,-28,-24,-8,-28,-12,51,20,-27,-46,-34,6,46,-114,47,34, -37,37,-12,-6,52,14,16,60,-24,14,-64,33,17,-89,57,-20,-8,30,-65,-32,-38,17,-5,21,-36,-18,18,64,85,10,-23,44,-106,3,-33,64,-8,43,18,8,20,9,-7,38,69,22,-42,46,67,54,30,79,25,3,-10,-44,-47,-2,52,48,68,-13,28,61, -70,15,30,20,71,54,-22,-4,-51,33,37,45,-29,-127,-21,-44,-33,1,-13,78,-48,26,82,-34,-52,16,-44,-41,-4,12,13,-14,-58,-34,5,-7,34,56,-46,-48,-32,31,51,-12,52,-25,-50,-37,56,-19,-52,47,-5,17,44,-20,0,-45,61,-2,13,-47,6,-44, 
  /* [58][0][][] */ -15,7,58,24,48,79,-31,-4,-59,20,-20,-41,21,-127,-40,4,-60,-19,-14,41,-56,-71,77,-53,-40,46,45,55,43,-67,-69,-31,-58,-44,24,-18,59,-13,28,1,17,-33,-38,-20,31,-71,-32,49,81,-5,23,15,50,16,-12,-69,-47,-39,21,35,-51,-80,30,20, -21,86,14,0,90,83,-69,47,61,23,-67,38,-79,-104,-13,-36,39,-22,39,33,-21,-15,105,31,-18,43,25,24,50,-45,-34,-27,31,1,-33,25,72,41,-16,-41,23,19,43,-76,-73,14,46,36,-34,-5,-84,-48,26,35,1,-2,-17,47,46,-39,-52,-86,-24,-59, -33,14,33,-13,14,70,4,0,15,-53,21,15,-13,-74,73,0,39,8,15,-18,-11,-25,89,32,-69,18,73,95,0,-4,25,78,56,-25,22,25,20,84,11,9,42,-58,-1,48,-41,48,-65,61,-47,61,54,80,24,-8,54,-5,49,31,-20,55,96,75,22,-24, 
  /* [59][0][][] */ 56,-35,-31,25,-31,1,-17,-61,-8,-20,-36,-39,48,38,-6,30,43,43,17,-30,33,29,4,1,30,-63,32,-6,-45,-3,17,-3,50,52,3,38,17,-2,6,4,47,24,11,47,-61,-4,41,26,-82,8,18,-44,-2,-66,-56,51,34,-14,-38,-22,-55,84,44,-8, 33,-70,16,-52,-31,-28,30,-69,10,-45,93,13,71,49,22,-2,35,49,22,-61,8,2,-58,22,104,-30,-5,-46,-71,-12,-36,-50,54,31,24,23,-42,-28,-63,-35,30,-6,11,-10,-21,48,36,-12,-58,20,15,-28,-22,-57,-18,34,-11,-28,-39,-35,-17,-26,-25,42, 42,21,25,-12,-47,-45,-11,29,31,-38,72,9,127,93,12,89,-11,50,30,-51,19,-34,34,17,91,30,12,-56,37,17,-42,-41,100,0,-38,-17,-32,-13,-9,-7,33,-3,-34,15,106,48,27,-55,6,-40,74,58,-26,15,-57,-26,-21,-48,-21,16,-51,-15,-17,37, 
  /* [60][0][][] */ -25,-48,-30,61,14,-34,19,19,29,-5,13,-19,101,-38,-5,64,6,30,-12,-43,-61,-64,35,-32,87,12,58,-49,15,-30,10,38,71,-36,-18,51,-25,-87,13,-78,26,49,73,60,24,-7,55,-66,-78,29,58,19,-12,-41,-10,36,10,-14,-81,-32,2,127,-13,80, 21,-71,-69,-7,-42,14,-21,-35,41,-22,26,-22,107,-59,41,17,-15,74,-29,-7,-45,-67,33,16,39,40,-80,-2,23,-53,-67,-17,115,46,-4,10,-44,-29,-52,-58,-44,22,-47,40,40,-47,0,-35,-69,37,43,50,3,-40,-75,60,-7,-79,-1,-43,-56,61,-92,46, 74,-65,-57,-109,-46,-53,-2,-56,33,-32,-80,-70,-54,-5,-95,-16,54,-9,19,-99,-37,-15,-39,12,35,11,-6,5,-62,-5,11,10,-31,-31,59,-88,-96,0,39,-2,90,28,-7,89,-18,-1,103,-25,11,-95,6,-52,30,-72,-91,15,-30,-24,-21,59,-78,-25,-51,-72, 
  /* [61][0][][] */ 13,-3,-6,19,7,-15,17,25,-39,127,-21,-9,36,-58,33,-15,-54,11,24,46,47,21,101,-13,-32,-4,-39,-7,97,-4,-9,-36,-24,5,-45,40,70,27,53,-6,-31,28,9,-31,88,37,-7,46,51,79,42,6,-20,49,20,-11,-44,-9,-4,22,10,-101,-38,-7, -28,-29,3,-43,11,-51,-9,-2,-19,109,-17,-28,-51,-55,17,-48,-29,-50,-55,34,17,43,-2,11,-37,-30,15,36,6,-34,-27,-1,-38,-51,-13,46,34,49,-18,37,-23,-61,17,-64,30,16,-70,21,71,-13,-63,50,-56,61,-51,-66,-47,-56,33,35,-40,-68,13,-53, -60,20,19,64,46,24,-33,50,-21,45,-62,20,-66,-88,60,-33,16,31,10,0,3,27,84,31,-43,23,9,77,56,30,1,24,-84,11,33,66,62,0,-8,-26,-15,33,64,39,-31,13,-16,19,-3,5,19,48,14,55,9,37,62,-10,39,41,7,23,31,26, 
  /* [62][0][][] */ 39,23,5,41,76,2,-48,91,-16,87,-11,48,-42,-121,21,-47,-45,40,-59,69,-56,-19,93,41,-23,-55,-12,30,110,11,-9,-71,-46,45,-41,44,12,97,-10,56,7,-35,-10,-69,127,-35,-37,44,77,-16,50,-21,0,79,50,-59,-52,-40,26,-12,11,-66,3,43, -40,38,50,36,42,52,20,-20,-24,16,-26,43,-110,-58,11,-50,-17,-1,-47,64,14,-3,54,-9,-107,25,17,32,121,-18,-29,-7,-81,-65,-65,-2,48,78,-11,-66,-57,-22,41,1,63,-18,-39,-41,-14,24,-24,-26,15,20,9,7,25,-18,-47,15,-52,-82,-47,54, -78,-18,34,22,58,82,-11,84,24,40,-76,78,-36,-111,54,-58,-64,-13,-14,51,39,-29,91,-47,-119,58,65,59,36,49,56,-2,-81,50,-46,51,38,-12,-33,60,-32,-55,68,-11,-45,6,-78,-12,93,21,27,30,29,29,70,-31,-33,68,-28,64,34,-4,29,-35, 
  /* [63][0][][] */ 122,9,-125,-22,46,32,-122,42,-116,-121,-34,-66,-69,112,-122,-105,-46,-44,84,116,-64,57,-64,-120,37,77,-104,8,-96,-88,33,-86,-31,-9,-57,120,85,-22,-80,-29,-124,-46,-125,-90,39,-114,-23,-43,125,-30,-88,82,-61,75,-114,43,-126,-107,73,21,94,119,-68,-54, 38,65,-110,-125,-29,-30,115,-76,-23,42,-10,9,4,9,32,8,-52,26,80,-22,97,31,73,-67,-53,114,-81,58,87,-67,-58,-104,116,-33,-84,42,-69,110,109,-22,-119,-16,-31,102,52,0,-34,36,-5,24,82,-63,-43,9,-93,-30,-72,-78,36,-31,19,-16,-63,-1, 114,102,-71,-86,-11,-17,51,-116,-80,-9,21,-119,-79,-27,29,-43,-45,31,-25,-83,88,63,43,-89,-92,-113,38,-36,82,58,-3,-109,1,105,-16,-26,-42,43,-110,14,90,-122,104,-14,-82,-25,-60,-127,2,94,-116,-26,34,66,106,-54,-30,-33,-99,-103,120,-77,4,-95, 
  /* [64][0][][] */ -23,36,-44,31,53,72,-49,73,21,25,-24,-7,-12,-72,67,-8,24,-62,34,14,17,34,65,51,-54,52,-5,0,79,-60,4,-54,-7,52,-35,14,-5,78,53,-47,40,56,-40,-3,26,-59,-56,57,98,27,28,29,-4,-5,45,-46,41,33,22,15,9,-127,-2,21, -47,37,53,-45,33,23,-24,-41,-24,92,-75,-5,-82,-56,53,-53,-8,-67,31,48,54,-45,100,31,-118,-26,-8,17,13,-6,37,7,-112,-18,-21,-37,0,21,30,-12,-67,33,46,-80,80,-27,-29,35,54,-35,-26,-18,-13,40,-4,-51,51,21,26,-37,44,-23,15,-51, -52,7,75,30,104,110,-12,30,0,98,-71,45,-56,-32,-10,16,-44,-40,-42,14,49,39,104,40,-96,53,42,-4,42,-31,41,65,-34,-26,13,71,60,-2,19,-15,-22,-13,25,10,12,-14,-13,23,15,19,8,-34,-21,14,98,8,-3,70,-20,43,69,41,60,-37, 
  /* [65][0][][] */ 21,23,-2,-21,-9,18,30,5,20,-52,38,55,-17,73,20,52,-22,-16,35,-5,-10,-34,-2,39,61,-9,-11,17,40,4,-45,29,81,-12,-8,-17,-43,-60,27,33,-6,8,29,11,-19,43,1,-34,-49,-58,-34,-68,16,-30,9,50,-12,-34,2,55,-50,-30,37,9, 32,-21,-13,-47,-52,12,63,-69,-21,-93,5,-8,44,35,-22,12,29,-21,-20,-33,15,-34,10,-25,25,-37,-8,-15,3,-7,51,47,70,10,-29,25,23,-29,39,10,0,41,47,13,-90,44,60,31,-54,25,-23,-15,-4,9,33,-22,52,18,32,38,-67,80,-7,-64, 61,-48,3,-70,-42,-21,20,5,23,-50,96,-31,63,78,-40,-1,14,-12,60,4,47,13,-40,21,71,-62,-26,21,-19,54,25,-5,127,32,38,30,-66,-69,36,-58,50,12,-8,51,-60,49,55,14,-42,-10,-31,-48,39,-23,-36,-32,-54,-3,-33,32,-45,1,-8,17, 
  /* [66][0][][] */ 96,9,13,-15,26,-38,82,-78,9,-73,-110,-37,4,103,0,18,-9,-12,-3,-106,-29,-24,-100,5,-65,-93,-23,-31,-75,21,-35,-7,16,-23,67,35,-111,-96,-27,-95,5,45,8,92,-30,110,46,-47,-127,-63,16,-29,-75,-60,-67,21,-4,24,1,-93,-88,41,-47,-67, 127,15,-40,88,-8,-6,-22,32,6,93,120,-67,89,60,11,26,-36,24,8,53,1,-23,28,44,17,-69,-68,30,19,-30,12,-50,96,-60,2,-43,2,126,49,-74,-34,-27,-61,93,70,-43,-12,-47,-25,91,37,16,-31,-57,67,36,-79,39,-31,79,22,-52,12,3, -84,-46,-30,14,29,-2,2,48,-35,123,20,75,57,-71,-24,18,-40,28,-27,96,-64,-43,46,12,-71,62,59,-11,31,-21,48,21,41,25,-49,61,4,69,7,-8,-64,-44,15,-63,56,-27,-59,24,7,28,48,33,29,68,-15,35,71,27,-13,-11,42,-82,23,22, 
  /* [67][0][][] */ -24,18,-23,-32,67,97,-53,-81,-26,73,48,-12,-3,-127,51,-31,15,-33,-21,65,57,51,33,-6,19,13,51,-47,-22,-49,-14,-5,-18,-5,-85,-3,-46,65,27,31,-53,-75,48,3,-16,-58,11,-6,26,-84,-106,8,-1,53,-49,60,51,31,45,-31,13,-105,7,-30, 51,-38,-35,-101,38,39,-52,-39,12,-79,9,24,-40,115,17,83,40,49,26,-49,-35,-16,61,53,-51,46,33,-36,-24,-43,-53,59,77,-60,51,-79,8,-56,48,75,23,46,51,-13,-29,33,16,10,-80,-51,-7,-95,9,33,68,54,47,-14,-28,-46,-15,-48,-36,-40, -25,5,-20,-11,2,1,52,-61,-27,-65,55,50,51,94,27,-33,-31,23,36,6,-5,44,-25,68,1,2,68,-24,-81,78,76,4,49,73,-30,-36,-50,-58,76,42,48,82,68,6,-2,83,3,-2,-70,-5,42,58,-5,-4,65,9,28,84,-7,60,24,12,-24,14, 
  /* [68][0][][] */ 58,48,18,102,-22,-37,-12,83,-11,38,58,-52,57,-87,11,-60,4,-56,25,-45,44,-13,89,23,34,-57,-53,-10,26,-29,57,-12,48,19,58,19,55,98,-19,50,5,15,-73,16,66,-60,30,70,-11,95,105,22,-9,22,-26,-2,19,15,-5,61,-8,14,45,33, -70,-9,34,-50,18,46,-4,-2,-26,102,-22,24,-22,-39,2,-40,-1,-45,9,14,-22,-59,35,-32,-22,29,-15,-50,81,-45,-15,-24,-17,45,14,26,-49,5,-39,-54,-21,-18,-52,-66,36,-32,-24,-30,31,-1,30,5,31,36,42,-63,-7,55,-1,18,-43,-40,26,-4, 24,70,10,-21,58,37,-64,4,-36,36,-57,85,-34,-57,-30,-75,40,-50,-55,80,16,-6,1,29,-48,-7,1,16,119,19,37,-2,-85,26,20,-47,74,84,37,-9,-8,-40,21,-26,14,-44,-37,-19,60,37,8,51,1,25,54,-5,43,60,80,-12,39,-127,-24,-61, 
  /* [69][0][][] */ 11,66,-5,20,6,63,-47,80,24,105,45,14,75,-101,-29,-56,-25,-55,-15,81,30,-32,52,-1,-89,57,56,10,27,34,41,15,-60,38,36,37,16,54,-24,-20,-59,23,10,-5,108,-28,-6,-22,73,46,45,79,-8,-22,-12,25,23,-31,29,-3,17,-127,-25,2, -34,13,-15,-44,33,31,-46,13,-50,77,20,27,-8,-97,-4,-59,-65,-18,-8,-2,13,44,30,-19,-112,11,1,38,83,-59,23,21,-92,38,9,-24,-23,68,10,28,-44,-35,23,-83,45,-70,-11,8,18,-21,-34,58,-30,45,12,-23,47,-15,-21,-58,55,-66,-30,40, -24,65,6,48,24,69,18,50,3,94,-67,78,-57,-94,51,-36,40,-64,-39,-6,44,63,10,13,-32,-7,-2,39,44,20,-13,35,-60,30,-24,49,96,84,31,-2,44,-45,73,-35,4,-6,-11,24,27,36,0,1,-25,12,1,32,34,33,28,61,60,26,60,-27, 
  /* [70][0][][] */ -21,3,-13,4,1,-16,-64,74,17,68,18,17,43,-127,-15,-19,45,-58,9,31,-4,12,70,6,-82,-11,38,28,16,6,33,-23,-26,66,-50,73,51,26,45,-7,-61,9,23,-55,117,-33,-62,59,56,52,54,63,44,27,79,-58,4,0,10,43,60,-103,-24,-22, -61,18,-35,-58,47,-20,-46,33,-6,96,-13,-28,-39,-54,58,-39,15,-43,-45,-2,29,37,9,27,-103,18,-8,-31,18,-53,-50,-26,-89,46,9,23,68,15,32,-9,-63,-42,-33,-36,60,-31,29,55,-11,37,-66,-31,44,25,16,-33,50,35,-20,-27,28,-12,-44,-4, -38,-5,25,64,42,75,48,3,38,31,-5,29,-104,-103,15,-19,-37,4,-61,81,42,11,93,-21,-116,-16,-12,15,72,-19,38,26,-85,-2,-38,74,90,88,-5,47,-38,-49,0,-41,-3,33,17,22,93,11,-15,43,60,61,61,53,57,63,-23,45,86,-46,53,-45, 
  /* [71][0][][] */ -13,21,58,3,-20,13,-42,-11,-46,70,14,43,82,-84,51,-9,6,29,-60,-27,-35,-44,9,59,-7,-43,2,49,46,-19,9,4,-35,74,43,59,-20,85,-17,-56,45,-12,-65,-10,116,24,-12,81,47,69,92,3,-14,27,22,-42,-54,14,49,58,70,-4,-71,82, -21,-41,22,21,62,45,27,-39,-71,66,31,60,34,-38,-25,14,-38,14,-47,-6,-33,12,37,-56,-13,-8,9,-47,82,-41,42,-11,-57,-5,-31,-15,-23,-5,32,11,-44,-33,32,-13,99,28,-59,1,100,28,33,3,-59,3,-17,-5,-17,-29,18,-28,-11,-127,-42,45, -79,-3,68,-44,52,0,-68,53,-16,121,-59,52,-54,-36,14,-63,53,25,-14,30,34,44,100,65,-90,60,60,-11,17,-26,31,40,-115,-19,-38,56,36,-10,33,28,-38,-59,7,-91,59,10,29,44,103,-58,-9,33,31,-16,30,34,28,-38,61,52,81,-81,24,-56, 
  /* [72][0][][] */ -105,11,-36,-35,43,-93,-92,-19,18,-15,113,-29,-99,-6,-101,-42,63,-60,-5,20,88,96,85,53,-15,108,52,-21,8,-111,81,35,-37,-113,-110,-86,93,16,118,61,-43,-127,7,17,-63,91,102,-13,39,-40,-40,-125,-18,64,-54,-47,-69,92,-28,-51,-55,112,104,5, -107,-87,-63,-66,11,-98,-18,97,-109,1,-96,4,-43,-77,9,96,-60,-15,3,-41,-66,21,46,-54,-64,80,-95,-30,30,55,-81,-73,-65,23,-20,101,94,-60,-64,-46,22,-117,-68,101,-112,-49,-27,-57,-2,61,-21,-5,93,-98,-26,-65,11,-48,10,-23,-28,-47,107,-57, -69,-13,-19,-22,-19,-125,64,104,-61,-86,-73,-113,-115,-122,-45,-39,-58,-103,-58,93,-80,9,-90,40,53,80,28,-58,-70,-50,31,-18,-121,-39,-95,95,91,5,30,106,-123,-78,-114,87,-40,14,-123,-119,100,65,-49,-60,53,89,105,-21,-11,-78,96,83,86,-115,-33,74, 
  /* [73][0][][] */ -30,73,-37,-12,52,12,-2,25,8,101,52,18,-12,-73,8,-72,-80,-5,14,30,-45,-40,38,-57,-3,56,30,-20,46,1,-14,-55,-75,-25,-60,59,2,50,-23,11,-54,45,-34,-75,98,-63,13,-33,54,-49,6,-23,-18,-12,-52,-72,-51,10,-62,-83,41,-105,38,-60, -71,44,70,-13,89,-11,14,78,44,1,-65,83,-36,-65,-20,-123,-68,-24,-11,41,62,-47,25,37,-80,82,50,29,25,-48,-36,1,-64,-3,-14,36,41,-7,0,-3,-79,31,77,-41,-36,-1,-63,24,34,32,-58,-7,-7,73,9,-22,49,-52,61,-50,53,-61,-2,-17, -21,100,-7,85,127,21,19,28,-13,38,-6,-2,-33,-18,84,17,49,-21,-89,24,62,69,38,28,-26,18,10,49,66,39,-32,60,25,53,62,6,114,62,-31,54,59,-47,13,63,-10,26,-10,5,34,3,-9,85,50,92,33,46,-8,45,-17,6,26,-17,9,-67, 
  /* [74][0][][] */ -124,15,-42,-66,-47,-107,-86,116,-16,-29,28,-93,30,-42,-124,-24,30,32,53,-65,20,-88,75,-32,-65,-82,98,-122,85,-4,-20,103,72,19,-35,-94,-59,92,29,36,116,-86,-119,-46,-94,99,-47,89,92,-13,-9,67,97,27,59,-45,90,111,-106,14,-100,-111,-45,90, 6,-41,15,-94,-68,-17,7,-99,4,-17,-105,-69,43,-63,-36,-41,-66,-98,-110,33,24,-68,15,-96,-22,-59,20,-8,-37,-85,99,-63,104,-78,-121,2,-32,-114,-38,56,-17,-1,103,79,-91,-76,-30,-18,34,67,-86,-105,-101,-127,108,107,34,-112,-76,-125,-46,-68,-47,41, -48,23,-42,15,88,47,101,-37,55,-29,33,15,-11,-53,92,-95,42,25,60,-107,62,31,48,112,-112,-77,27,87,-24,-95,-121,-99,76,-38,-93,22,-35,-4,-6,-19,-47,-45,56,7,-28,50,-54,-92,107,-49,-69,-115,105,43,42,-48,-31,87,1,43,-103,85,-7,6, 
  /* [75][0][][] */ -5,-34,-40,-92,-59,-24,-28,-78,46,-16,2,-34,1,7,-82,-20,20,55,-10,6,-38,-22,-71,-7,-36,-43,45,-32,-127,48,29,70,13,-25,-31,5,-77,5,-56,-7,19,-24,-8,28,-38,25,48,6,-103,44,63,35,-55,8,-61,81,12,-44,27,-48,-39,59,-11,28, -10,-54,-6,97,13,3,-55,19,-3,50,76,-20,49,8,5,17,-30,27,-54,57,-1,48,32,57,8,45,-2,-24,72,49,47,-62,48,13,15,2,-11,98,13,-50,4,55,-60,-46,65,-16,-10,7,-1,43,114,11,56,13,-1,30,0,13,-24,-34,35,-39,-51,20, -54,31,-54,-36,58,30,-47,0,15,75,118,-10,94,7,46,-88,-51,-55,21,69,-14,-22,6,4,53,46,-51,52,28,-50,15,17,-67,34,29,77,26,24,-20,-5,-42,-48,-25,8,59,-10,-29,34,54,30,-14,21,7,47,-29,-34,51,-20,39,-42,71,-67,-23,-20, 
  /* [76][0][][] */ 0,-35,24,-21,20,-25,60,11,-10,-11,45,27,7,127,-45,80,26,32,52,-34,-37,-21,-46,49,2,44,-36,33,-18,-36,-21,38,63,-34,35,-6,-47,-6,24,-20,-11,-32,13,66,-25,-4,-9,4,-23,6,-45,15,33,-35,31,31,-4,-14,16,39,15,36,-1,-35, 54,-30,10,-9,-56,-29,48,-29,60,-96,43,28,74,116,-13,-6,-9,40,56,11,-20,-21,-42,46,4,2,-21,-9,-43,3,-5,-9,41,-39,34,-41,-45,-60,9,20,55,-3,-15,11,-32,27,61,-38,-28,-9,43,-25,-10,-43,25,40,19,-14,-34,-29,15,10,10,-2, 77,13,-26,-16,-36,-6,-9,-42,21,-51,104,13,80,76,-11,34,-6,39,-25,11,9,27,-16,-1,71,-30,28,-25,-47,-6,2,-17,122,-27,-33,20,-5,-10,-24,-38,37,24,9,-21,52,32,-26,-41,8,7,13,11,-15,-23,-33,-9,-10,25,29,13,-15,0,-38,38, 
  /* [77][0][][] */ 18,54,11,54,76,48,-38,40,31,105,-9,14,-49,-92,20,6,15,-74,29,15,-7,36,21,-37,-35,-23,25,-5,17,-69,35,-21,-47,29,-19,20,56,88,-41,-15,-18,-9,-39,-71,74,-65,-66,-14,28,-41,33,30,39,1,50,-72,48,-27,-19,-6,-4,-120,-12,23, -8,73,55,-38,72,87,-23,58,52,29,-71,5,-95,-73,-16,-60,5,31,16,-1,5,28,20,28,-76,-10,56,60,14,-2,-42,-10,-39,-37,35,44,70,72,-18,66,-46,4,83,-50,-12,26,-29,3,114,-24,20,10,13,10,-8,-46,-25,23,28,-29,-11,-26,-28,17, 10,53,27,15,113,17,42,2,-25,87,-24,8,-92,-95,59,-58,31,33,-11,39,48,33,68,9,-127,62,8,56,68,-35,33,44,-8,67,-33,5,92,70,20,46,9,25,74,-39,-3,22,-16,30,22,80,2,54,-22,31,31,34,59,72,47,-22,30,-39,64,46, 
  /* [78][0][][] */ 21,-5,43,-30,56,-24,-30,-39,53,-111,55,20,9,110,0,65,50,-27,32,0,-49,53,-28,14,28,32,45,-19,18,52,39,29,67,-24,21,-27,-34,9,-12,-42,-16,44,56,-24,-64,26,51,-33,-4,-44,6,-52,-20,-40,-29,44,57,7,-43,28,-53,122,29,29, 37,33,-49,-11,-45,-80,-23,-47,39,-56,14,30,-3,34,43,33,-28,62,-28,-30,12,-47,19,2,100,25,-6,-16,-50,36,41,50,11,43,16,-27,-61,5,48,33,53,2,32,-21,-45,30,59,-42,-105,34,25,26,10,-51,-9,42,27,-29,-19,-39,-14,32,45,22, 36,-71,-37,-24,-54,-52,-41,-63,8,-60,127,-42,127,115,-50,87,41,68,23,15,1,23,-34,-15,118,-72,-9,-46,-33,13,48,-32,93,-52,60,37,-21,13,-72,10,7,-32,-44,39,67,19,19,-25,-44,21,14,24,27,-45,-16,-14,17,13,-3,14,-27,53,-10,-30, 
  /* [79][0][][] */ 20,58,42,-21,35,60,-25,65,-91,50,15,47,59,-76,60,-48,-20,-20,-74,-14,17,-5,59,-25,-100,17,43,74,110,-56,-33,-64,-23,36,-75,-38,-20,73,-36,-45,-50,28,-38,-13,43,-67,-68,45,114,31,-7,-7,2,28,-11,-81,58,16,57,8,-2,-71,5,-38, -85,97,55,35,-13,-10,-7,88,33,96,-8,18,-91,-98,59,-95,-28,-26,-45,26,51,45,85,-14,-46,73,62,46,39,39,-31,-31,-119,22,-7,-36,-18,56,-15,17,39,-20,32,20,79,-3,-16,15,33,-36,-68,39,51,-17,0,-11,-22,37,64,31,53,-32,32,-60, -74,63,68,46,127,96,38,22,-37,4,-78,61,-15,-48,62,-58,20,17,25,44,82,-24,56,67,-37,59,7,67,86,26,58,1,-40,10,21,27,42,78,4,-18,-41,-16,12,-41,22,31,-43,63,38,-12,-31,16,-37,43,65,12,72,54,38,31,45,-42,72,16, 
  /* [80][0][][] */ 60,7,28,93,-47,-37,43,43,-30,32,20,-57,50,-54,50,-22,-13,-24,-40,3,-10,25,66,24,67,30,-2,15,51,-19,27,25,52,71,-13,6,-7,34,-2,-46,-17,17,-50,40,93,51,-26,17,47,64,46,34,18,39,-6,48,-50,-41,11,-28,10,20,36,69, -1,54,10,-45,-8,50,17,-3,-4,21,28,4,54,-113,34,-76,7,-16,8,0,-24,-16,29,-10,11,49,25,11,13,-13,-4,-30,25,-13,-71,3,1,65,1,-45,24,-42,-52,-38,127,37,-5,-51,61,-28,10,40,-8,49,-2,25,-3,-54,-37,-79,14,-32,-33,-9, -78,9,-22,-50,79,48,-67,51,32,35,-79,-18,-120,-3,-34,-82,-36,-73,10,18,22,-5,50,8,-56,95,-38,57,94,-15,50,9,-100,-20,-23,-2,78,52,43,52,-10,26,31,-4,55,-62,-39,60,64,-50,-18,32,51,-21,66,48,30,-12,-4,-33,-26,-99,2,-27, 
  /* [81][0][][] */ -15,-40,-32,-4,24,-18,-20,-44,-9,-103,3,-32,-15,90,-21,58,62,50,-11,-20,46,-35,-57,42,11,-58,-22,-20,-35,2,-41,51,38,45,61,-3,5,-22,-19,-16,-16,55,-39,44,-54,32,21,-3,-75,43,48,18,-20,12,-18,69,39,27,18,4,-5,115,34,-11, -15,-65,-36,-40,-62,-69,43,-12,28,-50,39,-35,-26,46,-7,26,15,31,-17,-81,-51,-44,-8,-11,81,-34,27,-37,-89,-15,10,30,91,1,-25,-56,-53,-18,-30,-4,37,53,-29,27,22,30,-12,-30,-12,-30,44,29,-29,-45,-1,11,-11,-18,-17,23,-72,-16,-44,35, 52,40,8,17,-60,-4,41,38,6,-24,84,-48,78,117,-54,33,-4,-7,79,27,36,26,7,25,127,23,-50,-63,-33,-8,-15,-2,126,41,-17,49,-10,54,20,32,0,-40,-21,-31,46,48,42,-25,53,-22,11,-21,-9,-6,5,9,27,13,40,4,-34,8,-65,23, 
  /* [82][0][][] */ 1,52,-27,-6,72,79,-23,-15,41,89,22,65,-93,-30,-31,-37,-26,-65,-5,77,-40,68,73,-3,-127,43,51,86,124,-18,-75,18,24,20,-62,-30,108,25,46,36,45,-85,49,-104,52,35,21,7,6,-34,-10,-8,-15,16,41,28,38,34,-36,9,66,-32,49,-80, -10,9,102,31,61,10,40,19,-27,-79,-44,60,-44,-6,56,-46,-45,35,-50,38,82,45,112,19,-59,78,14,48,-28,53,38,-20,-24,28,20,26,56,55,72,-44,-40,-32,-26,0,-116,-47,-50,-21,-23,30,-64,31,64,12,31,-9,-26,-5,-41,6,89,9,-27,-5, -34,-51,-67,-30,-106,-118,50,-38,-61,-44,-68,-20,-62,111,-46,42,-53,-32,-28,5,-69,-58,-120,-3,-20,-70,-23,-103,-115,24,-43,-2,-119,12,26,-80,4,-32,-7,-37,-48,45,-32,-42,-50,-2,-29,-79,-28,-51,-69,-78,48,18,-29,38,-56,-77,-13,-34,-106,61,-65,20, 
  /* [83][0][][] */ 17,75,66,41,19,75,-30,67,-2,26,1,9,54,-94,54,-61,-35,10,-30,8,-13,-35,85,-20,-24,68,20,68,127,40,21,35,-65,-18,-61,10,-20,21,-8,38,28,6,11,-65,91,-40,37,66,70,30,41,5,14,70,14,5,-12,-36,52,-43,-10,-100,9,-30, -57,31,26,-26,56,28,-18,49,-26,58,-44,64,-97,-103,24,-98,30,-50,-17,-31,-25,3,84,1,-92,40,14,21,60,29,14,-18,-112,-36,-56,60,6,21,57,17,-20,-49,33,-66,26,-16,-29,6,62,33,31,0,48,46,3,-13,56,-7,22,15,66,-43,-12,21, -72,68,48,3,112,46,4,63,-25,66,-57,-7,-38,0,-6,-37,24,-62,18,39,15,-28,103,17,-118,46,54,79,37,4,33,-26,2,-28,-47,54,97,26,61,61,-13,-11,32,-10,26,41,16,23,-6,-7,36,27,-29,67,7,24,28,57,41,-10,4,-49,73,12, 
  /* [84][0][][] */ -6,-27,-4,30,17,0,42,-25,5,-44,-30,-13,-24,49,31,28,10,60,20,-47,24,-5,-29,-29,12,-29,28,26,-62,-12,50,-13,2,46,34,-11,-40,-48,-13,-34,53,14,9,16,-14,41,57,15,-59,-20,-26,-14,26,21,-19,38,-35,42,-31,40,-14,93,-5,26, 20,-41,21,-20,-58,-43,-3,-18,-16,-25,28,-19,67,36,5,34,6,2,-6,-50,-28,31,-49,14,108,-51,-33,-1,-53,-23,-14,-14,72,-38,-22,-20,-51,-50,-24,-40,3,-8,-20,39,28,33,12,-48,-44,-4,50,17,9,11,-61,-23,-18,-4,-9,9,-8,42,-55,43, 60,-21,14,-10,-39,-60,-1,9,9,-54,70,-52,92,24,-35,10,44,-14,65,-49,20,-12,-33,-26,127,-57,-46,7,24,-7,33,-3,50,22,23,9,-2,-22,-32,6,49,37,-23,47,35,-13,-24,37,-40,17,5,24,22,24,-46,-12,-6,-47,14,-39,24,29,-24,56, 
  /* [85][0][][] */ -19,-16,-41,-23,68,79,-18,88,39,99,-9,-26,60,-47,-30,11,-64,22,-15,68,32,43,15,41,-29,53,26,64,86,4,-45,-64,-48,-19,-13,2,64,25,9,21,-18,-2,19,-31,50,22,-61,26,69,54,62,-14,-33,63,-27,-7,52,-12,-24,12,-5,-127,-45,-14, -2,46,30,-46,29,82,2,-26,-9,57,-22,7,-18,-97,53,-89,-35,-46,-36,21,23,-11,34,26,-29,11,20,17,90,-19,42,0,-105,-49,-55,-28,-21,54,-36,5,19,-46,55,-5,41,21,4,12,24,-36,-14,-25,51,-18,-37,-32,40,43,-10,-6,-12,-76,45,37, -12,45,15,48,74,106,19,48,-9,3,-41,-12,-71,-120,41,-24,-35,-61,-71,94,49,-12,49,7,-100,13,37,90,9,21,24,25,-27,33,19,-20,62,47,11,41,13,-38,54,-28,-79,-1,-46,-11,28,-28,-17,-30,-37,87,103,27,-26,56,22,13,87,19,59,19, 
  /* [86][0][][] */ 51,1,-3,-71,23,-116,5,-50,69,-49,-77,-69,-61,2,-63,-16,4,19,-24,-66,-34,41,-24,-54,-7,-42,-40,10,-37,14,43,32,-31,-20,15,27,-30,-58,26,-60,4,74,56,22,-41,27,65,35,-23,-53,-56,5,-35,20,-91,34,-32,-40,-87,30,29,5,14,3, 53,-50,-30,44,2,-63,-66,12,-31,96,78,-20,112,-124,48,0,40,6,25,48,-1,-58,-17,-55,-7,40,-24,20,-8,-37,39,-7,-20,20,-54,36,-37,65,-23,28,-60,-54,-37,38,72,-36,-18,12,109,18,127,-9,21,63,-39,-39,-29,35,69,-19,10,26,28,73, -7,-10,-51,-18,72,14,14,55,39,67,45,-5,-46,-10,54,-3,12,-30,-67,54,48,61,17,-17,-58,76,32,-15,88,-43,40,4,-7,-52,-6,58,48,-15,42,-42,9,-67,42,22,104,-54,-39,-7,19,23,-54,-26,55,-2,34,7,18,13,13,11,74,-123,-25,34, 
  /* [87][0][][] */ -39,17,40,-85,46,43,44,-2,48,-39,-6,-15,48,90,-7,-9,75,30,-15,-53,-1,36,14,-43,3,46,0,18,-19,-11,-24,3,103,-30,-8,25,-52,-78,38,-4,60,5,57,-13,-100,15,-10,4,5,-39,8,-74,18,34,-23,24,48,49,38,7,6,110,60,-15, 72,27,-6,-74,-36,-60,-5,-74,-17,2,-3,-6,89,121,35,41,-22,66,56,-30,-21,28,-6,-1,89,-55,-45,-51,-38,26,55,45,60,1,24,19,-68,-10,-26,-49,-14,6,-27,54,15,-29,51,7,-57,11,-26,-26,-37,2,-37,16,-30,-48,-25,24,37,0,-22,44, 64,-65,21,7,-69,-89,-35,29,-27,-46,61,9,111,127,-48,92,-15,-24,23,-18,-42,-52,-36,26,103,-15,5,-58,-30,35,-49,27,95,-55,35,8,7,-14,-51,1,34,-11,-31,2,-4,59,21,22,3,39,58,30,-26,-63,-68,-39,30,26,-27,21,-11,80,20,46, 
  /* [88][0][][] */ -62,-31,40,-27,-6,-19,4,-17,34,9,4,-35,41,52,-13,24,23,19,2,-1,10,-2,30,-35,16,35,35,19,-29,35,-1,-38,79,12,30,-44,33,19,4,-28,-11,35,10,-70,-51,33,-18,-28,-16,-14,-41,-28,-11,34,39,-38,39,-14,14,-23,-57,-47,44,-15, 43,-18,-12,-32,-2,-27,-10,17,49,-71,-5,19,4,31,-42,58,45,41,38,22,-30,25,-32,-21,36,-31,33,-1,-40,48,45,-24,-2,-3,-8,-20,28,-35,31,-19,17,42,31,-27,-17,51,23,-17,-73,-64,-36,-20,10,-1,37,53,19,7,-30,-34,7,55,4,-28, 10,-25,13,33,0,-41,30,13,11,-55,42,11,127,79,-44,70,12,-10,43,-2,23,23,-78,38,34,-64,-38,-56,-83,4,-18,30,87,23,49,-37,-61,21,21,-25,8,31,-48,-9,-5,13,-27,33,-14,32,44,1,19,2,-41,-4,-45,-46,-34,-37,32,63,-26,-39, 
  /* [89][0][][] */ 13,-17,-94,-7,-50,-22,-90,24,36,69,-73,52,-108,3,-13,-43,17,-25,-31,4,80,80,-86,12,-79,66,-8,79,-104,90,-98,-32,-27,90,-109,73,49,61,-62,27,-68,12,102,27,-46,-100,-101,15,-96,-90,-4,-55,56,-18,-87,23,-5,82,78,33,-114,85,47,-39, -43,-27,60,-35,-15,60,-74,77,27,-47,-73,-24,88,-34,72,-116,-122,-83,-11,-26,-10,-91,77,-115,-11,-1,-12,-86,-127,35,-34,58,95,-29,-56,-79,-18,30,-113,82,-57,-99,29,17,52,-81,-41,26,2,-3,-106,55,71,-20,-91,-106,-47,-70,36,0,-25,81,66,-38, 71,7,-84,91,-17,16,13,-52,38,53,-88,12,-74,37,22,51,14,-122,-54,30,13,-60,-95,-56,-92,-106,-3,-113,21,54,-94,85,-53,78,-13,73,13,37,-77,3,86,-46,-8,48,39,23,2,-27,79,58,62,25,35,28,67,-35,-118,-59,36,-103,14,-33,79,-44, 
  /* [90][0][][] */ 41,-92,72,66,44,100,-92,22,84,31,32,-74,10,19,0,17,33,-84,23,82,-63,-91,-18,-66,-59,100,-25,23,-1,-46,-12,-90,82,87,52,-58,72,53,29,8,-43,-31,-2,-79,-109,6,-46,-77,2,38,67,19,-91,63,-89,-68,59,-85,95,-10,-52,-12,57,62, 4,67,-59,51,26,-13,-43,32,-83,47,45,-46,31,87,75,-4,-22,-114,-7,-120,-17,-33,-42,-69,66,34,-3,-17,-11,9,88,62,3,-98,-56,-80,18,-17,-112,-49,-105,3,-103,101,96,-70,-22,-104,72,-52,-24,-32,-112,-86,-10,-15,4,-127,-114,85,74,-67,-50,66, 69,-116,-16,-18,-85,91,8,85,-81,-18,-68,58,83,-65,-22,67,94,-49,52,-37,65,80,79,-84,-115,103,-77,-93,81,95,-73,-67,-85,6,17,99,-103,-79,-43,92,-57,-4,-99,57,93,36,31,10,29,71,84,95,-115,-68,-89,-82,88,-89,-113,103,-74,-110,67,-3, 
  /* [91][0][][] */ 72,29,-127,-41,98,-40,-55,-107,-101,-8,76,-62,120,27,56,69,-28,7,-86,-68,-86,22,50,-127,-99,62,-98,26,-31,-66,119,125,59,-60,-111,-5,-71,35,-12,-33,6,73,-32,73,39,-58,100,-10,69,-99,19,111,-51,114,-113,7,-24,49,-92,-125,100,54,98,-70, -34,-122,-82,-20,-12,-119,-32,-21,-91,-32,-42,107,-4,-2,81,-100,-72,121,-31,40,84,69,115,-87,-95,-125,52,-114,-78,-38,-92,-76,123,-19,-91,64,49,-86,-17,-8,-64,84,-16,6,25,-100,66,-104,-34,-111,29,91,81,-51,19,91,126,-37,-78,-85,-25,-37,-125,-24, 93,-113,-110,-71,35,52,-71,-64,-85,72,-61,-33,-67,-37,-113,-45,-86,-7,-57,88,-63,49,-119,-49,-54,-51,93,26,-3,-29,-74,87,-27,93,-93,36,-28,101,16,-67,2,56,-98,48,21,74,70,89,-79,-126,-44,4,14,-81,0,-61,-70,0,-66,55,-69,88,-117,54, 
  /* [92][0][][] */ -57,53,35,-33,-9,110,-45,61,43,78,-14,82,30,-97,37,-103,46,-28,-52,62,-2,19,68,9,-74,35,-22,62,78,2,-64,-21,46,-6,-45,26,34,-54,18,13,-51,-79,25,-40,-13,49,21,48,87,-44,-127,-81,34,76,18,-46,41,-22,62,55,52,-33,-1,-104, -41,27,11,45,-8,45,-41,38,-6,-6,-87,-42,-15,-76,76,-20,-53,-7,10,-48,63,52,66,40,11,37,12,34,0,31,32,0,-24,65,13,66,-28,-13,39,51,18,8,-43,21,-58,-45,-60,1,24,-40,15,-41,-17,65,29,68,15,-7,3,-44,-33,55,6,-18, -12,-6,-12,9,-43,-74,-58,-73,41,-51,54,8,60,65,10,-25,-31,22,-44,-50,21,-1,-103,19,89,-30,-56,-63,-47,0,11,7,-57,3,11,-60,-40,-76,-6,1,-15,-40,-76,16,-26,8,21,-60,-92,-11,36,-35,-34,-47,-85,-37,-72,1,4,36,15,41,33,35, 
  /* [93][0][][] */ -64,-15,37,19,48,15,10,86,-44,97,34,59,3,-119,58,-39,-15,12,-67,-5,44,-50,51,-47,-104,48,-9,7,35,1,40,-18,-34,13,-4,7,-6,114,-35,-18,5,36,22,-6,102,-12,35,54,55,47,6,81,-37,-21,64,-69,2,41,-18,-48,12,-101,35,51, 11,58,7,-23,21,27,-9,-23,-2,106,19,39,-59,-63,38,-80,-57,-61,-3,-24,48,-27,18,-32,-127,2,-40,41,52,-44,20,-2,-112,11,1,-21,-24,-4,-26,4,-45,-63,38,-57,55,-22,-70,49,44,27,8,29,22,74,-37,-26,-23,-49,-8,-20,63,-65,-19,-2, 18,0,-13,17,17,78,31,36,-39,9,-77,38,-40,-44,13,-86,6,6,-43,-6,-24,35,100,22,-71,28,59,51,40,51,18,7,0,25,-3,62,94,40,1,47,-47,45,78,22,-21,29,-24,32,59,-10,-52,-34,42,22,97,-3,-18,69,8,-18,30,25,52,26, 
  /* [94][0][][] */ -63,-38,-34,12,43,31,-67,-19,-32,59,-29,-34,-9,-99,8,14,-7,42,-72,47,-52,20,4,16,-62,23,38,61,17,21,-60,16,0,8,-74,1,20,-16,50,16,-76,11,47,-48,1,-23,-36,-29,20,-40,28,63,-34,39,-36,-62,52,-36,-2,0,-24,-119,26,-22, -51,68,-33,-83,-4,52,39,-60,1,-58,7,66,33,13,-38,55,-34,-10,-23,-19,20,55,-3,-20,-34,12,-33,35,29,-57,-14,-10,-45,17,-50,1,50,-25,-2,-22,-11,-36,70,-17,-42,33,6,-67,-30,-44,-27,-84,60,7,45,-31,35,2,0,42,-49,-20,29,-11, 19,-54,53,96,52,21,38,-30,66,-127,-38,-43,70,44,-26,18,50,-4,52,-57,36,22,-10,-24,-52,1,67,74,4,71,32,28,98,7,49,63,42,47,55,3,30,40,47,33,-62,83,35,8,-45,1,72,25,7,-55,7,28,34,59,17,-4,14,51,-7,-12, 
  /* [95][0][][] */ -35,12,-2,-38,16,-12,1,-48,14,95,75,-16,-21,-127,-10,-37,-61,-23,22,55,21,28,15,-59,-65,15,12,-40,42,24,-44,8,30,-62,11,-48,13,14,18,-58,-80,-22,-24,-101,6,-50,15,-17,75,30,-58,-43,14,-25,46,-34,-12,21,-4,-9,33,-76,26,-34, -58,39,68,-17,32,32,-26,-30,9,5,-29,88,2,-109,-31,-72,4,-29,3,34,-19,12,54,0,-28,72,53,57,85,35,16,30,-52,5,31,-28,-5,38,-20,23,-60,-24,7,-69,-57,-61,21,18,64,-11,-54,16,-24,35,28,-7,-19,-36,63,6,-10,-96,49,-62, -30,23,54,73,111,83,-36,65,7,15,-15,50,-14,-20,51,-11,37,23,-42,7,42,47,47,36,-59,-8,13,20,78,33,-12,40,10,76,67,-12,27,49,-2,35,33,-18,41,-1,-8,-22,-38,-19,48,35,11,60,21,-15,12,28,8,-13,14,24,52,19,4,42, 
  /* [96][0][][] */ 13,-29,19,78,4,-18,-59,4,-34,102,-6,-5,24,-127,14,14,-26,-31,-3,50,-43,39,80,2,-17,24,21,51,1,34,-1,31,5,32,-22,61,-3,30,39,-2,7,38,14,-17,61,9,-57,-29,89,14,57,65,-1,47,15,-47,31,35,4,-37,61,-108,-57,31, 7,22,-59,-28,3,59,-12,-4,-21,16,30,8,-13,-81,46,-12,-65,10,-3,51,-15,18,42,40,-40,-33,-32,14,59,-22,15,11,-40,11,-72,-2,-4,61,8,1,-34,17,53,-53,76,-44,-16,-8,21,-48,-4,31,-20,16,38,-60,3,8,-26,-56,-36,-53,-37,-31, 13,66,31,67,27,42,10,44,-22,-3,-68,56,-51,-27,50,-75,-59,-46,22,4,-42,22,57,52,-76,-5,-7,27,10,-7,28,44,-51,32,21,-19,20,48,19,63,17,9,15,11,18,-21,-5,62,56,6,-5,-12,-20,25,63,-38,7,32,52,54,-18,-3,25,-45, 
  /* [97][0][][] */ 6,58,55,11,3,53,-4,-45,-9,20,40,22,-17,-75,8,-104,-81,-77,-74,-17,-13,-30,45,49,-50,27,-70,61,121,-16,-73,27,-81,12,-10,13,31,19,-26,25,27,36,-49,-29,9,-66,-78,-58,30,25,4,49,-19,-29,-22,-100,-13,35,-3,-51,-50,-103,-26,10, -22,86,-25,13,48,6,33,70,-70,113,-25,-37,-82,-84,-41,-59,-45,22,-81,-23,-29,-56,86,4,-61,-11,-30,-15,106,-58,34,7,-76,-37,-49,-56,82,-8,20,54,16,2,10,-7,51,-63,31,26,127,8,-54,-60,30,57,21,-25,-5,-58,-28,-33,-32,-61,42,40, -27,12,4,31,40,96,-30,14,2,7,-8,21,-92,-88,16,27,22,-33,-58,20,-28,51,34,35,-60,49,59,93,49,13,-5,68,-83,85,-26,-7,42,20,65,-2,-46,15,61,-19,-11,23,31,29,75,82,-70,-24,78,34,86,-9,24,42,1,78,30,61,31,54, 
  /* [98][0][][] */ -36,75,-33,80,51,-21,-23,12,-16,89,-1,64,68,-104,60,-80,-56,-27,-26,82,48,-9,0,-47,-34,-37,42,68,31,-49,0,-10,25,22,33,42,65,60,63,-19,-53,-30,-24,-14,116,-54,20,-17,89,67,-7,4,-31,-1,2,17,-44,-22,53,10,-17,-32,61,62, 16,9,-41,-21,-39,-38,-49,-11,-24,120,-44,22,-89,-39,-43,-77,16,25,-60,27,-3,42,101,42,-86,-28,13,9,85,43,45,-74,-127,-17,-46,-2,-15,88,-56,17,-16,-26,-38,0,72,-71,30,65,32,-13,20,12,18,0,-10,-31,-38,61,32,-52,-12,-105,9,13, -39,64,65,30,19,76,-2,34,54,40,-13,8,-11,-51,88,-56,-69,1,-76,86,-29,74,107,-19,-109,67,10,42,83,-7,-19,-14,-90,30,51,67,42,3,-34,67,-67,47,66,1,-7,-47,-33,-39,32,52,13,10,4,27,101,45,-22,50,-24,52,48,-28,12,-35, 
  /* [99][0][][] */ -31,12,24,-44,9,49,-19,-30,-77,42,-38,11,-30,-80,-12,14,14,-71,13,25,-57,-37,81,-58,-34,4,36,-20,27,-46,-66,-10,-56,26,-53,10,15,40,-54,44,-67,41,9,-79,37,-38,5,46,49,38,-48,44,-12,-24,-20,-25,-32,49,27,0,-26,-105,-22,44, 4,31,51,10,77,43,17,68,-49,68,-5,52,-74,-118,14,-76,2,4,28,47,36,43,95,17,-52,41,-7,57,7,-6,-12,-20,-60,-8,-40,0,79,48,-39,-22,17,-17,41,-48,-63,-51,40,-16,78,-13,10,-19,47,41,40,-10,-33,-23,-15,20,48,-33,-27,35, -13,41,70,76,127,-10,50,44,7,2,-14,21,4,-90,33,-20,-44,-59,-57,71,24,-32,29,-5,-115,-14,36,95,38,63,13,72,-30,38,-6,55,38,91,61,-30,29,-10,34,37,-1,49,-20,6,-26,47,-51,35,-5,-12,74,-29,-16,71,77,-19,83,36,1,-12, 
  /* [100][0][][] */ -29,5,76,17,105,73,-42,55,-8,10,-57,3,-52,-41,40,-19,-33,6,25,10,52,-10,108,5,-127,88,28,-22,98,37,11,22,-1,-48,-50,43,45,-6,-23,50,-6,46,-13,3,-3,-41,8,19,103,1,-79,-55,-33,-18,63,34,-22,-8,16,-17,67,-120,-30,-17, 25,64,8,64,91,103,-16,-8,-18,36,-63,76,-100,-105,-27,10,43,-63,-60,75,19,30,41,-1,-99,24,-15,74,57,-6,-31,-3,-19,79,15,56,64,-40,35,-5,14,15,50,62,-109,-35,-70,17,41,75,-64,52,-15,52,99,-38,-21,-25,-23,69,56,14,29,26, 58,18,-6,12,-104,-54,19,-9,6,-25,-20,-63,-3,61,-27,31,1,-53,-51,-61,-16,33,-91,-17,50,-32,-11,-27,-62,-64,20,-13,-77,20,17,-8,-87,-5,15,-34,50,-23,-54,-41,-70,-4,-7,-18,-103,-29,-6,-60,5,-13,-77,41,-64,0,-95,-35,-32,93,-74,-81, 
  /* [101][0][][] */ 12,37,25,57,-13,43,37,-7,17,127,61,14,9,-77,36,-34,-30,4,39,29,23,9,82,8,17,7,-44,45,37,58,-50,-45,-65,52,8,63,32,109,-56,-19,-27,48,3,3,57,-6,-43,4,76,35,14,48,22,2,60,-25,3,-24,32,-14,28,-69,12,44, -100,8,-1,0,54,-5,-77,-4,-21,51,0,7,-37,-92,-25,-2,-70,-61,35,18,-4,-15,67,-23,-126,9,32,10,48,-42,4,10,-85,-2,30,30,10,111,-58,29,31,-64,-45,-56,42,-12,-1,-39,92,57,-46,58,33,-12,24,-17,-30,18,37,-35,-9,-99,31,14, -70,75,60,-4,29,3,-52,20,-6,106,-30,23,-79,-53,66,-45,-18,-7,-23,71,-42,77,115,58,-120,18,53,31,42,15,42,3,-74,5,-40,67,69,98,63,-34,-30,-36,45,-30,-24,5,-47,-15,99,40,21,-19,50,12,59,-57,71,6,12,63,67,2,-19,-17, 
  /* [102][0][][] */ -21,35,35,-53,-18,23,56,15,8,-75,-40,-34,-6,127,41,35,-13,-14,33,28,40,-27,20,-43,88,8,49,-44,-53,71,-23,-13,47,8,-4,-39,-21,9,54,28,43,14,-49,79,-33,20,60,35,9,34,-23,-34,21,-28,41,16,34,-39,-57,-28,27,125,40,26, 31,-5,36,-25,-72,-70,70,22,22,-105,93,16,62,87,-45,18,-37,60,12,-67,-44,-44,11,28,34,-37,-59,-66,-70,1,34,37,42,-8,-5,31,-24,-67,36,-64,17,-28,-61,-19,8,-46,-30,-17,-62,15,8,-31,13,13,-58,10,-14,-48,-23,-56,4,35,-67,52, 7,-52,-69,39,-34,-41,62,6,-14,23,61,-20,60,98,24,27,32,76,25,-36,-42,-7,-44,-37,50,37,-22,31,17,36,31,-23,64,5,-8,17,-67,-28,-34,9,26,18,-107,-26,111,-9,41,32,-38,2,43,2,40,-26,-18,31,-62,-32,21,-48,-53,10,-36,61, 
  /* [103][0][][] */ -26,39,22,36,-16,-30,23,47,22,47,36,32,12,-127,23,-53,-45,11,-56,-13,9,-30,37,-35,13,-5,-5,47,16,-41,34,12,-57,-6,-14,39,32,113,33,-7,-30,52,14,12,31,-28,-32,67,29,-19,50,55,14,28,34,-9,25,54,0,39,30,-125,42,48, -67,73,18,-1,29,51,-44,34,-43,62,-27,37,-45,-60,69,-8,13,-34,-11,54,2,-35,52,-28,-25,71,52,16,42,-22,16,40,-34,29,-57,48,-2,101,22,32,-17,-40,9,-34,33,-44,-30,2,25,-23,-65,-22,34,78,16,26,45,9,23,-36,33,12,-17,30, -7,46,58,89,53,12,-49,-19,28,53,-62,26,-47,-72,43,-22,-37,-54,25,39,-20,2,48,17,-70,-10,-8,40,70,1,-27,-42,-67,2,-25,7,88,53,22,44,22,-39,7,-50,6,-36,7,12,36,-25,31,25,16,84,1,8,-8,-16,45,43,36,-52,36,34, 
  /* [104][0][][] */ 83,38,56,73,0,-33,-33,-5,10,62,22,-50,50,-65,-53,-6,-63,4,-60,42,-36,21,39,35,-43,17,-13,47,-15,-14,-38,41,35,68,35,18,52,32,41,23,9,-10,-74,-26,123,-15,-25,-18,53,29,54,11,-5,-11,-41,-4,-9,37,48,16,69,18,-33,46, -43,64,-57,29,-14,18,-22,11,35,99,97,10,-17,-64,-13,4,-66,-8,-6,-8,-16,14,48,49,-56,15,15,52,57,-16,-61,7,-31,-16,-12,11,-32,79,32,-23,-62,-25,57,-89,72,1,-40,-17,33,48,-58,39,31,-8,-30,-68,20,-51,-28,-52,-21,-127,-50,-34, -19,51,33,-69,21,-3,-60,73,27,7,-17,82,-100,-31,7,-68,31,-48,19,-13,66,-20,7,7,-106,45,68,1,68,-55,11,-1,-27,16,32,-48,-21,76,-8,16,16,36,86,-16,30,-56,-47,15,-2,5,9,6,39,-7,61,-39,52,64,40,-20,23,-116,-27,-41, 
  /* [105][0][][] */ -88,71,-11,33,41,8,-67,-36,40,-21,67,36,36,22,-26,10,6,20,13,49,51,34,90,12,-66,-11,-55,32,-3,-7,-75,-34,-2,-45,-45,9,-1,-11,9,-29,37,29,99,-1,-33,26,39,36,8,-7,-127,-40,27,80,-46,34,56,-12,14,56,28,-6,57,-67, -41,20,16,-8,-16,-12,52,71,6,5,28,-18,44,42,-27,17,20,12,-47,-37,13,-31,-52,68,-41,48,-5,-14,-54,71,59,-35,38,-5,50,37,-32,28,-17,-23,77,16,-34,62,-96,-49,35,65,-32,34,8,0,49,-19,76,-8,45,29,-67,-8,35,30,-40,12, 58,-31,-62,49,-8,-60,-33,-40,23,-58,15,30,53,124,-53,-9,-15,58,-15,-58,-36,-27,-92,-50,23,-93,-72,-62,-72,-29,-64,-46,14,-4,67,-64,-91,20,-18,-67,-19,17,10,8,-69,49,-16,-61,-105,29,67,30,45,-51,-1,5,-81,-49,10,22,-92,85,-63,45, 
  /* [106][0][][] */ -83,61,47,31,70,93,-53,30,0,73,-36,-1,-74,-70,-5,-111,-27,-8,-23,77,-23,-7,63,-40,-43,-24,-49,-28,78,-3,-35,-44,-82,51,-47,14,36,89,-46,26,-57,4,40,-28,83,16,-58,47,43,-35,-18,19,-3,60,22,-12,12,60,34,-32,-21,-75,48,45, -15,-13,54,68,4,22,54,16,36,47,-45,20,-55,-75,23,-47,16,-19,-61,32,58,47,39,34,-60,-24,45,16,42,-33,2,20,-54,-17,58,71,23,35,-33,42,-48,36,67,16,36,18,-12,51,6,19,-2,60,-7,19,33,51,27,30,-31,-32,10,22,21,35, -1,-14,13,-46,8,57,-73,-35,-18,106,-48,-23,-60,-127,-48,-25,-5,-13,-8,76,-15,16,34,32,-22,-21,14,33,-3,-25,0,-6,-13,-26,-61,-20,2,-27,15,51,-24,-53,-40,-75,45,-31,-38,-20,68,9,-56,-27,52,-12,45,-53,-16,-45,-25,9,-29,-78,-32,-36, 
  /* [107][0][][] */ -10,-46,-45,10,36,8,-71,11,-5,68,11,-39,7,-87,48,-48,13,-25,12,54,49,50,-18,16,-78,-5,23,26,3,-10,5,2,-98,-22,-95,38,-24,9,8,7,-88,-90,-47,-106,74,-28,-100,51,37,-18,35,44,23,23,-49,-31,21,-12,2,-51,28,-69,-76,-73, -35,65,27,45,122,86,-46,54,43,33,-4,92,-127,-55,-48,12,-31,-6,-35,-28,63,-17,34,-37,-24,-27,61,99,88,34,35,2,-34,44,21,18,68,33,69,-40,-77,10,94,-12,1,27,-16,8,29,15,-14,-70,18,-2,11,-12,56,-46,2,63,-46,-71,27,36, 13,61,-2,97,120,1,44,88,68,35,-46,-17,-13,-93,55,-27,-68,15,-3,59,12,9,16,42,-123,68,40,99,114,-18,79,72,-21,40,-11,72,16,43,90,-63,38,-40,19,-22,-59,14,-32,-34,-27,67,-18,-2,65,29,100,-1,77,-10,74,19,59,46,7,-30, 
  /* [108][0][][] */ 60,-92,62,-20,-58,-103,-112,3,3,-78,70,-84,-37,-92,-49,21,12,40,-70,95,40,-35,-52,42,-106,-7,12,-116,-37,-18,13,-53,-22,-99,-126,101,-117,-63,-106,26,-120,106,109,-46,71,-90,60,-42,-65,117,95,47,1,-124,-5,-108,81,84,-38,52,-55,-127,-105,2, 60,-41,-38,40,-72,-16,-43,-118,-28,-127,8,8,95,96,-54,70,-7,-90,4,-80,-61,40,-82,95,6,9,-101,11,-15,-27,-84,72,27,10,-106,-77,-38,-51,-126,-67,91,-94,-40,16,-16,-105,64,49,-47,-63,23,-4,-55,-101,21,-106,-23,97,-62,-91,65,102,-23,-72, -38,-57,-76,-95,104,86,-85,-11,7,-93,-72,-30,-122,75,-2,89,84,107,-47,-93,75,64,7,58,77,-3,59,66,-110,92,-25,-83,113,-59,113,-46,-72,-54,94,-21,-44,-62,49,-36,85,86,-18,-19,-19,0,23,17,-126,-17,78,27,-59,-14,70,11,-118,-75,92,98, 
  /* [109][0][][] */ 12,51,-58,45,54,69,-68,-15,-8,20,65,69,71,-28,26,-11,-48,-15,-9,46,46,47,28,-8,35,-8,-40,35,27,-62,-30,-9,-34,-35,31,-5,22,-8,-43,34,33,-35,50,-63,20,-45,-34,-41,20,-25,-74,49,23,2,38,-35,-16,38,18,-35,-17,-122,-51,-17, 29,6,49,46,27,-50,-33,3,29,99,-50,-5,-17,-75,-23,-53,-11,-20,-13,-27,25,42,90,-49,-55,36,-8,3,56,-5,29,2,-81,77,-18,71,34,23,4,-57,-29,60,-11,17,91,-62,-31,48,87,69,68,85,-24,83,19,-24,-61,-11,-12,48,73,19,32,65, -85,64,35,27,83,50,-38,-12,-43,43,11,-10,-21,-40,7,-52,-56,-39,24,40,-20,11,43,49,-48,3,-18,-20,127,-57,-36,-10,-65,23,-9,55,4,65,-49,21,-25,33,-38,6,22,1,0,-27,63,10,50,-37,-8,87,-32,-74,35,50,29,-57,-14,-98,51,47, 
  /* [110][0][][] */ -32,-36,31,-26,6,11,-59,30,-71,82,-14,67,20,-81,9,-19,-38,-76,-59,56,43,-49,38,-25,-76,9,36,51,27,39,-16,-70,24,45,-60,1,-35,-5,51,38,-8,-37,-27,-71,61,-56,13,59,48,40,-64,17,-40,-8,12,-77,30,45,-18,-17,-1,-127,18,-28, -37,83,-41,9,37,-1,-74,-8,3,116,-19,0,-58,-110,69,-19,-59,-55,-6,86,6,50,26,14,-56,36,-45,-21,69,-22,-10,48,-16,-50,48,5,30,87,-6,-44,11,-61,49,-30,36,-9,-20,74,55,-29,39,13,43,73,-15,50,40,-15,33,21,55,-120,-46,55, -69,87,50,54,36,78,-5,-9,-9,14,-75,30,-9,-104,4,36,-36,41,-67,42,35,64,83,46,-62,29,26,32,103,4,-8,-9,1,-6,-1,-30,3,71,70,-10,54,12,5,31,-17,-3,-42,47,36,84,-37,22,-26,61,62,-17,95,4,-6,21,62,10,-8,-26, 
  /* [111][0][][] */ -86,-82,-73,5,-50,33,-80,34,-79,33,35,-2,32,41,-35,-25,32,4,26,-24,-90,-40,-46,-63,37,47,-77,-72,-60,-44,-4,-79,18,-26,-24,-59,-75,21,11,-90,-91,-27,-73,43,28,-57,-53,-11,24,-16,-82,12,-89,15,30,13,-28,-86,20,-74,-23,27,-45,-39, 14,-40,-24,-17,-46,9,-35,38,11,-127,73,81,-42,119,-18,78,-18,-2,86,-13,-9,-15,17,-57,62,45,20,14,-16,28,34,-2,-1,-16,-9,-6,61,-54,4,-43,36,39,50,-18,-43,-2,84,46,-9,-65,-89,-87,14,-30,59,64,31,62,20,-19,-2,57,15,20, 38,-74,11,50,-42,15,43,-33,51,-72,67,11,44,124,35,42,38,66,5,-106,4,-15,-37,-19,82,30,-3,40,-11,14,54,6,109,28,60,-42,-17,-86,-22,-6,-24,57,-37,-19,-1,26,12,28,-115,-21,58,-15,25,-47,-67,60,-28,-15,6,8,-27,58,31,-3, 
  /* [112][0][][] */ -113,15,29,-37,19,89,-39,-63,-9,-54,97,47,-43,-35,74,-49,-44,26,-29,84,41,36,78,23,10,-26,27,-4,6,19,-27,-55,54,-14,23,58,41,27,7,37,23,-31,40,-53,-15,-22,-51,47,-19,-76,-127,-60,-19,72,60,52,23,15,7,17,-12,-19,-24,-95, 34,-36,-42,-14,-28,-22,6,8,41,-40,58,-16,-29,-2,-9,-15,-15,-3,17,24,12,-43,-40,9,81,-1,-5,68,-59,48,3,31,79,10,80,49,3,-20,24,-37,58,22,43,66,-88,12,58,27,-23,22,-14,-36,59,13,31,5,14,-28,25,60,45,101,-16,-55, 57,-98,-53,-55,-92,-4,39,-76,-66,-34,36,-94,5,32,-68,5,-40,59,-42,-60,-55,-60,-100,20,44,-83,28,42,-17,12,13,-40,49,-62,62,10,-38,-48,-69,-4,-7,-24,-85,67,65,25,19,-17,-2,-62,-5,31,24,-77,2,-49,23,-72,12,-37,-18,87,-40,37, 
  /* [113][0][][] */ -21,-22,-45,17,59,72,-83,13,13,107,37,-29,9,-127,-12,-87,-69,-23,-55,-19,-40,-64,80,-16,-30,-27,7,23,62,16,-73,-26,-40,-19,17,56,2,90,-8,44,-4,-38,-3,-63,65,-35,-50,38,49,-22,-43,28,-42,40,48,-18,24,2,-38,-58,60,-58,27,16, -21,24,-3,18,51,70,10,3,-27,18,-23,84,-18,-62,-25,-108,-42,-24,-33,11,12,20,51,36,-56,-28,-26,-22,12,48,11,-29,-108,55,41,-32,-8,32,62,-29,13,-13,13,-72,-9,-58,8,-17,33,11,-69,-11,45,-2,44,10,-21,-17,13,19,70,-30,14,-32, 32,99,31,59,80,46,-6,17,-46,80,-71,44,42,-82,59,-46,44,-46,-50,58,55,21,112,46,-92,-13,54,38,49,32,-39,79,-41,82,31,69,81,97,-5,18,38,-40,75,36,-46,-1,6,17,46,-15,-7,49,71,-4,22,-38,50,59,56,36,78,10,-14,-18, 
  /* [114][0][][] */ -122,-77,-122,17,-81,123,16,79,-4,120,72,57,-82,-20,-12,-32,88,-18,-115,-90,-11,55,119,-117,-63,-89,-36,-27,85,18,-53,73,1,83,-89,-16,-105,-87,-58,-110,-44,59,-37,49,20,-120,60,70,-77,-88,-13,43,-113,-48,23,79,-85,-3,94,-29,104,41,10,99, 28,-118,-69,-66,72,-66,-106,-125,20,51,72,-123,26,75,5,70,-114,115,35,-12,76,4,-87,12,46,-104,99,14,110,-70,-60,41,-93,19,-48,-101,-118,97,-13,-108,-117,-119,7,-7,-23,-113,-17,-110,42,-107,-49,72,66,-111,-94,21,-8,-109,-69,10,-112,-95,14,109, -68,-57,78,-103,29,-44,121,-122,-64,118,-40,66,-39,60,63,-61,97,-106,-87,-74,-28,-61,-68,45,-4,8,-62,-110,60,-101,-75,-93,17,42,-107,-114,-71,-18,67,-4,1,-102,-55,-110,-54,-39,-44,112,125,50,-126,22,-64,94,108,-34,-127,-72,-101,-28,-114,19,84,-68, 
  /* [115][0][][] */ -10,-65,-31,11,-66,6,-7,10,73,-50,-33,16,25,127,-31,0,6,77,25,-32,57,5,-29,27,88,44,8,-22,-11,0,14,-1,32,35,50,0,-10,-63,55,32,12,-11,-23,66,-28,-17,50,-4,-14,29,25,6,25,-54,-15,40,53,-5,-28,24,15,108,21,-17, 54,16,-58,0,-100,-17,16,4,-37,-69,91,-51,18,55,-41,38,64,1,58,-76,20,-46,-70,-12,104,-71,36,-67,4,52,-22,49,63,-64,37,-6,-72,-64,-6,-46,36,-33,-83,-12,49,41,18,-39,-19,-6,33,19,-36,-70,-79,-33,24,-22,-49,26,14,45,-44,24, -12,-42,-47,4,-49,7,22,-38,26,-15,63,-16,101,23,-33,34,27,71,29,-36,-47,-31,26,6,123,-59,5,1,28,-30,-10,19,104,-33,23,11,-82,-8,16,-32,52,47,-92,5,69,0,-6,-41,-9,53,-3,5,-13,-40,16,49,0,19,-11,34,-22,5,2,-2, 
  /* [116][0][][] */ 68,-28,-44,-38,-94,-20,3,-92,-20,-63,-54,11,-82,57,2,36,3,13,-13,-18,8,47,-62,18,-5,-79,-31,6,-45,1,17,21,-37,-44,56,17,-60,8,-33,-40,-25,-19,-61,64,-72,69,-16,9,-63,-15,-29,-56,-44,-89,-21,80,-49,-69,-57,-2,-31,82,-20,-37, 86,39,46,60,10,-28,-15,19,15,55,56,-78,101,-48,-24,-3,28,49,-1,28,-60,21,-32,-13,58,35,-8,18,-8,53,8,-39,9,-31,-40,20,23,4,-7,-26,-51,8,-67,23,82,30,33,45,71,57,95,17,-62,-24,-50,25,-13,-18,49,43,-10,-44,12,47, -76,25,39,-5,22,13,-6,45,-66,59,84,-12,74,-62,26,-1,10,-54,-42,2,39,-25,0,-11,17,42,35,-5,47,-13,-12,-42,-19,34,-43,5,45,63,-10,-30,-55,39,53,-66,127,-14,-27,48,98,1,31,-32,-42,54,17,-4,41,12,2,40,5,-77,-3,49, 
  /* [117][0][][] */ 68,-10,18,-8,-19,9,54,-31,-13,-32,-46,-6,36,28,-26,25,58,16,17,-47,-29,42,1,-45,16,7,4,-48,-76,11,37,36,104,34,56,19,-69,-27,43,28,48,61,-43,53,34,11,38,-48,-79,13,0,-8,48,-24,-45,3,-13,25,-27,-18,7,89,45,-11, 4,-67,-9,-2,2,-37,54,-6,2,-61,71,-57,114,85,-42,40,29,-7,-8,-3,-16,-25,-47,39,86,-46,-46,-62,-48,27,24,-54,73,-59,33,-62,-58,-33,16,-48,11,10,-59,-38,-18,1,-7,-32,-39,41,5,-12,9,20,-3,-50,6,-64,-13,-16,-54,-29,-51,-8, 20,8,-13,3,-52,-52,4,-38,22,23,58,-31,48,78,1,8,64,21,105,-3,-43,-11,23,-51,122,-57,-19,14,58,4,2,-29,127,-45,24,-54,9,71,-24,-26,39,-1,-97,16,74,74,13,18,-39,-19,58,-31,-44,-5,-53,8,-23,43,21,16,-31,-49,-59,38, 
  /* [118][0][][] */ 59,40,-50,-58,-47,-44,28,-64,16,-8,17,-22,59,100,-40,111,0,-19,-8,-34,-11,21,17,43,76,-20,69,-33,-47,4,68,16,-6,64,94,60,13,19,-36,-55,22,41,-48,32,-26,22,-35,42,-22,25,-27,64,-33,12,-59,30,-3,-16,-17,-25,-77,127,12,-5, 26,-26,-40,-79,-77,-85,-36,-31,53,-9,71,-46,105,59,-17,21,46,24,34,-59,-23,11,-5,-21,75,-42,-37,-15,-23,32,59,40,39,48,43,-6,-59,-76,23,-79,-34,7,-59,77,-10,40,-1,15,14,-50,24,29,-33,-75,-81,-36,-8,-38,-50,39,-6,49,-37,71, 80,40,51,45,-21,18,1,-52,14,31,16,-10,13,47,-37,35,-37,79,-51,-35,-20,36,33,57,75,59,-36,46,3,29,39,5,41,14,21,-27,-51,-36,-8,30,-18,-31,-68,-14,5,30,53,0,-83,-1,64,-18,-16,-1,-47,19,-68,53,-11,-38,-61,36,40,-22, 
  /* [119][0][][] */ 14,17,18,42,-11,78,27,80,7,48,37,54,5,-104,-3,-75,-55,-23,-68,37,31,-31,86,10,-73,36,-18,45,34,2,-29,-10,-83,11,-47,-25,64,19,-20,12,-18,15,56,-41,84,-31,-46,24,68,25,-38,66,-14,36,20,16,17,59,-12,-46,-21,-127,28,-14, -17,65,-25,-20,5,44,-29,29,-48,91,14,22,-83,-75,5,-13,36,6,-5,-22,6,11,13,29,-95,61,0,44,80,-57,-2,-56,-76,26,-61,33,27,-14,-47,57,13,45,48,-12,2,-49,-60,56,84,43,-53,-27,-38,33,53,-51,-37,-44,-8,-44,61,-88,20,-5, -12,39,59,76,77,108,39,48,-28,54,-4,36,-46,-16,18,-64,-32,-30,-63,21,61,33,94,22,-112,65,27,38,55,-3,2,-36,-47,40,26,47,58,32,-19,-12,16,-36,1,-39,-59,10,21,-20,27,-15,6,-26,30,70,-4,28,34,0,47,68,17,-26,-20,-10, 
  /* [120][0][][] */ -72,82,8,29,93,41,-13,26,17,15,93,-15,-7,-68,45,-83,-46,-63,35,35,-30,-58,64,6,-49,75,46,43,41,-22,49,37,-90,-58,-69,63,64,108,-39,-13,-39,-14,0,-50,61,28,-8,-9,42,28,-46,-10,-30,22,87,-42,5,19,30,-18,67,-61,50,-52, -23,0,-49,84,78,70,-73,76,-47,104,-60,-2,-15,-115,-10,-67,-52,-49,19,-14,-48,-31,111,-18,-91,29,59,89,87,-20,-69,42,-94,11,-3,60,8,85,-27,37,-21,-17,18,34,56,11,-20,30,116,63,39,-5,48,13,5,18,33,53,-15,-9,36,-41,52,-36, -75,94,-20,29,127,37,-62,0,42,9,-78,0,-34,-103,-11,32,33,-63,-55,50,-3,-3,26,-40,-97,-3,-2,43,95,65,-42,-20,-81,63,55,70,15,127,-30,69,1,-11,63,-34,-22,-12,44,84,17,53,55,42,38,71,81,-18,53,70,63,52,92,44,79,-19, 
  /* [121][0][][] */ 31,-5,-5,-51,46,-43,27,23,55,-39,7,-1,12,43,26,55,17,-7,49,-53,-16,7,8,44,47,-14,12,45,-82,59,-10,-23,47,-24,25,33,-5,-23,-34,-41,21,2,-5,77,-31,37,41,-6,-13,-22,-11,-26,28,4,4,37,35,14,-50,11,-36,88,-22,-11, -20,-12,-44,-54,-69,-93,59,-33,34,-83,23,-46,42,118,3,54,26,58,56,-5,-38,-33,3,-20,96,-53,-22,-37,-81,-11,-36,-37,54,-54,36,-57,2,-3,4,23,-32,12,-37,37,36,2,59,22,-30,-7,31,-15,20,-40,-73,-25,-41,-26,-5,-16,-35,-27,-51,-25, 24,-48,1,19,-75,7,38,-14,0,-47,127,-51,85,114,-28,35,7,11,-13,30,-22,-5,-36,-16,70,-42,-53,26,24,-24,27,-44,102,-5,40,18,10,-16,19,-54,-40,-17,-25,28,96,-27,42,-29,-37,5,64,53,14,-1,12,-24,20,-7,-2,20,2,-14,21,-4, 
  /* [122][0][][] */ -27,2,51,45,22,22,-35,-21,-35,24,53,44,-19,-76,49,-85,-17,-9,-50,44,-52,33,73,-53,-75,58,-9,11,112,-60,-33,2,-86,-9,-28,28,-22,47,32,6,-67,-9,25,-51,57,5,-57,9,81,27,25,35,-53,33,6,-21,50,-42,28,10,56,-121,-25,23, 21,50,-2,44,-6,67,29,-18,45,7,-61,67,-36,-108,-2,-96,6,-31,-6,52,15,25,28,-8,-111,-17,-40,69,93,50,-21,29,-81,27,40,-41,-5,52,-27,19,-37,-55,13,-28,-19,-32,-73,33,112,32,33,-40,17,65,-39,-23,-43,-10,-14,53,38,-39,29,-37, 38,8,70,75,26,34,27,15,49,4,-16,3,-67,-85,21,-27,-9,-2,-3,26,-28,6,47,71,-105,29,50,47,127,-25,52,41,-56,68,0,-11,27,57,69,47,-28,-54,87,-30,-3,27,-50,8,72,8,-46,55,-12,69,86,21,-33,20,64,50,43,41,74,-40, 
  /* [123][0][][] */ -15,-54,-20,4,-50,-66,-11,-26,45,11,-21,23,42,34,-1,36,3,65,51,-74,-17,35,-48,45,12,-42,-19,26,-58,59,-14,57,40,-23,44,-15,12,-69,-51,-29,52,64,-56,69,1,21,-2,43,-69,29,27,16,17,-47,-48,46,37,-4,16,-34,16,22,18,15, 35,-71,-49,15,-103,-96,31,-1,3,-40,127,-76,90,91,-16,73,11,-23,3,-1,-3,-42,21,-7,67,-36,2,-52,-63,14,-5,15,65,37,-25,15,-76,-58,-42,0,-14,-36,-64,-10,101,-10,47,-11,28,-32,-25,8,-17,-70,-37,-45,6,3,-29,-57,-2,39,0,-24, 2,0,-37,8,-20,30,8,44,17,70,43,-44,52,-28,12,63,-4,-16,-54,33,13,-46,58,-61,41,-25,-27,-2,22,-55,27,-76,62,18,24,18,22,4,4,0,-23,-7,-83,-16,20,6,-74,-14,34,55,0,26,-60,11,-25,5,-4,-11,1,-25,32,13,-16,-17, 
  /* [124][0][][] */ -47,91,-79,36,98,-39,-93,-80,-36,76,11,16,96,-76,1,-23,22,43,-104,-53,-100,-37,-101,-91,41,-83,-32,-97,60,10,-95,11,61,-11,-82,-25,71,-47,-14,30,23,-33,-13,-86,71,61,70,-47,84,-83,-34,-83,-58,30,-90,13,-101,-27,58,-8,-61,-93,57,93, -51,38,79,-20,-40,-22,-91,-55,54,75,-65,-11,-55,30,74,-80,-8,74,21,90,0,-60,11,-78,-63,-65,-91,95,-84,68,41,-23,-4,-104,74,-83,40,74,23,96,51,43,-88,71,-99,101,-50,-85,-17,-23,27,-14,-11,33,33,-56,-8,-103,-112,-11,51,-73,-91,38, -17,-100,-109,38,-83,70,-4,-39,-87,-38,35,-26,-107,7,-120,97,-88,2,-72,22,-7,-84,-31,45,-83,-106,14,-76,86,-36,-93,58,-79,7,89,30,73,-30,29,35,100,-32,50,-8,-9,72,-92,-32,-127,67,-13,58,-18,63,49,-100,-44,77,13,98,-1,-88,23,-55, 
  /* [125][0][][] */ -85,68,-5,-30,46,70,-55,2,-14,-8,11,14,18,-127,16,-40,21,-21,-35,31,14,0,90,45,-50,23,42,34,2,-38,41,43,7,-23,-1,58,45,20,57,23,-59,-18,67,-78,31,-65,13,-10,72,-27,-81,32,-1,64,25,15,-8,-16,25,47,44,-14,53,-29, 26,59,17,19,30,66,18,-45,36,-70,-35,-21,-59,17,51,-19,22,-24,0,4,-15,49,-11,53,-61,-9,-18,1,-26,-29,15,57,-11,38,8,-23,50,40,21,5,25,1,45,24,-48,-9,17,46,32,54,-11,30,22,61,5,11,46,-10,-1,9,4,-4,-1,15, 2,-13,20,10,-28,-13,16,-10,-40,-93,-31,2,50,100,-16,-27,-30,-15,19,-92,0,-43,-70,-53,34,-59,-18,-40,-22,18,27,37,-8,-28,1,-7,-59,-24,-43,0,23,-17,-15,-2,-69,18,47,8,-31,-7,19,5,-58,-57,-74,-9,-44,-28,-69,18,-66,-10,-13,-34, 
  /* [126][0][][] */ 39,-95,-114,-38,-53,-116,-62,57,19,88,71,3,-127,15,49,59,58,90,37,-91,21,-2,-112,-104,67,55,-97,-10,-15,-124,78,74,72,16,86,-98,-50,-85,5,-46,-77,-90,-44,50,-74,5,-93,42,-96,67,-70,45,77,-4,-106,-111,-41,-89,-112,-72,52,38,21,-38, -89,-94,-110,74,-13,-77,-3,-54,90,54,80,-68,68,101,-9,2,82,-89,-24,107,-114,-34,-106,-64,-59,-6,39,31,-111,60,-6,-28,49,28,104,50,-75,-65,65,71,28,33,58,-44,-90,-104,-3,62,103,-89,82,-108,43,-36,94,-33,-51,-36,-96,-60,-23,84,-76,86, 5,-17,5,-91,-92,-14,-94,-92,-60,5,83,-24,22,1,68,67,-101,87,27,-28,-46,93,77,55,15,33,19,-77,-91,57,24,-16,31,-83,-26,-95,-35,-10,-101,22,-93,-33,94,-13,-90,-67,-20,13,-31,-10,-111,-78,97,-75,29,-15,71,-87,-103,37,18,32,-106,24, 
  /* [127][0][][] */ -31,-40,-48,-63,-81,-30,45,-29,45,-10,-4,-33,-16,64,-21,-3,-45,46,31,-101,1,7,-71,33,81,-30,-34,17,-64,57,-8,36,-7,-33,48,-6,-82,-17,-35,-52,54,19,21,47,-45,51,56,-34,-49,-31,40,6,-2,1,-80,-10,-24,13,-70,5,16,46,40,-15, 44,-37,34,-60,-75,-39,-39,9,42,-34,48,-52,57,51,-3,50,-36,-7,12,17,28,-7,-62,-56,60,-72,7,-8,28,37,-34,-23,65,19,33,29,-53,-39,-58,-53,-49,51,-75,34,52,46,55,-23,-1,-15,34,-39,-51,16,-21,0,17,-4,-26,11,13,-7,27,30, -12,-4,10,-41,-33,-30,34,-3,-52,-36,127,-25,121,89,12,-2,-23,65,51,-7,-13,-58,-15,15,69,-14,-31,18,-3,15,-11,-26,99,-24,-9,18,8,47,17,-55,27,-48,-42,42,75,-7,21,3,-18,58,78,-6,-33,-46,42,-15,25,-12,-15,-20,-38,-12,-8,65, 
};
const TfArray<4, int> tensor_dimension11 = { 4, { 128,1,3,64 } };
