/* Generated by Edge Impulse
 *
 * Permission is hereby granted, free of charge, to any person obtaining a copy
 * of this software and associated documentation files (the "Software"), to deal
 * in the Software without restriction, including without limitation the rights
 * to use, copy, modify, merge, publish, distribute, sublicense, and/or sell
 * copies of the Software, and to permit persons to whom the Software is
 * furnished to do so, subject to the following conditions:
 *
 * The above copyright notice and this permission notice shall be included in
 * all copies or substantial portions of the Software.
 *
 * THE SOFTWARE IS PROVIDED "AS IS", WITHOUT WARRANTY OF ANY KIND, EXPRESS OR
 * IMPLIED, INCLUDING BUT NOT LIMITED TO THE WARRANTIES OF MERCHANTABILITY,
 * FITNESS FOR A PARTICULAR PURPOSE AND NONINFRINGEMENT. IN NO EVENT SHALL THE
 * AUTHORS OR COPYRIGHT HOLDERS BE LIABLE FOR ANY CLAIM, DAMAGES OR OTHER
 * LIABILITY, WHETHER IN AN ACTION OF CONTRACT, TORT OR OTHERWISE, ARISING FROM,
 * OUT OF OR IN CONNECTION WITH THE SOFTWARE OR THE USE OR OTHER DEALINGS IN THE
 * SOFTWARE.
 */
// Generated on: 07.05.2024 07:00:27

#include <stdio.h>
#include <stdlib.h>
#include "edge-impulse-sdk/tensorflow/lite/c/builtin_op_data.h"
#include "edge-impulse-sdk/tensorflow/lite/c/common.h"
#include "edge-impulse-sdk/tensorflow/lite/micro/micro_mutable_op_resolver.h"
#include "edge-impulse-sdk/porting/ei_classifier_porting.h"

#if EI_CLASSIFIER_PRINT_STATE
#if defined(__cplusplus) && EI_C_LINKAGE == 1
extern "C" {
    extern void ei_printf(const char *format, ...);
}
#else
extern void ei_printf(const char *format, ...);
#endif
#endif

#if defined __GNUC__
#define ALIGN(X) __attribute__((aligned(X)))
#elif defined _MSC_VER
#define ALIGN(X) __declspec(align(X))
#elif defined __TASKING__
#define ALIGN(X) __align(X)
#elif defined __ICCARM__
#define ALIGN(x) __attribute__((aligned(x)))
#endif

#ifndef EI_MAX_SCRATCH_BUFFER_COUNT
#ifndef CONFIG_IDF_TARGET_ESP32S3
#define EI_MAX_SCRATCH_BUFFER_COUNT 8
#else
#define EI_MAX_SCRATCH_BUFFER_COUNT 16
#endif // CONFIG_IDF_TARGET_ESP32S3
#endif // EI_MAX_SCRATCH_BUFFER_COUNT

#ifndef EI_MAX_OVERFLOW_BUFFER_COUNT
#define EI_MAX_OVERFLOW_BUFFER_COUNT 10
#endif // EI_MAX_OVERFLOW_BUFFER_COUNT

using namespace tflite;
using namespace tflite::ops;
using namespace tflite::ops::micro;

namespace {

#if defined(EI_CLASSIFIER_ALLOCATION_STATIC_HIMAX) || defined(EI_CLASSIFIER_ALLOCATION_STATIC_HIMAX_GNU)
constexpr int kTensorArenaSize = 11664;
#else
constexpr int kTensorArenaSize = 10640;
#endif

#if defined(EI_CLASSIFIER_ALLOCATION_STATIC)
uint8_t tensor_arena[kTensorArenaSize] ALIGN(16);
#elif defined(EI_CLASSIFIER_ALLOCATION_STATIC_HIMAX)
#pragma Bss(".tensor_arena")
uint8_t tensor_arena[kTensorArenaSize] ALIGN(16);
#pragma Bss()
#elif defined(EI_CLASSIFIER_ALLOCATION_STATIC_HIMAX_GNU)
uint8_t tensor_arena[kTensorArenaSize] ALIGN(16) __attribute__((section(".tensor_arena")));
#else
#define EI_CLASSIFIER_ALLOCATION_HEAP 1
uint8_t* tensor_arena = NULL;
#endif

static uint8_t* tensor_boundary;
static uint8_t* current_location;

template <int SZ, class T> struct TfArray {
  int sz; T elem[SZ];
};

enum used_operators_e {
  OP_RESHAPE, OP_CONV_2D, OP_MAX_POOL_2D, OP_FULLY_CONNECTED, OP_SOFTMAX,  OP_LAST
};

struct TensorInfo_t { // subset of TfLiteTensor used for initialization from constant memory
  TfLiteAllocationType allocation_type;
  TfLiteType type;
  void* data;
  TfLiteIntArray* dims;
  size_t bytes;
  TfLiteQuantization quantization;
};

typedef struct {
  TfLiteTensor tensor;
  int16_t index;
} TfLiteTensorWithIndex;

typedef struct {
  TfLiteEvalTensor tensor;
  int16_t index;
} TfLiteEvalTensorWithIndex;

TfLiteContext ctx{};
static const int MAX_TFL_TENSOR_COUNT = 4;
static TfLiteTensorWithIndex tflTensors[MAX_TFL_TENSOR_COUNT];
static const int MAX_TFL_EVAL_COUNT = 4;
static TfLiteEvalTensorWithIndex tflEvalTensors[MAX_TFL_EVAL_COUNT];
TfLiteRegistration registrations[OP_LAST];

namespace g0 {
const TfArray<2, int> tensor_dimension0 = { 2, { 1,1024 } };
const TfArray<1, float> quant0_scale = { 1, { 0.00390625, } };
const TfArray<1, int> quant0_zero = { 1, { -128 } };
const TfLiteAffineQuantization quant0 = { (TfLiteFloatArray*)&quant0_scale, (TfLiteIntArray*)&quant0_zero, 0 };
const ALIGN(16) int32_t tensor_data1[4] = { 1, 1, 32, 32, };
const TfArray<1, int> tensor_dimension1 = { 1, { 4 } };
const ALIGN(16) int32_t tensor_data2[4] = { 1, 32, 1, 32, };
const TfArray<1, int> tensor_dimension2 = { 1, { 4 } };
const ALIGN(16) int32_t tensor_data3[4] = { 1, 1, 16, 32, };
const TfArray<1, int> tensor_dimension3 = { 1, { 4 } };
const ALIGN(16) int32_t tensor_data4[4] = { 1, 16, 1, 64, };
const TfArray<1, int> tensor_dimension4 = { 1, { 4 } };
const ALIGN(16) int32_t tensor_data5[4] = { 1, 1, 8, 64, };
const TfArray<1, int> tensor_dimension5 = { 1, { 4 } };
const ALIGN(16) int32_t tensor_data6[4] = { 1, 8, 1, 128, };
const TfArray<1, int> tensor_dimension6 = { 1, { 4 } };
const ALIGN(16) int32_t tensor_data7[4] = { 1, 1, 4, 128, };
const TfArray<1, int> tensor_dimension7 = { 1, { 4 } };
const ALIGN(16) int32_t tensor_data8[4] = { 1, 4, 1, 256, };
const TfArray<1, int> tensor_dimension8 = { 1, { 4 } };
const ALIGN(8) int32_t tensor_data9[2] = { -1, 512, };
const TfArray<1, int> tensor_dimension9 = { 1, { 2 } };
const ALIGN(8) int32_t tensor_data10[2] = { -66, 66, };
const TfArray<1, int> tensor_dimension10 = { 1, { 2 } };
const TfArray<1, float> quant10_scale = { 1, { 0.00016791780944913626, } };
const TfArray<1, int> quant10_zero = { 1, { 0 } };
const TfLiteAffineQuantization quant10 = { (TfLiteFloatArray*)&quant10_scale, (TfLiteIntArray*)&quant10_zero, 0 };
const ALIGN(16) int8_t tensor_data11[2*512] = { 
  -1, -21, 24, -71, 18, -5, -38, -2, -37, 12, 67, -15, 78, -7, 9, -29, 44, 33, 53, 67, 26, 25, -38, -18, 22, 9, 55, 64, 17, -64, 13, -33, 34, -45, 50, 116, -62, 21, 67, 43, 16, 17, 24, 80, -25, 7, -63, 64, -51, 78, -60, -54, 60, -5, -8, 47, 33, -43, -19, 41, 75, 43, -40, 58, 11, 50, -74, -32, 10, -30, 50, -10, -22, -46, 61, -20, -44, 86, -66, -39, -38, 64, -24, 30, 10, -32, -5, 30, -28, -59, 81, -16, -32, 25, 24, 72, 6, -3, -53, -45, -17, 23, -35, -28, -76, -48, -56, 19, 10, 70, -33, 31, 6, -35, 73, -71, 70, 59, 32, 37, 29, -19, -62, -57, 19, 56, -29, 43, -64, 51, 72, -21, -45, -8, -22, -28, -20, 66, -22, 37, 1, 7, 32, 7, 0, 71, 57, 25, 60, 15, 62, -45, 1, 7, 26, -25, -5, -13, -46, -39, -35, -49, 79, -15, -37, -52, 78, -32, 61, 37, -58, 7, -30, -30, -11, -51, 6, 27, 84, -36, -45, -21, 37, 5, 83, -8, 7, 40, 19, -38, -2, 51, -14, -22, -38, 59, 73, -19, 74, 54, -9, 32, 52, -11, 3, -31, -38, 67, 17, 28, 78, -8, -40, -32, -15, -29, 90, 97, 62, 10, 56, 66, 36, 1, 50, -32, 53, -21, -44, -15, 29, -42, -38, 35, -55, 37, 12, -22, -25, -71, 50, 39, -12, -27, -6, -9, -83, 4, 70, -57, -38, -23, -23, -28, 40, 61, -43, 2, 16, 77, -4, -6, -28, -39, -19, -23, 6, 49, -16, 40, 14, -59, 20, -67, -10, 5, -6, 16, -50, -53, -46, -11, -5, -36, -62, 17, 1, 19, -55, 28, -71, -54, 34, 18, -33, 34, 24, 15, 22, -6, -8, 15, 70, -39, 29, -30, 51, 46, -39, 13, 16, -75, -5, 39, -6, 54, -57, -16, -5, 18, -71, -31, -11, 60, -8, 51, -5, -46, -12, 49, 50, 15, -14, -46, 14, 59, -11, -63, 35, 48, -15, 67, -85, 20, -8, 43, -79, 58, 7, -54, 5, -48, -23, 23, 45, -7, 33, -21, -17, 2, 55, 39, 51, -48, -23, -23, 34, -53, 5, -30, 0, 16, 46, -29, -2, -16, 41, 25, -27, 72, 19, -47, -16, -55, 19, -63, -37, 43, 47, -18, 82, -15, 64, -19, -36, -2, -15, -38, -24, 9, -31, -57, -16, -36, -49, 19, 12, -12, 14, 46, -19, -2, 17, -47, 34, 21, 4, -84, -49, -21, -44, 33, -12, 29, -60, 6, 47, -10, 5, -27, -24, 9, -7, -17, -12, 50, 25, -35, -33, 17, -55, -22, 10, -33, -65, -31, 12, -31, -42, -7, -19, -19, 3, -28, 5, 4, -24, -58, -45, 69, -24, -7, -20, -65, 2, -48, -19, 0, 25, 44, 19, 37, -27, -71, 5, 6, 11, -21, -13, 47, -36, 44, -60, -11, 63, -19, -5, 46, -44, -21, 33, 22, -56, 34, -31, 38, -53, -22, 52, 16, 52, 9, 43, -4, -10, 26, 14, -29, 49, -18, -35, -79, 
  -48, -26, 29, 19, -19, 7, 19, -14, -5, -84, -29, 45, -86, 23, -34, 76, -32, -81, -78, -74, 19, -20, 68, -11, -67, -65, -44, -15, 32, 45, 13, -22, -69, -18, -127, -125, 53, 6, -57, 4, -15, 16, 22, -10, 64, -41, 2, -48, 17, -85, 45, 69, -1, 47, 67, -33, -43, 55, 24, -19, -47, -49, 54, 7, -56, -56, 51, -7, 16, 65, -70, 16, -30, 28, -29, 50, 0, -87, -15, 74, 6, -78, -26, 26, -30, 27, -54, -71, 26, 20, -54, -61, 35, -48, 18, -60, -6, 54, -22, 9, -3, -76, -3, -32, 26, 79, 10, -41, 34, -77, 37, -82, 24, 6, -52, 12, -59, -48, -1, 42, 28, 59, -4, 37, 11, -57, -27, -46, 44, -50, -65, 55, 61, -54, 76, -25, 49, -28, 39, -20, -34, 18, -33, 18, 39, -59, -70, -20, -68, -8, -29, 34, 60, 55, 11, -14, 13, -12, 4, 27, 43, 68, -39, 1, 11, 47, -72, 76, -56, -37, -2, -11, 12, -15, 16, 28, 49, -56, -68, 58, 56, -12, -21, 31, -81, -12, -92, -22, -52, 43, -3, -20, -32, -42, -11, -10, -33, -18, -45, -67, -21, 19, -63, 44, 14, -27, 24, -61, -17, -49, -13, -31, -1, 17, 33, 19, -63, -91, -16, -20, -49, -63, -64, 56, -32, 43, -68, 9, 60, -20, 17, 55, 35, 29, 55, -61, -17, 69, 28, 14, -71, -33, 58, 57, 46, 5, 9, 30, -47, 49, 29, 34, 42, -12, 16, -12, -6, -41, -37, -29, -20, 25, 55, 16, 46, 41, -48, -39, 89, -14, -9, 42, -46, 35, 55, 40, -42, 8, 86, -11, 35, 35, -27, 37, 63, -68, -35, -32, 33, -18, 52, 41, -7, -10, 30, -10, 23, 40, 15, 68, -52, -15, -32, -5, -57, 45, -46, -39, -25, -30, 46, 62, 67, -80, 39, 13, 20, 68, -61, -1, -9, 31, 4, -84, 29, -72, 28, 44, 23, -7, -28, -53, 14, 60, 21, -63, 24, 35, 7, -31, -4, -21, 40, 50, 42, -38, 36, -3, -21, 29, -40, 62, 3, -20, -34, -46, 27, 14, 25, -3, -46, -38, -29, 28, -9, 66, -36, 28, 8, 59, -22, -42, -25, -19, -23, -55, -25, -47, -5, -19, -22, -24, 39, -17, 17, 35, -47, -52, 19, 60, -38, -14, -38, -49, -32, 52, 64, -46, 20, -6, -11, 57, 43, -11, 51, 38, -21, -61, -38, -6, 15, -36, 40, -8, -4, -33, -7, 113, 6, -41, -7, -68, -13, -60, -20, 50, -23, -4, 53, 27, 26, 9, -41, 31, 26, -54, -4, 6, 64, -47, 55, 14, 70, -28, 41, 23, 59, -5, 49, 36, -38, 11, 58, 29, 60, 52, -22, 59, 16, -69, -39, -13, -21, 7, 16, 11, 12, -14, -18, -3, 33, -13, 44, 56, 68, -13, 66, -31, 22, -32, 63, -14, 7, 4, -12, 40, 5, -20, -43, 11, -56, -7, 52, -27, -35, 21, -29, -19, -68, -32, -46, 75, -44, -2, 50, -78, -33, -21, -40, 11, 30, 26, 
};
const TfArray<2, int> tensor_dimension11 = { 2, { 2,512 } };
const TfArray<1, float> quant11_scale = { 1, { 0.0024045007303357124, } };
const TfArray<1, int> quant11_zero = { 1, { 0 } };
const TfLiteAffineQuantization quant11 = { (TfLiteFloatArray*)&quant11_scale, (TfLiteIntArray*)&quant11_zero, 0 };
const ALIGN(16) int32_t tensor_data12[256] = { -582, -783, -89, 3817, -48, -330, 915, -283, 1260, -256, 414, 3760, 957, -1865, 69, 1241, 439, 272, 813, -462, -547, -628, 577, 1013, 1114, 622, 1220, -298, 103, 1375, 438, -589, 61, -607, 1356, 2309, 229, -3393, 491, -168, -341, -261, -2496, 41, 1585, -1295, 2198, -37, 3616, 734, 2052, 1565, -439, 2175, 494, 2332, -2840, 3100, -679, 296, -578, 1301, 1656, -658, 714, 118, 598, 409, 408, 4137, 249, -1948, -119, -3955, -50, 1692, -2084, 1646, 582, 3050, -16, 440, -786, 254, -597, 3049, 2142, -163, 548, 2023, 1787, 477, 733, 377, -38, 968, -273, 1159, -440, 1603, -543, 137, -810, -3077, 3605, 1744, 70, 807, -2963, 339, 1091, -41, -1322, -1998, -76, 2530, 154, -211, -92, -1492, -276, 616, 379, 2102, -712, -52, 219, 370, 772, 1462, 691, 454, 1719, 419, 1615, -861, 11, -171, 149, 165, 820, -911, -2337, -1187, -1120, 2144, 1267, -192, 1167, -1698, 2, 1840, -564, -190, -1804, -620, -746, 574, 816, -378, -796, -215, 188, -1841, -1208, 1475, 282, 1240, 707, -1110, 838, -873, 320, 534, 550, 348, 342, -82, 202, 176, -119, -486, 846, 992, 676, -567, 76, -887, 1543, -935, 1050, 1907, -1059, 27, -846, 33, 40, -1386, 373, 728, -1366, 311, 581, 1127, -747, -1621, 87, 438, -337, -613, -1397, -2974, 1, 32, -1620, -324, 1125, 1146, 1511, -971, -114, 151, -498, 2776, 100, -159, 1356, -1048, 617, 314, -1127, 1158, 8, -1589, 894, 258, 1210, 1379, -2041, 54, 984, -350, 3627, 1612, 1312, -315, -43, -2135, 2777, 1614, 889, -1004, 2024, -2936, 1055, 2751, };
const TfArray<1, int> tensor_dimension12 = { 1, { 256 } };
const TfArray<256, float> quant12_scale = { 256, { 4.8005480493884534e-05, 1.1069895663240459e-05, 2.9975955840200186e-05, 3.9804806874599308e-05, 2.7912050427403301e-05, 3.4814915125025436e-05, 2.9177155738580041e-05, 2.9353108402574435e-05, 3.7619145587086678e-05, 3.5335193388164043e-05, 2.9900142180849798e-05, 2.3313839847105555e-05, 3.4772660001181066e-05, 3.8195459637790918e-05, 2.7921769287786447e-05, 5.3244493756210431e-05, 3.7453864933922887e-05, 4.83147450722754e-05, 3.1760133424540982e-05, 3.58280522050336e-05, 3.2810246921144426e-05, 2.7463160222396255e-05, 4.9030644731828943e-05, 2.8250837203813717e-05, 5.2052866521989927e-05, 5.9534846513997763e-05, 2.5125424144789577e-05, 4.8206889914581552e-05, 3.282146280980669e-05, 3.8212583604035899e-05, 2.9591430575237609e-05, 6.3873856561258435e-05, 4.834461651626043e-05, 2.6255907869199291e-05, 3.668104181997478e-05, 3.5990899050375447e-05, 3.1653704354539514e-05, 1.397708820150001e-05, 3.7434761907206848e-05, 3.1354538805317134e-05, 3.3754586183931679e-05, 3.5207282053306699e-05, 1.2980941392015666e-05, 3.6601555621018633e-05, 3.6912628274876624e-05, 1.3167619727028068e-05, 3.1523741199634969e-05, 4.7709836508147418e-05, 2.6621410142979585e-05, 3.2101575925480574e-05, 2.8031066904077306e-05, 3.8810809201095253e-05, 3.2918611395871267e-05, 2.6994006475433707e-05, 4.0342652937397361e-05, 4.7464436647715047e-05, 2.6271787646692246e-05, 2.6678104404709302e-05, 1.277062256122008e-05, 4.755901318276301e-05, 3.9715097955195233e-05, 3.0712708394275978e-05, 3.9595994167029858e-05, 7.5078605732414871e-05, 3.617654147092253e-05, 3.8101385143818334e-05, 4.3378360714996234e-05, 4.6616569306934252e-05, 2.31023059313884e-05, 3.2784821087261662e-05, 4.9874422984430566e-05, 2.4346736609004438e-05, 1.2457102457119618e-05, 2.499193578842096e-05, 5.3734707762487233e-05, 4.3241700041107833e-05, 2.8884136554552242e-05, 3.254196053603664e-05, 4.3682455725502223e-05, 3.1854688131716102e-05, 3.8295227568596601e-05, 6.4606145315337926e-05, 3.1157193006947637e-05, 4.7129746235441417e-05, 3.9914055378176272e-05, 4.0781902498565614e-05, 2.632328869367484e-05, 5.0126043788623065e-05, 2.7769872758653946e-05, 4.5147080527385697e-05, 3.1169955036602914e-05, 4.8677629820303991e-05, 3.3837262890301645e-05, 4.1600029362598434e-05, 2.9510254535125569e-05, 3.6810495657846332e-05, 2.5611949240555987e-05, 3.6606030334951356e-05, 4.9646983825368807e-05, 4.1786137444432825e-05, 2.8198177460581064e-05, 3.9188511436805129e-05, 1.1456412721599918e-05, 1.3809989468427375e-05, 3.4171767765656114e-05, 3.5947374271927401e-05, 5.0413309509167448e-05, 3.4254695492563769e-05, 2.2679989342577755e-05, 3.1932748242979869e-05, 2.5870960598695092e-05, 3.4661468816921115e-05, 1.2047704331052955e-05, 3.3399755920981988e-05, 6.6721673647407442e-05, 3.7193989555817097e-05, 2.9709204682148993e-05, 4.9190672143595293e-05, 3.6363366234581918e-05, 3.9092876249924302e-05, 6.3858999055810273e-05, 4.2993739043595269e-05, 3.0586117645725608e-05, 4.5756663894280791e-05, 4.6505305363098159e-05, 5.4339379857992753e-05, 2.5610323064029217e-05, 5.9019839682150632e-05, 4.2822812247322872e-05, 3.6235309380572289e-05, 3.9684939110884443e-05, 3.7185352994129062e-05, 2.56834155152319e-05, 3.2082960387924686e-05, 5.5257369240280241e-05, 1.2876521395810414e-05, 4.3376745452405885e-05, 5.0154350901721045e-05, 3.1532643333775923e-05, 5.5873486417112872e-05, 3.4156462788814679e-05, 2.4303510144818574e-05, 3.5925109841628e-05, 2.3651538867852651e-05, 2.2303980586002581e-05, 4.8134363169083372e-05, 3.0734230676898733e-05, 2.7644005967886187e-05, 3.3589232771191746e-05, 3.1763785955263302e-05, 2.9852293664589524e-05, 3.1222181860357523e-05, 5.4125732276588678e-05, 3.7207730201771483e-05, 1.1345970051479526e-05, 1.0098879101860803e-05, 2.6247382265864871e-05, 3.6232766433386132e-05, 3.0686340323882177e-05, 6.3879553636070341e-05, 2.9682596505153924e-05, 4.4040112697985023e-05, 4.0710692701395601e-05, 2.9756549338344485e-05, 1.5374120266642421e-05, 3.6885023291688412e-05, 4.744520629174076e-05, 5.1088954933220521e-05, 4.4180971599416807e-05, 4.3016032577725127e-05, 3.5502762329997495e-05, 4.0094768337439746e-05, 3.7102716305525973e-05, 2.9295650165295228e-05, 3.4193770261481404e-05, 2.7590456738835201e-05, 3.7925743527011946e-05, 3.7547139072557911e-05, 3.9017832023091614e-05, 4.2905718146357685e-05, 4.090757283847779e-05, 1.1598025594139472e-05, 3.4302305721212178e-05, 3.6457600799622014e-05, 3.4043325285892934e-05, 3.3077227271860465e-05, 3.9389957237290218e-05, 4.1598010284360498e-05, 2.8868475055787712e-05, 3.5922319511882961e-05, 4.1653231164673343e-05, 2.9564826036221348e-05, 2.6670657462091185e-05, 2.8747732358169742e-05, 1.0278939953423105e-05, 3.0935498216422275e-05, 4.8785335820866749e-05, 1.3897449207433965e-05, 3.4070515539497137e-05, 6.9264773628674448e-05, 3.1744428270030767e-05, 3.2941188692348078e-05, 3.6696008464787155e-05, 4.440264092409052e-05, 2.7759433578466997e-05, 1.2290259292058181e-05, 4.4488180719781667e-05, 3.8932812458369881e-05, 4.4126722059445456e-05, 2.5961529900087044e-05, 3.4246440918650478e-05, 1.3669248801306821e-05, 3.062644464080222e-05, 4.2166109778918326e-05, 1.1078170246037189e-05, 5.34774262632709e-05, 3.7497648008866236e-05, 4.27044797106646e-05, 3.6115936381975189e-05, 5.3632924391422421e-05, 5.7263445341959596e-05, 3.7976857129251584e-05, 5.4030864703236148e-05, 3.3661952329566702e-05, 3.2511685276404023e-05, 2.7743479222408496e-05, 3.4842276363633573e-05, 1.0823272532434203e-05, 3.1442072213394567e-05, 3.5373308492125943e-05, 1.3083211342745926e-05, 3.4165812394348904e-05, 1.5314886695705354e-05, 1.418662941432558e-05, 4.2126328480662778e-05, 3.3651402191026136e-05, 3.2472857128595933e-05, 2.8862128601758741e-05, 1.2449672794900835e-05, 4.1516501369187608e-05, 2.9999384423717856e-05, 4.9507358198752627e-05, 3.9268306863959879e-05, 3.1445993954548612e-05, 2.9313381674000993e-05, 4.4700336729874834e-05, 4.1445455281063914e-05, 2.9759978133370169e-05, 3.5552384360926226e-05, 4.3798885599244386e-05, 3.5689543437911198e-05, 2.7689202397596091e-05, 3.2566593290539458e-05, 2.1636928067891859e-05, 3.7637288187397644e-05, 4.6733461203984916e-05, } };
const TfArray<256, int> quant12_zero = { 256, { 0,0,0,0,0,0,0,0,0,0,0,0,0,0,0,0,0,0,0,0,0,0,0,0,0,0,0,0,0,0,0,0,0,0,0,0,0,0,0,0,0,0,0,0,0,0,0,0,0,0,0,0,0,0,0,0,0,0,0,0,0,0,0,0,0,0,0,0,0,0,0,0,0,0,0,0,0,0,0,0,0,0,0,0,0,0,0,0,0,0,0,0,0,0,0,0,0,0,0,0,0,0,0,0,0,0,0,0,0,0,0,0,0,0,0,0,0,0,0,0,0,0,0,0,0,0,0,0,0,0,0,0,0,0,0,0,0,0,0,0,0,0,0,0,0,0,0,0,0,0,0,0,0,0,0,0,0,0,0,0,0,0,0,0,0,0,0,0,0,0,0,0,0,0,0,0,0,0,0,0,0,0,0,0,0,0,0,0,0,0,0,0,0,0,0,0,0,0,0,0,0,0,0,0,0,0,0,0,0,0,0,0,0,0,0,0,0,0,0,0,0,0,0,0,0,0,0,0,0,0,0,0,0,0,0,0,0,0,0,0,0,0,0,0,0,0,0,0,0,0,0,0,0,0,0,0 } };
const TfLiteAffineQuantization quant12 = { (TfLiteFloatArray*)&quant12_scale, (TfLiteIntArray*)&quant12_zero, 0 };
const ALIGN(16) int8_t tensor_data13[256*1*3*128] = { 
  /* [0][0][][] */ 18,12,9,-11,19,-20,18,28,0,18,8,-21,-6,21,45,29,17,-7,-16,-7,21,28,103,56,44,-23,-10,-64,27,-2,-19,-22,28,12,0,30,-61,-15,24,-5,14,-37,-6,-5,-13,2,20,-6,11,31,-5,-36,33,0,-8,-5,10,-17,-15,-34,23,19,3,10,0,-2,27,-22,14,-8,-6,5,-5,-17,9,63,1,-42,1,-1,-39,51,15,25,97,-11,23,-13,-16,0,-14,-48,-7,-18,-18,17,-10,-9,1,-9,-21,-23,37,2,48,13,-22,13,29,-23,46,-25,13,11,77,15,1,-18,-7,1,-4,32,-39,15,-2,36,25,-53, -2,-27,0,8,-10,-2,2,-18,-14,-16,-16,-30,10,-11,-3,13,-22,-38,-34,-2,-14,-29,28,19,27,3,-13,-11,-2,-45,-12,-20,7,-3,-37,10,-10,-20,40,32,13,-37,18,-3,28,18,-23,2,40,46,-24,-3,20,12,-36,-7,-5,-21,-32,5,24,-22,-2,-3,8,-21,-2,-35,4,6,14,0,-9,-21,37,45,6,-15,-8,-2,28,-1,15,-8,34,-18,21,-17,-33,6,0,12,11,-29,-47,-20,2,17,1,-29,22,-9,7,-3,-31,-21,10,2,-41,27,-31,-11,-8,1,127,-20,0,0,-20,34,-6,-31,-7,-11,46,-15,-4,-2, -24,-14,40,-7,32,-23,18,-23,-8,-45,-13,-28,-3,-19,28,23,-6,6,-11,8,14,25,25,17,12,0,16,12,24,14,26,-24,14,-2,13,-23,-29,12,23,-16,-23,-1,35,-22,-19,-36,13,-25,43,32,-21,14,32,-10,-19,18,11,-39,-2,9,32,12,-14,47,-5,-27,18,3,3,-9,45,-26,20,12,17,-54,23,-14,-28,-8,16,9,12,16,43,-19,44,2,39,18,-8,-24,-12,-25,12,-20,-17,-71,27,9,25,-11,27,-14,-34,-63,30,12,-43,65,13,-19,-4,1,62,5,74,-33,-4,39,14,1,24,-30,30,19,-6,0, 
  /* [1][0][][] */ -60,69,-102,90,-72,-83,18,-9,63,-16,-12,-5,-92,-17,47,-40,-63,-74,61,12,82,-21,77,-25,16,8,60,53,-88,-75,-22,63,-41,-70,-85,8,-83,-48,23,76,17,-92,-15,47,10,14,-96,-25,-94,54,-9,85,22,-42,-99,-100,80,-23,-79,43,-88,-71,-9,-74,-113,62,72,-4,34,-48,3,-40,-114,71,-71,2,-55,-49,-90,12,-69,-24,40,-69,-99,-12,-61,-61,56,-86,75,-73,25,76,-4,-51,61,-26,89,-20,2,82,83,26,2,-37,2,-22,-94,-24,-85,9,-17,-20,45,-47,37,28,62,18,-16,-89,-61,58,-90,27,-69,-100, 57,41,-35,84,-4,-71,-90,73,-12,-61,-86,-97,-13,-51,58,102,-52,-109,38,-75,-30,71,26,24,-63,-35,-96,-61,-69,-114,-2,-49,42,-72,71,70,-94,-106,-99,-74,50,-85,56,33,-27,-71,-54,-104,-2,92,64,89,-7,-70,-92,-105,-51,-106,77,-5,-47,-108,-10,-33,-74,48,-27,-117,-2,37,17,29,69,31,54,-6,-7,70,-27,97,8,-46,4,-3,-73,91,-77,-108,-13,83,-91,-45,24,83,31,74,-38,-88,-96,43,-63,-97,55,43,-12,-87,61,-85,4,-74,69,85,30,-105,-87,-70,47,25,18,-36,14,53,44,-12,-88,34,-24,-88, -100,12,-97,-45,57,-61,-105,9,-3,71,-30,-22,-55,75,65,23,-103,-93,-67,37,-73,101,-26,8,-86,15,43,98,95,41,17,4,-40,51,9,1,-107,-28,-4,-106,85,-115,30,61,-24,-95,-73,-44,32,-1,7,14,-1,73,11,9,-8,-45,86,-19,-51,-85,-33,4,-67,-31,70,-78,43,89,-41,-63,-86,-76,-118,-45,37,26,11,-90,-4,-41,-89,78,-90,4,6,-101,-97,61,52,-102,40,-44,-94,21,-7,-87,-95,97,-71,-71,-65,-71,-1,22,-58,38,-84,3,-89,-61,-57,102,-53,-54,-11,-27,21,-15,-127,-59,-47,-93,-108,20,-47,101, 
  /* [2][0][][] */ -40,-13,-30,28,-36,17,-24,46,7,-38,-50,-31,4,5,33,-32,51,-7,-24,15,-74,8,-17,21,-8,12,2,34,-29,-27,58,17,52,-35,20,22,6,40,-36,9,-33,36,-38,15,-13,-7,0,0,52,-9,-2,-1,-66,-40,-2,13,-34,30,-25,-31,-8,18,-29,102,48,21,-44,15,13,10,32,-4,13,9,22,105,-11,1,-33,-19,-6,12,-34,17,29,3,-2,40,0,17,35,4,17,21,-51,33,9,-16,-17,16,15,16,7,-12,20,1,23,13,-46,83,-57,10,24,-19,4,0,60,2,33,-23,28,-21,50,6,22,-39,-8,29, -63,2,-25,21,-127,-23,23,7,15,-54,60,22,41,-34,8,-44,31,26,-9,27,-23,-48,-3,8,-39,32,-38,13,-44,-21,-78,28,6,33,26,-3,-20,-5,-41,7,5,2,-55,-3,21,24,0,-26,22,41,41,-51,-55,-16,7,21,10,-34,-1,-19,20,50,-42,22,-46,31,-55,2,-22,-7,-35,17,38,8,-23,10,-4,-40,-25,3,-1,10,32,28,36,-9,16,-30,15,-27,-9,3,9,15,37,19,-15,-25,-20,8,-3,-14,-37,-18,-17,22,-23,-40,24,7,-21,31,-2,16,-1,-20,-72,34,13,40,8,-80,13,-37,54,-28,-53,-21, -52,5,-64,35,78,-10,51,40,-36,42,48,56,35,-12,-19,-5,71,-8,45,-17,59,19,29,26,12,-5,11,35,-22,-29,-53,5,11,-35,44,17,-28,21,28,-1,21,58,-11,24,17,15,33,22,-11,31,-8,3,-58,-10,1,30,-43,11,28,-14,-20,44,-26,15,-27,-7,-5,25,15,-18,-36,8,59,-38,-26,63,-34,-34,2,19,-36,-51,-18,-17,-1,63,-2,30,-16,-33,-9,3,-27,-14,2,65,-14,19,-2,6,-64,33,-55,-22,-21,73,0,-7,38,-10,-63,21,-14,37,5,-11,-54,19,51,-46,24,-27,-43,40,71,-42,-16,-8, 
  /* [3][0][][] */ 23,-17,-34,-23,-74,-13,-44,-45,-64,31,-35,-21,22,67,-29,-27,11,-10,-24,5,-19,48,-30,-33,-4,-40,-88,24,-8,45,31,-48,3,-12,-26,-21,-37,-4,-65,-49,4,-6,-5,-20,6,-25,-4,-33,-16,26,-37,-5,-31,-21,-20,-3,-14,-27,-29,-14,-7,-21,-9,37,10,16,26,-35,-45,-58,-11,22,-6,68,18,92,-14,-28,-42,2,-9,13,-8,-19,35,-47,-17,-22,16,13,47,23,-2,14,-57,0,-6,20,0,19,-46,17,45,26,127,31,7,-14,-37,-45,56,3,-29,63,14,38,-58,-16,-21,18,-2,30,-20,18,16,-18,-38,-34, -21,43,20,5,-17,-8,14,-6,-18,3,30,-3,51,23,3,-23,-51,31,-23,28,40,-4,-65,7,-75,-24,16,-55,-11,21,-27,-13,-22,-24,54,-86,-42,22,33,-54,10,-12,5,-25,44,-26,0,-46,35,11,39,-68,-18,-13,3,16,16,-39,58,8,-28,-2,-37,-40,-15,11,21,7,-76,-13,-11,-31,-12,18,11,-2,21,-13,-30,-2,-20,-76,-17,-2,-32,73,-27,-5,-9,-22,-68,-38,16,-14,68,2,-22,-42,2,20,-20,14,-55,-6,18,-1,-28,11,51,-15,-52,33,-1,-45,5,-26,-7,-17,43,49,19,16,5,-32,38,-21,-8,-6, 2,23,-11,17,-78,-7,35,-27,17,-11,1,-18,53,-50,35,-51,-35,44,18,29,72,-13,21,50,-19,26,35,-1,-69,29,109,9,21,-46,30,-17,-7,41,10,14,7,50,-40,18,14,-8,92,-5,13,-5,-11,2,-12,-30,38,32,0,32,43,47,9,40,-7,-52,29,4,-17,49,12,-32,-79,-10,89,-36,-24,-14,-59,14,19,-4,28,-10,-7,46,-23,39,4,-16,-35,44,-15,5,29,-1,53,46,10,23,-24,-21,19,54,28,29,3,43,18,11,57,-34,-11,17,11,36,-30,19,-16,-36,11,-8,-10,-20,-36,-28,47,-54,2,48, 
  /* [4][0][][] */ -35,-31,20,15,23,-8,-16,-57,-66,22,-37,-40,24,30,20,-28,-60,26,-6,-21,-51,39,40,37,7,-1,-8,-3,42,-20,29,-35,-74,-9,-19,9,-6,1,16,-72,-29,-38,0,-25,-50,-40,-26,-15,11,-2,-2,-52,-1,-16,14,2,6,-58,-34,-33,19,-23,-1,30,-34,-48,46,9,-22,33,25,32,-45,-20,-76,18,-44,-8,25,26,-43,-27,-24,-20,96,-31,-52,14,31,27,-22,-58,-12,-30,23,20,-2,-4,23,-28,-37,-43,-1,-39,-21,-24,-1,8,22,-12,5,-16,17,-58,1,4,-16,-20,-17,-16,-24,7,10,-27,15,-5,-22,-40, -25,19,-12,25,-94,-17,-14,-33,55,0,-46,46,22,-37,-25,19,-17,-40,-5,16,12,-16,-43,9,-52,24,-21,-17,-13,-7,3,37,-7,1,-54,-2,29,-15,-35,12,20,49,27,-26,24,4,11,32,-28,23,-15,-2,-63,-5,14,0,-28,5,21,-10,-4,15,-7,-49,5,-54,-56,-36,14,-14,-6,31,-12,9,51,22,20,-25,7,-50,-34,-2,73,-7,20,12,32,-20,-7,-6,-50,38,6,31,-87,-3,36,-25,-17,30,43,21,-61,16,-8,20,-35,12,-20,18,-17,45,-34,6,-30,10,-1,32,18,42,0,-13,-17,-69,-21,-15,-21,-35, -3,-22,12,-40,88,-4,30,-3,-34,-51,28,-30,35,-54,52,14,19,31,21,-27,-6,-45,16,-11,7,-31,-41,17,-59,1,-18,-18,-29,3,28,-43,-7,-28,45,-24,24,7,-53,17,-5,-30,-2,-17,77,10,-28,-44,-30,-27,-25,17,-64,-3,-12,27,34,67,-39,-63,-15,-1,-22,8,-14,5,32,-12,-21,29,-18,75,-22,6,-24,27,-1,-14,12,14,33,-9,-46,22,-52,0,-41,-59,-55,-7,27,17,-30,18,55,-10,30,12,-62,2,4,8,-30,30,7,47,-62,44,4,16,60,13,-24,-68,-38,-12,16,-34,13,-33,127,-52,-7,-17, 
  /* [5][0][][] */ -34,-29,23,-23,-26,-9,5,2,-55,-25,12,-32,9,-3,-22,-5,-38,-44,19,-6,-9,-33,-29,-33,0,-3,-29,-21,-28,-30,-2,8,-11,26,-38,-29,-32,-1,-17,1,-15,-20,8,-27,8,16,22,17,-16,-9,17,-24,21,16,-14,-43,-33,-24,23,22,5,-16,-14,-28,12,-17,-36,-37,0,28,-23,-8,-25,-1,-6,3,-15,14,6,25,-17,-27,8,-34,10,-44,19,-6,-13,-74,-31,16,-2,-1,-35,18,-10,-35,22,14,-52,-29,-21,5,-28,26,-16,-30,6,-24,-34,10,-34,5,3,27,-43,-11,1,-12,21,7,-9,25,-109,6,-26,7, -31,-27,-32,28,21,18,-21,-20,-36,8,3,-23,1,-25,34,22,-3,21,-8,26,21,-25,-76,-12,1,29,-20,26,-32,-10,-7,-13,-23,29,16,-43,-16,35,-8,-45,-19,-26,-19,-22,-27,-5,43,-5,-28,-22,3,-28,-27,13,31,39,-9,-5,-17,30,-23,33,1,-19,-8,35,-15,12,-34,4,27,-19,1,16,6,-3,-6,31,-3,-18,4,2,17,-31,-33,2,17,2,-2,5,7,34,-21,23,29,-5,-11,-27,3,-6,12,-10,-30,-29,-77,-29,-47,-20,0,-11,-21,18,3,14,-25,-17,-7,-40,31,-19,-10,-3,-15,20,0,9,4,-36, -17,25,12,-32,-127,11,-3,-54,54,-2,-27,-31,22,1,-8,-8,-15,20,10,-9,-15,9,-41,-6,25,24,1,33,-11,-1,-43,32,14,-3,34,24,-14,-10,5,-5,18,13,16,-25,-41,-23,2,11,-19,2,11,34,15,-30,-27,-16,-12,12,16,27,-7,-26,-14,-56,7,20,-6,15,-14,16,-77,0,21,-36,-34,31,18,-21,-7,4,-17,-20,24,-23,-30,0,-28,23,27,-4,-15,23,-26,33,-7,18,-17,-10,18,11,-15,-10,-11,32,-72,3,-37,-3,-10,-47,-8,-36,-1,3,-3,19,-41,10,23,-29,17,-18,35,-22,-17,-23,-12,-20, 
  /* [6][0][][] */ -40,34,-24,43,77,26,-10,6,-19,-42,48,45,-12,20,-4,-53,27,-8,36,35,15,-44,-118,36,-12,-12,-43,35,37,14,5,-2,48,-34,37,-22,35,0,-12,24,40,10,17,-16,18,-17,14,32,-11,-40,4,-55,0,34,47,31,99,14,7,37,13,47,-23,-45,20,50,11,-11,25,10,-58,19,34,-12,-59,-15,-29,17,18,16,-55,-74,13,24,-67,68,-12,4,-25,-30,-3,2,-44,-1,53,46,-20,2,1,29,-9,29,-15,-25,78,-81,-57,-26,49,-8,46,-7,-22,-28,-15,-3,-36,20,61,15,10,-17,-15,-49,47,-12,-24,-9, -92,-31,-89,23,-55,-40,-16,-63,15,-57,-9,3,-47,7,-41,-76,15,-16,43,7,-24,-43,-86,22,-38,-5,-29,38,-26,-82,-39,41,-7,-41,-17,-50,42,-11,-88,12,22,0,-22,17,-38,17,-13,21,-37,-41,26,15,-88,4,-6,33,49,40,4,42,-15,-77,5,-52,-22,12,-54,-16,-8,-25,-88,-16,30,2,-29,-63,-33,4,-15,-29,-2,-42,-29,-20,-78,-17,-7,-28,-14,10,-24,-15,-33,23,15,18,38,2,2,36,8,8,-11,32,21,-127,6,-33,-13,-99,-18,6,-58,-33,-70,-23,-49,21,-14,-29,-34,-62,-19,-10,19,-21,-50,18, 53,-51,20,15,9,51,-12,-37,56,87,-17,-5,0,9,-34,23,19,5,2,-4,-41,40,20,-27,7,-17,35,55,-12,68,27,-8,-6,28,-9,-48,-7,-17,64,2,-19,-37,117,27,31,-26,-38,0,17,-18,4,28,6,-1,-48,-56,12,47,-26,34,82,1,52,114,7,8,25,7,-28,-40,62,-5,18,-18,89,-66,-41,61,-26,-19,81,-27,18,-15,25,-73,60,12,9,58,91,2,12,46,-5,-36,57,-29,21,24,93,6,35,80,-67,-71,33,-4,-63,-18,126,-58,31,-32,52,39,103,-33,-39,63,14,36,46,54,-6,18,19,41, 
  /* [7][0][][] */ -15,12,44,-31,-1,-14,41,-8,-12,3,-45,16,8,-17,-58,29,-12,-13,-14,34,0,27,43,10,29,31,-30,34,-25,28,-7,38,-28,12,-25,-21,44,-14,-71,26,-33,-15,-23,-5,16,-26,57,-28,14,4,-32,15,16,-34,3,-3,-13,47,-1,48,-11,-76,-18,-51,0,-61,-56,3,47,31,-61,24,16,11,-89,-60,5,22,-34,-12,44,-49,-29,0,49,-5,40,-35,-21,9,-38,14,-10,-13,5,20,40,-12,27,29,14,-8,50,13,60,40,-31,20,0,-30,51,-47,-12,10,-74,27,31,27,12,-20,-7,32,19,25,-90,59,40,37, 37,-12,56,-12,-57,45,-52,-46,9,44,8,9,-26,-35,-15,-2,-43,-29,21,0,-25,-3,16,-18,48,-26,-26,-9,11,-17,-11,-19,-65,3,-20,-35,8,-10,28,23,22,-48,17,-6,5,-20,-61,-4,9,-35,-25,25,37,-33,-55,-52,6,-25,-2,29,48,-37,6,-19,32,-9,23,-3,12,-6,-36,-49,15,-56,6,-33,41,73,-43,-32,41,-44,5,-29,75,-35,-33,-16,-39,17,-21,20,3,-10,22,15,-10,-34,-41,0,-10,20,13,26,82,-66,-53,8,3,-26,64,-37,13,-16,37,82,-21,-56,-31,12,-23,56,21,59,-56,78,11,17, 38,23,0,-30,-127,-18,-41,13,-24,-1,32,-4,22,3,-66,24,2,-23,-22,10,-7,-3,46,16,-51,-16,-13,-19,-10,-3,6,-8,8,-48,7,4,8,24,28,13,0,-9,-26,-4,12,-8,5,10,-33,12,32,38,0,-21,28,-32,16,16,6,33,1,39,-43,18,25,5,11,-23,43,-13,-37,-36,18,-48,30,15,-5,-9,-23,57,4,4,23,-42,39,-27,-18,-19,-17,-29,-18,33,38,9,-9,-1,-11,30,-30,-33,18,-4,45,39,-15,-44,8,-22,15,-46,47,-59,-10,-59,28,-5,72,-47,-1,23,-7,-30,5,21,19,-40,11,-13, 
  /* [8][0][][] */ -63,38,-25,21,25,-7,50,71,-29,-20,-8,35,-51,0,-48,-43,-2,15,-2,7,43,-25,-97,-11,-20,-30,-14,-39,-1,-90,0,13,32,-5,16,-2,-45,38,-38,0,2,30,-3,4,-33,-39,-7,25,-58,-63,-34,13,14,0,17,-23,41,-60,7,-28,-46,-50,-23,-52,-68,31,-62,33,48,23,-10,-27,47,-66,10,1,-33,-59,36,9,-61,-47,-12,-13,-41,40,-40,-26,-82,-99,6,-10,-1,-5,31,28,-33,31,4,-33,37,-1,-36,23,61,-15,-24,15,31,-5,21,32,-59,1,-45,23,4,-49,21,6,-36,18,-88,-17,-3,-24,-7,-56, -59,-18,-47,-33,-31,-2,-6,2,-18,-23,-49,-24,-34,-36,-51,-118,42,-61,3,21,-2,-14,-70,5,-42,-21,8,5,4,-52,42,-23,-48,9,-30,14,-24,-10,-127,-17,-14,-2,-26,2,-45,-64,-18,-17,-56,-17,-11,-10,-17,5,19,-27,55,-11,43,-3,-39,-124,14,-36,-34,-8,-19,-6,-24,7,8,-33,-35,-27,3,-41,-9,3,-17,32,-58,31,-38,-9,-73,-39,-5,-9,-58,-83,-10,5,-11,-7,-41,-37,-30,33,1,9,2,-13,55,-6,41,-77,21,16,-15,-44,-28,0,-43,14,-31,-24,-28,-24,10,-41,-30,-29,-37,-9,-52,9,-45,-46, 29,-33,44,13,-15,-19,-16,7,17,-7,-50,-53,-19,-19,5,41,4,-12,-15,-14,-43,15,47,-1,66,3,69,43,-2,29,37,-60,-49,57,-4,1,20,-73,54,10,-32,-78,53,-2,35,36,-23,-2,55,-29,51,54,62,23,-60,-16,34,7,-2,-4,65,-74,40,40,-19,10,-4,-1,-7,18,38,-62,-68,49,74,-12,40,29,-37,-14,56,31,0,-4,10,-61,-3,20,27,4,48,3,-8,-34,11,-4,56,-52,29,-10,29,-89,17,23,45,3,21,4,7,28,61,-81,1,15,8,32,76,12,-26,60,-31,9,4,31,16,37,61,52, 
  /* [9][0][][] */ 8,27,18,10,45,29,0,-71,57,56,-58,-33,-60,-9,-1,4,-49,-13,23,12,13,-11,59,11,-7,-3,11,10,-14,52,58,51,-60,-7,-8,65,63,4,-10,65,-14,13,40,15,-36,-14,19,30,-68,-17,7,68,67,28,-13,27,-3,45,23,-20,-24,-63,-3,-127,25,29,-60,14,43,-25,-4,-20,11,30,7,-70,-23,24,11,11,31,25,-1,7,-40,-29,1,-21,-73,4,12,26,16,-1,6,16,40,16,-30,19,22,12,11,48,-22,9,10,32,22,-6,34,-9,-12,-47,9,58,49,20,4,-31,18,20,25,56,-38,61,39,59, 46,-27,58,-25,-20,-47,-22,-86,-10,-12,-33,-21,4,-16,2,38,-80,-38,7,-26,-17,0,-10,-15,8,3,-10,-22,-5,-37,62,-17,-126,53,-6,-3,-47,-23,8,-50,-12,-32,45,-12,6,18,-46,-8,20,-36,-28,19,0,-17,-7,-20,-42,7,-58,6,48,-37,12,-7,-36,-21,-13,-19,-37,-17,35,19,-45,-30,62,-34,4,-35,-50,-35,37,18,16,-41,54,1,-20,-28,-35,-46,-14,-16,-13,-10,-56,-20,-72,-13,-1,-29,3,-41,6,21,-66,-11,13,7,-54,23,-1,2,36,-82,3,36,29,-24,10,9,11,18,-9,34,-41,8,45,-44, -10,18,6,-8,26,-28,17,-73,-9,-32,71,-39,-13,-3,-4,-7,-18,47,11,19,54,6,29,-54,-14,-39,-70,-64,39,-43,-39,6,-27,-13,-16,-50,-8,-37,49,10,-15,-40,-30,-57,-4,-22,2,-12,14,1,11,-9,-26,-12,51,36,-68,-46,-51,-28,41,38,-30,60,-34,51,-3,-15,-9,19,34,29,38,20,48,-78,47,-84,31,-21,-2,99,-25,-22,26,21,-13,-26,12,50,-33,2,-32,-44,96,-17,-4,-23,-25,-29,-8,27,-35,-23,-35,-120,-36,-83,18,23,6,13,12,23,36,-6,-10,-54,5,9,-24,-4,6,-49,54,-51,42,-19, 
  /* [10][0][][] */ 0,32,16,-2,4,58,10,36,51,-62,-27,-14,-17,-24,-23,16,32,-6,-16,-28,-3,-38,-69,-6,26,31,44,45,23,-30,57,28,16,2,27,89,71,42,-37,54,-2,43,0,22,-42,-57,-19,54,-38,-20,15,90,-50,-18,19,-32,-40,41,-39,-18,-29,-22,-16,71,3,-35,21,20,48,-63,24,-29,-13,15,75,11,29,66,-32,-3,52,-13,-37,-39,-34,-40,-8,-35,24,7,-36,73,17,46,-47,-27,20,36,17,20,64,-8,-77,45,78,37,64,5,-15,40,-26,17,-6,-9,1,18,24,43,-16,23,27,-47,43,-15,40,-44,-28,14, -58,-17,1,-34,-84,-57,7,-12,-61,-25,-16,-13,30,-22,38,8,61,14,-15,-12,-22,9,60,-13,-16,23,-31,-28,28,-56,-81,-19,47,-43,-7,-28,-21,-53,19,-28,-1,-52,-7,-19,9,12,31,-37,29,22,5,-18,-46,21,-5,4,-16,-30,43,36,9,-4,-40,-9,-51,-25,-8,39,-49,-6,-26,5,48,-10,5,60,48,-32,-37,-22,13,75,-55,11,20,7,-71,19,-17,-32,-38,-20,-20,16,-27,-13,-23,14,22,10,-74,29,-29,-16,11,28,-57,-38,-29,38,-45,10,10,-28,1,13,-25,20,-24,-4,4,-52,1,-57,105,-18,-10,-33, -6,44,-43,-28,127,15,-7,33,-58,-73,80,45,24,40,49,-58,46,60,-19,10,28,-17,13,-3,-11,-35,-13,-14,-30,-5,-21,-1,4,21,68,37,-35,21,-22,-3,-5,24,-62,25,-31,44,37,9,-1,-3,5,-59,-58,24,5,33,1,3,57,-11,-21,87,-35,-19,-65,-24,-7,2,-35,-51,77,-5,64,-43,-73,71,7,-14,54,-5,-5,-24,-49,-18,14,88,14,-12,-3,-37,-61,-9,-42,27,73,37,5,41,-11,42,-10,13,-56,-1,-34,58,37,-13,84,125,-31,13,2,17,-23,2,-21,7,49,8,44,-13,-22,-25,70,-58,-4,-5, 
  /* [11][0][][] */ 4,13,23,-26,-72,-25,-43,-8,14,-24,-31,9,-50,40,6,23,11,-54,2,-28,-99,-49,-45,22,-41,-74,-56,-53,39,19,-24,-35,40,-5,-56,-80,-31,-54,-47,-75,14,-37,-36,-43,-30,21,-48,2,-72,-32,-26,56,-74,-6,-20,-25,-100,-28,-35,5,57,-11,-3,120,-39,-52,-15,-12,-68,-84,45,-6,-15,-35,57,-27,50,-14,-82,10,27,46,39,-10,53,-70,-3,-40,19,37,0,6,-16,-40,-74,-29,25,-29,3,25,-21,16,-41,67,-31,23,0,-40,-43,38,-3,19,-26,-22,-20,-47,-10,27,-41,20,-43,-15,-10,-84,64,-18,-50,-24, -1,48,34,-31,37,-61,57,53,-71,-97,49,-11,-22,62,72,-36,25,102,20,8,28,58,-82,56,-11,16,-82,-37,27,107,-57,-13,32,-81,98,-68,-57,32,-60,-55,52,76,-39,-12,-21,121,-32,-69,1,1,34,-118,-66,19,-32,62,-40,-21,-32,-1,-47,80,-40,-38,-20,11,33,34,-18,11,-31,-16,15,-34,-81,57,18,-62,24,-33,-4,-32,58,52,30,82,-66,-37,63,13,-3,-2,28,-80,127,0,-65,-10,13,0,-106,45,-33,-17,115,68,-65,36,-36,31,-108,89,21,-26,-54,-58,7,-56,-5,31,19,-4,25,-1,33,-77,-46,39, -46,30,2,52,-93,49,37,-12,33,-19,52,45,-10,-51,15,-29,17,62,60,29,109,29,23,-48,11,-37,43,-11,-30,67,78,50,-4,-2,70,-19,-3,61,18,34,-19,-4,-52,-14,6,69,41,-52,7,-61,35,-79,-34,-38,76,81,-29,55,3,48,-19,48,-19,-119,1,30,-45,81,1,3,-120,50,82,-43,-29,-1,-48,-84,18,33,-27,-15,-4,71,61,38,-18,-3,3,55,-23,14,-8,53,12,39,1,60,20,19,0,67,-1,73,-36,89,-50,-37,76,-19,-39,-13,-4,-10,-19,19,65,-6,2,-44,10,-40,-8,3,27,-35,-41,-19, 
  /* [12][0][][] */ 89,14,57,-2,-20,49,-24,68,103,73,-47,22,-19,56,-44,66,2,18,1,-22,8,26,68,30,87,36,20,55,76,120,85,47,24,53,-24,8,117,29,46,127,17,-13,74,38,35,70,12,49,38,43,15,111,69,8,38,-39,-18,70,33,68,29,-29,35,-59,78,-23,92,-12,69,45,15,50,63,-19,-9,-7,60,86,42,6,124,10,50,2,56,-52,34,-20,-31,61,26,95,83,88,-58,21,66,4,-9,27,98,13,91,87,40,87,25,34,13,3,82,3,39,74,69,41,8,109,11,84,-3,53,105,84,27,89,55,119, 30,-24,36,-17,-105,-83,-51,-15,-68,17,8,-1,9,72,36,-2,-7,-38,-3,-28,-2,-17,69,-28,47,-27,35,-22,32,-7,46,-28,28,-27,-26,-95,-60,-59,52,-36,17,-41,-4,34,40,29,-5,-5,21,-34,7,2,29,27,-34,-54,55,-7,31,-7,41,-13,-28,42,-31,-26,53,-14,-75,16,-62,-9,-31,2,56,-61,-16,9,3,-42,-2,29,46,-28,67,-32,-28,-18,-20,3,-16,-52,5,54,-13,-35,16,-17,-14,23,-44,24,76,-5,-18,-83,-37,-33,10,19,69,-47,3,21,10,50,19,-70,-5,7,-45,-29,15,-17,19,27,38,-29, 31,-13,6,-10,111,0,68,39,-71,-48,71,48,-21,123,36,20,-7,80,24,37,80,18,-45,29,0,-12,40,-33,-23,-22,24,-16,45,23,31,-44,15,42,24,-20,50,-12,-2,-31,7,-33,17,-20,28,10,27,-48,-19,-39,6,68,-53,-12,59,6,-6,55,37,-44,-14,28,-17,8,-17,-10,29,44,-3,61,-31,-54,-36,12,14,36,-43,-33,-59,11,-21,38,-6,22,30,-36,6,-43,10,23,66,-3,17,6,40,-24,1,25,-21,-31,2,-101,-12,14,72,80,28,-15,5,22,-15,-19,61,-52,-8,-9,-12,-21,-42,6,62,-39,-14,5, 
  /* [13][0][][] */ 15,11,6,-33,21,14,-30,10,-39,19,25,5,50,88,60,36,-22,32,19,-13,-43,-17,-6,20,-7,21,1,-8,27,-19,-28,10,-9,-12,19,11,-37,-11,-51,7,27,13,-52,3,30,0,3,2,-49,14,16,-18,23,-27,-21,11,-22,-42,-10,-15,1,19,-22,33,-1,18,19,16,-4,9,57,2,-9,6,24,100,26,-47,-13,-11,-5,58,56,-12,34,0,30,19,39,9,-15,-23,26,-46,0,29,-38,-33,26,-23,18,-17,-51,-63,-32,52,-9,19,-22,28,-6,-33,37,5,104,29,-5,-4,-10,12,21,25,4,25,-38,6,19,-37, 20,32,1,5,-36,-11,-12,2,-14,-1,19,21,47,25,-10,-32,17,-1,-6,-7,-2,53,3,35,-22,-27,-63,-30,54,-14,-28,33,63,-26,19,10,-4,11,-16,21,-31,-19,-23,-41,24,20,2,24,-9,-2,36,-37,-7,-13,-41,-14,-25,17,-39,-29,43,-8,3,25,-6,8,24,-13,41,-27,18,-28,-12,27,33,127,8,-58,-34,1,-29,0,38,22,7,12,4,12,-17,-2,6,-26,-15,-52,13,20,-40,10,9,0,-5,-5,-25,-34,52,57,-15,6,15,-42,-29,-13,51,-13,87,4,-46,31,-12,28,48,32,-39,5,-19,-1,16,-19, -35,65,24,5,-27,-23,-12,70,-29,26,-5,28,18,-17,29,42,41,-1,27,17,-3,5,71,22,33,17,20,-19,52,-37,-9,9,76,-25,0,59,17,50,-4,-6,-25,72,-28,43,16,76,23,4,31,33,38,-14,6,-27,27,16,-6,39,21,9,-8,17,-11,-43,26,31,37,-6,33,22,-13,49,60,-52,-40,80,15,-17,-8,-8,-9,3,52,23,-13,38,-28,19,-39,22,-27,-11,16,-27,-6,54,-32,89,28,-16,-48,25,1,25,47,100,-3,41,67,44,-57,35,8,29,56,7,-7,26,0,16,54,-14,9,49,10,13,36,34, 
  /* [14][0][][] */ -89,-26,32,-9,-13,24,50,7,58,-59,-8,27,-47,-46,-40,-24,27,-40,14,-14,-7,12,6,56,-26,-31,4,30,-5,-5,45,70,-11,-33,25,65,73,7,-28,56,0,49,47,-4,1,16,10,74,-42,9,8,117,-86,29,-22,-14,-75,75,5,37,-25,-36,54,80,20,-1,-25,14,107,-34,76,-4,33,71,67,18,-34,20,-3,22,53,89,36,21,12,6,44,0,11,-4,2,40,-37,7,-11,18,5,-24,38,-16,14,9,-32,22,96,-26,89,0,-47,57,-79,41,-20,-4,30,-56,7,43,0,10,-4,-76,84,-53,49,-12,-22,32, -127,-8,16,-4,-32,-26,9,59,-38,-56,-21,-34,-50,10,4,35,-35,1,-4,30,24,7,126,-37,18,-40,-117,14,22,-11,-30,-98,20,11,-2,-29,-7,-4,56,-114,5,-53,-2,12,-3,42,-39,-42,-4,23,-7,-54,-29,-1,-6,27,-58,-8,-12,14,-24,-22,27,-1,-24,-39,-53,29,-61,-75,-8,-7,23,56,-37,96,6,12,-31,3,-58,8,87,-49,66,15,-8,-25,16,52,-20,-28,-9,-8,-1,29,-22,3,48,-1,-27,-20,-94,-42,25,116,-67,13,10,-35,-87,26,-47,-21,7,-35,-84,-3,-36,-26,13,-4,-50,-28,86,6,-5,-17, -42,6,12,-26,27,23,54,20,-64,-35,38,11,13,-67,80,-45,-9,18,24,28,59,19,10,19,10,-7,30,10,-81,-8,0,18,0,27,63,17,-16,38,-25,-43,-33,26,-58,28,10,-29,2,46,-28,-46,-2,-23,-67,-28,-4,81,-37,9,25,0,-60,33,-5,11,-33,18,-3,-6,-29,-9,-2,21,53,37,-8,49,-2,-17,50,54,10,23,54,35,-21,22,41,23,17,1,-47,10,-36,-36,30,37,48,-4,13,10,-15,39,-67,-42,25,84,-12,12,55,43,-91,6,-37,8,-8,-52,-5,44,38,-29,-7,-14,-23,-53,87,3,-20,26, 
  /* [15][0][][] */ -24,-54,-5,-1,-24,-48,-25,-21,-1,-17,-22,7,-3,5,-12,-12,-42,-34,-11,-22,-28,-15,-51,25,9,-72,-47,-35,-31,-17,-127,-28,-71,-14,-23,-50,-83,-51,-9,-28,-9,-41,-44,-7,-12,-33,-69,20,-3,-39,-7,-91,-11,3,-40,-28,-45,-45,-39,6,-24,-23,-48,-19,-77,-18,-13,-14,-17,-14,-79,-30,-52,-14,-108,13,-58,-38,-13,0,-87,-59,-40,-23,-22,-19,-85,-18,-8,-70,-69,-55,9,-29,-56,-10,-87,-25,-19,-9,-12,-60,-30,-75,-22,-4,-52,-25,-49,-86,-4,-56,13,-8,-62,-6,-66,-38,-28,-38,-25,5,-81,0,-26,-10,5,-76, -51,4,-7,19,16,6,43,43,-20,-14,23,-9,42,-10,14,-9,23,9,15,30,9,-26,-73,-7,-22,34,3,6,-9,-37,-5,9,4,-19,49,-24,11,5,-15,-35,-6,41,8,15,-13,-3,18,10,28,-7,5,-12,-34,-3,29,42,16,9,18,22,1,21,-19,-16,-7,6,0,16,-21,-16,-4,6,-6,14,-2,-2,17,2,22,0,-30,-7,16,22,-32,42,25,2,6,-24,-26,-33,6,18,48,-6,10,0,6,-15,-16,21,-25,3,29,-23,-28,11,35,20,-5,38,-20,-6,-40,-33,26,-3,26,1,11,-38,-18,-32,30,-24,3,-10, -50,21,11,-19,-36,15,1,24,42,32,6,14,16,-24,-14,66,1,28,7,-5,7,38,18,-12,30,9,38,10,16,60,16,30,16,31,10,-7,27,-19,22,19,-6,-11,32,-16,20,-25,21,7,-7,-27,-6,24,18,-12,6,29,36,26,2,46,3,-7,42,-1,20,27,-7,3,9,-24,-45,0,11,34,-12,-79,19,20,5,-19,38,-3,8,8,7,2,7,23,2,14,32,16,0,37,19,26,28,25,-16,-11,20,5,-9,26,14,-17,-6,13,5,-27,2,-3,8,-14,14,-12,10,16,21,11,-9,67,41,10,1,29,8,53, 
  /* [16][0][][] */ 5,-5,16,3,-17,0,25,-10,19,-39,2,-17,0,-9,8,5,71,-10,19,14,8,28,10,54,6,8,56,-6,5,-14,58,30,-15,-38,10,13,51,22,-25,17,25,-9,7,0,-16,12,-24,-7,-20,45,23,34,-17,-15,-7,4,5,23,-27,14,15,6,6,78,9,15,-4,7,64,-23,-1,3,-7,-20,81,70,18,-11,-5,-26,19,35,2,25,39,20,1,-7,-14,7,16,13,-34,-7,-23,-2,-10,4,-32,-27,62,-11,-8,66,69,30,63,12,-35,35,-17,12,-11,0,22,-21,-1,23,21,-16,-12,-51,15,-18,44,9,10,23, -8,-30,-9,2,-49,-27,-33,50,-2,-2,0,31,7,-13,-11,30,19,-8,-26,6,21,34,27,23,1,-32,-48,13,26,2,-36,-22,-10,13,-11,-10,5,-24,32,-49,-17,-2,-4,-27,-27,48,-7,2,23,31,20,2,-27,6,-26,11,-10,-15,8,12,5,-47,29,17,11,-4,-13,24,-34,19,7,8,-14,-15,-33,79,0,18,-5,-29,-8,-23,25,19,5,4,-8,-19,17,3,6,-42,0,-1,-27,-26,-11,5,-5,-10,-50,29,-35,-2,62,127,-21,-3,-25,31,-85,-22,21,0,25,-15,-38,16,20,3,0,9,-13,-11,11,-11,-3,-21, -36,36,12,-9,6,-46,-5,6,-42,9,-12,19,1,-3,16,-2,-10,29,14,19,41,-34,8,31,21,10,7,-3,-4,-27,-31,4,-23,12,28,20,-18,31,-31,-42,-3,-9,-54,-14,-4,-30,6,-36,21,11,27,-25,15,-9,23,12,30,13,25,22,-28,-1,-8,15,12,-23,-14,-13,2,13,-4,18,-2,-6,2,15,-6,-25,35,21,-32,-3,33,-5,-6,-11,26,-11,11,-29,-22,-40,-2,-2,0,11,-36,-27,-19,15,-28,32,-1,-32,1,-13,-34,-24,-15,-13,-34,3,-28,6,7,-20,3,-24,21,-28,2,-20,-20,7,29,-28,-29,-11, 
  /* [17][0][][] */ 10,16,22,-4,18,42,3,-26,53,47,11,-7,-8,-5,-45,27,-26,27,14,9,35,28,14,27,19,16,24,14,15,69,32,51,-54,33,-10,30,49,-1,18,45,-24,3,45,-10,4,-25,12,32,5,-30,29,54,32,-7,18,39,-15,60,5,24,1,-49,16,-68,4,7,-8,21,29,18,-38,29,52,15,-23,-9,-1,49,43,-14,11,-46,10,6,1,-38,4,19,14,22,4,43,10,46,-9,0,47,24,-14,-2,26,44,16,55,-1,26,21,-6,-12,10,19,12,43,-38,-13,14,10,39,-4,-18,-19,53,62,51,-8,23,25,68, -16,-43,3,-8,-8,-19,-17,-127,-49,44,-43,-43,-24,-12,-34,4,-86,-22,7,-19,3,7,-6,-14,15,-11,12,-29,-9,-18,44,-33,-80,4,-53,-64,-36,-40,46,-43,2,-9,16,-12,24,-39,-7,-47,-4,-63,-8,-46,14,-3,-10,-23,-34,-33,-27,-22,-1,-4,25,11,1,5,-10,-19,-50,-9,-48,19,-19,12,11,-38,14,-3,-16,-16,7,19,-16,-3,11,-32,-31,-23,-6,-6,-13,-39,19,-11,-5,-7,6,25,9,-2,-29,-30,-5,-14,-65,-61,-31,-12,-26,-38,-1,-9,-3,-36,-13,21,19,-54,-32,21,2,-22,-24,-12,1,34,17,-2, -7,8,1,17,26,5,38,3,-39,-19,71,36,-14,17,39,-32,-13,17,9,-7,81,21,-14,-27,30,-20,35,2,21,6,19,-14,10,-7,19,-7,-25,24,14,-14,17,2,-12,6,33,-14,39,-31,44,-20,-10,-33,0,-8,18,59,26,-8,9,-1,13,43,-20,-1,-5,6,25,18,-38,-8,2,10,7,-14,-28,-21,-10,-26,7,-13,6,-5,-34,-14,34,44,-7,20,-12,7,-13,-34,-31,6,59,-7,-11,-34,17,25,9,32,38,-31,15,-67,-31,-2,38,4,70,34,-9,-16,6,34,-3,9,28,44,-19,24,-42,-18,46,8,18,10, 
  /* [18][0][][] */ 38,-39,17,5,-23,77,30,6,76,78,20,21,-55,-50,3,43,-9,27,-9,53,-2,45,63,3,23,33,20,43,70,69,67,53,-25,21,28,80,39,26,-10,127,-13,58,35,19,-9,25,54,30,9,18,-13,74,90,16,16,27,-61,11,-33,-18,32,-62,18,-25,18,-16,-46,42,86,-9,-5,1,-12,-46,65,30,22,-8,10,-17,91,19,2,-29,-55,-30,59,27,-1,95,-6,38,52,7,-8,31,57,16,35,7,64,26,125,66,8,39,39,-25,42,-6,28,-4,55,10,87,4,51,56,-26,43,-13,66,90,55,18,30,13,80, 66,-41,16,12,-58,-51,-3,-12,-52,-1,-4,-9,22,-17,-5,-41,-44,-40,30,24,-36,-63,82,14,-42,-17,-20,-25,60,-22,25,-52,-16,-58,-24,-8,-28,-76,48,-75,13,-36,-34,14,24,25,3,-25,18,10,-22,-23,16,6,-8,-36,-57,-73,-5,-2,37,8,-41,6,-12,-24,18,28,-96,42,-38,7,-12,44,86,-47,49,-66,6,-17,10,44,11,-11,92,-10,-58,-23,-29,-9,40,-55,-29,18,-25,15,-33,26,-28,-9,-29,6,43,-45,-59,-12,6,7,16,17,38,2,-31,40,30,-9,-19,-63,-42,4,-48,-29,-56,-9,79,-32,-6,-27, 20,37,37,-21,50,-1,74,27,-14,-16,108,6,-28,27,100,-3,-11,102,32,63,71,-21,-36,15,-37,-39,-28,25,27,-60,-21,9,-73,-29,84,29,-45,3,41,-35,13,0,-22,-15,-17,-35,29,10,31,-8,4,-26,8,-17,78,60,-43,-9,48,29,-14,59,25,75,-59,45,-19,18,10,26,66,-9,40,52,-9,-19,0,-57,22,-8,-61,-32,-23,40,11,80,-20,29,37,13,11,9,0,-27,48,0,-8,-5,45,-21,-18,-15,-36,-79,9,-49,-12,31,22,77,31,-17,12,6,-45,-7,7,-9,0,-4,27,-11,-40,29,76,-20,0,37, 
  /* [19][0][][] */ -110,28,-85,-36,61,-42,-52,63,-4,-101,-6,-24,23,50,18,-77,45,9,-19,-40,-3,-55,109,7,82,-7,34,-50,-116,9,-17,-36,-5,-27,-33,30,-45,-18,-30,-11,64,-25,16,-25,-36,-27,-3,-17,-60,12,54,-69,-57,5,-21,-3,82,-9,-10,-46,-34,10,-73,9,-2,-18,-37,31,0,4,21,10,35,-81,-88,126,24,-61,0,-22,-65,-2,-71,22,103,-53,-37,-31,-9,-29,-68,-18,-4,-14,30,-31,-59,3,-2,-2,-29,-36,-4,-70,12,37,24,52,-20,46,-29,-40,5,93,-76,-54,36,-24,22,-57,-11,-33,-30,-41,3,9,-70,-55, 15,26,14,3,-29,73,15,-31,127,-21,-52,-7,-11,2,-75,32,-32,-46,-28,27,-74,-7,-32,9,-46,-20,16,19,5,0,27,0,-18,26,1,85,29,-27,55,92,6,7,-16,25,40,18,-45,78,-14,13,-2,84,-26,11,3,3,-40,38,-52,19,26,-79,10,48,-11,-4,13,-41,81,-14,30,6,-53,18,47,-7,-8,19,-27,-10,35,65,102,-30,-30,9,21,11,15,68,-18,62,-11,35,-64,-44,55,-5,-3,-38,46,-30,17,54,7,-46,23,-24,-49,49,4,-10,29,-1,26,-5,42,80,-44,33,-36,41,78,32,31,-2,7,52, 39,-17,43,-4,30,-44,-6,28,-32,-4,20,30,-19,-11,96,-7,-1,2,21,-2,-21,17,36,-7,-20,12,-6,30,-8,-5,16,-26,-46,18,25,-13,-33,-19,10,-63,-12,-34,-31,-25,47,-10,41,-28,46,6,-21,-9,-58,-1,40,35,-27,7,-8,-2,58,4,-2,-19,-4,20,7,-7,-30,-22,3,53,2,-8,58,-30,-16,-14,5,18,14,21,41,-20,62,49,-8,-3,26,22,-40,-47,23,2,34,10,-5,30,19,18,15,-9,48,-7,-34,-33,-27,-24,28,91,72,35,30,41,-5,13,71,7,-1,35,3,-62,-13,16,14,-21,50,-3, 
  /* [20][0][][] */ -8,-22,16,35,-74,32,-11,22,25,-45,-45,19,36,82,-31,-21,55,-5,-7,-18,-16,7,-29,-25,-46,22,36,-29,26,-53,-32,21,13,0,-37,48,11,-17,-17,-5,-8,32,-18,-1,-29,-33,-8,-8,43,21,7,12,-63,-17,-29,-28,-42,25,-7,29,14,-18,25,6,-10,-13,52,11,65,-16,32,-6,-5,1,61,58,21,0,27,27,-19,43,-40,-19,-3,11,-28,-16,19,21,-15,15,-44,-1,-9,-18,-23,41,1,-22,0,29,-71,15,-7,-1,64,-9,12,68,-69,1,-29,-12,26,-13,32,33,11,41,12,-53,48,-45,62,-62,-27,1, -69,43,-38,-11,-14,19,-7,27,-14,-49,24,10,-6,82,-28,9,-6,20,-3,-15,38,-15,12,13,-44,10,-8,-14,-12,-1,-40,37,34,-41,23,8,-22,38,-28,-10,-25,21,-35,16,-3,0,-35,-18,7,64,-34,-3,4,10,-29,-10,-40,38,23,-2,-16,0,26,16,-29,-33,-4,4,24,-18,-20,-11,32,37,-2,36,-2,-24,17,-3,-1,8,-24,15,1,36,-6,14,22,-48,-45,-20,-5,36,-20,9,-11,-19,24,26,-4,-29,15,10,46,127,-1,-28,-32,-25,-60,-21,-27,42,-45,-58,-49,-1,40,-28,-11,0,-43,6,29,-68,8,22, -5,32,16,9,84,-45,1,25,-63,-54,12,-25,7,78,20,-18,-22,44,-30,7,33,-42,-33,59,-14,-3,-34,-20,-44,0,-14,-9,-7,40,7,-27,-15,44,53,-20,52,-9,-26,-9,-29,76,4,-28,72,13,-25,-57,-26,-8,40,31,-14,-24,9,26,43,24,-34,-24,5,-3,11,20,-40,-28,38,-24,52,-12,-57,30,-23,-46,-26,30,-29,15,17,-25,20,3,-35,16,-12,18,-19,-10,-36,-14,-13,-5,13,45,-7,-6,-50,37,-36,3,-4,15,-15,74,-13,40,-83,39,-39,84,27,-39,-41,-12,-30,29,-26,-81,-17,-36,110,-67,-37,6, 
  /* [21][0][][] */ 2,6,26,-4,-17,21,3,13,51,-41,3,-46,-40,-17,-70,25,-3,-11,-44,-19,3,-14,-49,10,17,20,18,-31,19,40,12,20,1,2,-5,61,-9,22,-19,24,-44,20,31,31,-38,7,21,18,-2,29,-6,48,-2,21,8,-43,-60,51,30,-3,8,-69,-22,91,-13,-44,29,-15,10,-38,-3,-46,28,-16,38,7,25,-44,-57,-4,63,-45,-2,29,41,-40,27,20,-43,45,34,71,25,9,-27,34,32,42,27,-28,83,23,-31,6,13,41,69,2,-25,3,-7,-19,24,-8,79,18,-18,37,4,40,18,-45,46,-7,43,-35,44,11, 14,-44,19,-19,-36,-34,-26,90,-19,-25,-52,-7,-1,8,-28,43,18,-81,-27,-55,-17,13,-16,66,-24,-60,-71,-69,6,6,5,-70,-33,40,-17,-40,-23,-9,47,-22,-22,9,-51,37,27,40,20,-47,106,-2,-21,-56,3,31,14,-14,-51,-19,34,-20,4,-48,-19,-5,-12,7,49,4,-52,18,-32,-58,15,-49,-19,-23,-38,-12,-44,6,-37,-20,58,21,66,-88,-28,-36,-37,-2,39,-4,17,-46,-19,-31,-7,7,25,-7,-15,-11,14,-8,36,77,-62,8,-17,-90,-16,-30,-1,42,48,-20,-53,-72,24,44,-1,-17,6,56,51,30,-4,-55, 11,-40,25,36,127,-64,14,11,-49,26,44,-5,44,45,3,50,24,35,-23,-2,8,8,3,28,-34,-4,-18,-22,17,-12,-33,-48,12,32,-23,-46,-10,-53,24,-11,-26,37,-3,-14,-25,-42,-26,-2,80,-12,-6,-56,-13,-29,-33,7,-53,-51,12,2,17,25,-22,-86,11,35,60,-57,-7,71,-38,-40,-7,-62,-32,43,-15,-24,-4,-7,-38,-53,56,26,80,27,4,-19,-62,31,12,-21,15,-56,-30,8,-75,24,-26,29,4,-7,-9,-6,3,6,3,-19,-51,41,-7,2,31,-6,65,29,-21,-15,-7,-7,-54,4,-20,2,117,51,-4,-47, 
  /* [22][0][][] */ -10,-11,-8,-13,24,-8,10,-10,-35,-14,-11,-1,-12,-27,-51,-34,-16,-31,-32,-9,0,-26,-111,-18,-14,-45,-63,-24,-28,-127,-102,-56,-37,-42,-33,-38,-42,-1,-25,-22,6,-12,-26,-4,-7,-8,-37,-22,-7,-12,-25,-24,13,-16,-47,-41,-38,-39,-31,-45,-31,-27,-22,-6,-45,-25,-61,-26,1,2,-10,-22,4,-27,-56,16,-23,-41,-22,2,-50,-49,-25,-3,-37,-13,-55,-2,-45,-103,-27,-66,-15,-37,-36,-45,-70,4,-15,-11,-35,-48,-40,-42,-34,-67,-67,0,-6,-18,3,-32,-35,-37,-73,-23,-116,-17,-13,-18,-13,-5,-100,-8,-42,-17,-3,-97, -75,19,-14,18,44,-28,-1,-19,-13,-38,41,12,30,7,21,-33,8,4,3,16,19,-7,-95,-27,-1,-7,21,28,-39,-69,28,-14,-9,1,14,7,7,9,-12,-40,8,20,-2,-1,17,-12,12,1,12,3,-12,-18,-17,-11,-8,22,-6,24,12,22,-28,46,-9,-45,-34,18,4,4,-45,-13,-8,19,18,42,-15,18,0,20,14,9,-25,20,24,-21,-48,15,10,13,31,-30,8,-13,6,-12,40,15,-2,6,-13,0,14,-15,-3,-34,-16,-44,-32,8,23,27,-16,-2,-28,12,-60,-28,34,9,30,8,-13,-46,-22,-59,-7,-4,11,-19, 23,16,66,-19,-11,58,6,24,44,69,-11,-1,-3,0,-19,71,18,36,30,29,-3,55,15,4,30,30,45,43,50,71,-13,14,-10,53,-6,-1,49,-22,45,37,30,-3,56,9,-3,9,14,-7,9,-9,17,42,36,29,1,13,5,35,23,10,46,-31,28,18,54,2,10,11,40,15,-12,7,-10,17,11,-28,28,47,-6,-20,43,9,47,15,28,-9,19,1,14,25,23,50,10,28,25,13,38,-4,-3,12,44,-1,-30,2,-43,-5,-7,15,-11,-23,27,-17,47,-2,3,31,19,3,10,39,-39,73,68,37,-20,37,36,60, 
  /* [23][0][][] */ 32,23,32,28,-63,3,-6,-44,11,12,-19,46,-34,24,-17,-21,-35,-27,45,51,5,48,-12,25,41,4,-23,47,21,43,12,-9,-4,47,26,21,-7,-20,-29,28,18,-34,-23,-36,12,16,18,23,-18,23,24,-15,26,12,0,-13,73,49,54,53,-20,-62,-47,-47,19,34,-4,-4,-24,-35,-70,8,16,39,-33,-32,-7,36,38,-18,40,12,-29,-15,-1,30,30,41,-9,39,26,1,39,39,-29,35,1,28,5,31,36,6,80,23,13,3,-58,11,-9,-67,75,-27,-7,17,-33,-18,-54,19,40,-3,-44,23,-19,59,21,86,22,10, 12,-2,51,-20,-66,5,27,-46,26,55,-22,1,-31,49,-28,30,-127,-20,19,7,-41,-8,40,-7,7,9,-8,-9,66,38,16,-12,-13,24,-35,-59,36,-22,23,25,22,-58,74,22,26,-7,-34,-48,-1,-66,-9,56,116,-25,-36,34,9,-45,1,-1,14,-82,25,-2,42,24,32,-42,0,34,24,4,-35,-26,49,-39,-13,88,-19,-31,54,18,51,-19,16,-40,-46,14,36,1,29,11,40,-30,-39,-1,-21,-45,-21,-26,28,-7,48,0,3,-57,6,-9,-23,10,111,-40,35,40,17,72,-15,-20,3,45,-12,43,62,93,-21,54,81,2, 84,-9,-8,-33,-113,-2,21,-26,59,-30,2,39,0,17,26,-48,48,-11,-26,-39,7,-14,-24,2,-21,6,49,-12,-9,46,74,14,-84,-18,-36,14,4,-38,-8,29,-5,15,13,29,5,18,4,-10,15,9,-2,16,-40,21,-1,9,-10,-21,33,14,21,-24,3,12,-60,-12,18,13,19,41,-49,-30,27,1,78,50,15,-7,32,34,53,-17,-28,20,1,-49,34,38,-19,27,2,-16,34,15,-13,-36,1,14,-40,0,44,-9,74,26,-30,-39,6,-22,5,27,102,-14,38,-21,-34,19,25,-45,6,18,1,-28,-10,0,32,-29,2,-21, 
  /* [24][0][][] */ 42,8,16,18,9,34,10,-12,66,40,-39,-27,-9,11,-12,-2,-38,-2,12,-8,-17,20,17,-3,-12,-17,4,37,11,18,36,1,-17,5,14,38,22,18,-1,19,0,12,53,20,25,15,7,26,8,21,8,36,35,-2,-1,10,10,38,4,3,17,-60,2,-79,-2,7,26,6,26,1,-6,2,-13,-11,-39,-10,15,12,3,25,45,-34,20,14,-22,-16,8,13,-16,16,14,47,-1,36,-47,10,11,12,-14,-1,45,-7,39,66,16,13,17,6,11,-13,43,-3,1,32,10,31,36,45,21,-6,-26,11,17,40,-25,9,23,15, 33,-23,6,12,-48,-14,-27,-51,7,19,-35,-25,15,12,-2,1,-38,-9,-20,22,-48,-13,-7,-9,-6,-14,17,6,17,13,8,6,-76,11,-38,-22,-22,-27,12,1,-4,-43,30,2,44,-7,-29,-5,-11,-30,-14,9,21,-7,-28,-42,-12,13,-26,-25,17,-21,16,22,-20,6,0,-17,3,17,-11,-15,-54,-15,34,-10,-5,18,-48,-16,22,16,10,6,4,-27,-39,-3,2,25,8,-3,26,-12,-33,-24,-13,-22,12,3,29,-7,18,11,-1,-95,15,-15,-55,10,63,-26,8,-34,-4,26,25,-26,-23,23,-23,31,9,2,0,30,34,-7, -35,13,-7,-2,25,-36,20,-23,-14,-14,16,14,-5,10,-19,-6,-2,23,-13,0,-3,3,3,-14,-15,12,-46,-25,-3,-3,-11,-21,-8,7,33,-34,-29,-30,-9,-15,7,-12,-24,-7,-35,-35,-2,8,5,-12,-12,-33,3,-17,-2,45,-40,-16,-11,23,-11,33,-7,0,-35,9,-18,-8,-32,-19,-30,6,-5,11,-12,-42,-6,1,11,-8,-37,-13,-43,5,-14,35,-16,-22,19,-4,-19,-12,-11,18,63,5,15,-18,3,2,-6,21,-32,-15,127,-23,-36,-3,25,14,-26,-6,-8,-12,20,-9,3,-20,-2,6,-27,-19,-53,-32,19,-27,-11,-13, 
  /* [25][0][][] */ -75,9,-43,2,51,9,-26,-15,8,-40,7,-18,-20,-56,-8,-6,-7,-2,10,-28,-3,-34,127,1,32,5,44,24,-28,-8,9,16,7,6,0,8,-25,24,-22,10,9,5,12,13,-20,-5,-9,-20,-25,-7,7,13,-35,5,-28,-15,46,-8,-4,-10,-17,15,-15,7,0,-4,-17,-10,6,16,-8,41,9,6,-16,18,8,-7,-6,7,-25,39,13,23,23,-38,-3,-15,-22,-14,-19,-7,-23,-9,12,8,-14,14,6,15,-31,15,-2,8,8,-59,-13,54,-4,22,-17,-15,-34,-16,-42,-38,14,10,11,-36,21,-57,-30,-52,-12,-24,-17,-12, -2,-7,9,10,-15,27,-24,-35,66,27,-26,-12,18,-13,-39,33,-12,-14,10,9,-7,-9,22,10,1,15,-2,4,-3,7,4,-8,-62,16,-10,14,20,-12,4,40,-27,-4,2,14,-26,3,-17,34,-1,-10,-20,54,27,18,-5,-18,-38,6,8,-15,23,-47,5,17,19,-31,-7,-6,35,29,12,6,-6,19,24,-8,12,51,0,15,35,35,23,-4,1,-14,-10,-4,-13,16,-7,50,-2,26,-39,-12,27,-1,19,16,60,-20,-12,1,-3,-5,17,-4,0,25,11,-5,6,4,34,19,17,3,-28,19,4,-5,32,10,-22,1,0,38, 26,-6,-4,-10,70,-20,2,-54,-8,-36,21,3,0,46,-5,-33,-34,21,-12,-4,22,-2,-24,-26,-9,-23,-10,-12,-6,19,43,-13,-8,-12,-7,-15,10,-10,4,-28,3,-19,0,-19,17,-14,16,-24,11,29,13,6,-13,-11,-22,-1,16,6,11,-16,36,-11,-16,-50,-7,18,2,26,-31,13,-2,-5,10,36,4,-33,-7,-9,-2,1,7,27,-40,-2,33,19,-3,-15,33,-9,22,4,-31,-4,31,-7,-18,-3,1,6,11,19,64,-12,-9,-46,-9,-21,18,20,58,-2,11,16,1,17,48,-14,3,24,-6,-17,-26,-34,-7,-7,7,-27, 
  /* [26][0][][] */ 63,18,13,-2,13,-48,-8,48,-20,-23,-6,-16,-18,15,15,46,20,-16,-7,-23,-36,6,127,34,63,-81,-50,3,71,66,-32,6,23,33,-59,8,-48,-18,67,0,-19,-12,27,25,12,2,-29,0,57,57,-15,-46,18,22,-35,-45,-3,-11,-39,-38,57,-30,-19,122,-26,19,69,-23,38,51,-3,12,-31,-2,-6,40,-2,-8,-17,37,-16,22,-43,8,66,24,9,-35,-26,123,18,-54,1,-24,54,21,-69,-30,6,-6,-3,-7,31,-5,-15,65,7,31,-4,30,-3,8,31,16,-24,4,-28,-11,16,78,-6,-1,35,21,57,-9,-17,-19, -19,-2,24,-5,-17,56,38,-42,50,-43,17,-12,-48,11,-59,-32,55,1,11,-7,42,10,-78,-27,-41,50,-24,38,4,-20,38,61,-44,-10,-10,22,-10,70,1,48,-4,44,-56,38,-45,29,-4,42,10,25,-45,67,9,44,-2,-34,-73,48,-32,-4,-27,-23,-21,-92,-10,0,-23,-41,83,8,-9,22,34,16,-10,10,18,-39,44,-1,54,26,33,16,-10,-14,18,19,29,22,-1,13,44,31,-70,4,55,24,-39,8,-8,53,12,62,-3,67,63,-19,40,39,-46,14,4,29,-19,14,44,77,-9,63,38,-26,-39,10,-23,-101,-6,-12, -30,-27,-34,18,61,-28,-15,-55,-78,-21,9,11,25,-27,21,-44,-45,23,32,-7,23,27,34,18,11,-38,-12,4,-33,-45,16,-17,-21,8,53,0,-25,9,27,-99,-44,28,-62,-17,-37,14,44,-62,21,-25,29,-61,-54,41,-26,38,-46,-35,7,-26,29,14,0,-5,-61,-19,-50,-2,-94,-44,-28,-25,-42,8,1,88,48,-57,-27,39,-8,28,-21,-34,55,-31,-48,-37,-24,-9,5,-86,-9,5,-4,-8,-49,-3,2,-24,-25,-11,-8,-36,-11,26,-46,-24,-46,40,-58,21,-44,13,49,-28,19,-5,45,37,-25,-59,-41,-27,12,-10,-42,-71, 
  /* [27][0][][] */ 24,22,13,-22,-11,12,17,-33,46,25,-29,21,-31,-41,5,8,-12,28,28,27,60,28,36,-13,-22,10,-25,-19,-3,21,-6,22,-29,-7,-23,19,10,-15,6,36,-5,-3,18,5,18,-15,1,-18,2,-4,-12,43,3,5,31,26,19,5,34,-7,-14,-79,26,-58,21,10,-42,3,55,-1,-9,-21,36,7,-20,-36,-27,14,12,-20,16,11,15,17,56,2,7,7,-38,33,10,30,-7,31,-8,26,28,1,-10,29,24,-14,25,2,-33,-26,13,-14,1,-5,45,-24,5,24,-10,26,-3,21,-5,-8,-7,16,14,-5,-1,36,-10,55, 29,-24,2,16,127,-32,4,-62,-47,10,-22,-5,-19,-30,-7,-14,-82,-14,11,-19,-22,-2,-10,-9,5,4,-27,4,-12,-57,49,-75,-80,3,-26,-18,-42,13,-8,-31,18,-29,2,-23,27,-12,-19,-38,-4,-5,11,-26,7,9,-7,-12,-79,-51,1,-7,31,3,2,-39,34,-19,-5,-17,-57,-17,11,-10,-13,-19,51,-29,-11,13,-26,4,9,-34,33,-2,20,-39,-52,11,-4,5,-3,-22,-24,8,-38,-6,0,13,6,5,14,-27,8,5,-16,-63,-5,13,9,10,-4,6,-13,-2,22,18,19,-17,-18,-23,7,-7,-45,37,-40,20,37,-40, 33,-6,11,-18,-14,40,-1,-21,21,-39,15,23,4,-23,23,-11,2,31,-1,4,16,5,15,-20,-8,-29,33,-31,40,-7,-5,-35,9,30,24,-11,9,-8,31,15,-16,-27,13,23,47,-13,-18,19,-7,6,28,37,15,-19,-11,-9,-5,-4,-10,-10,29,3,35,32,10,13,17,-16,9,10,40,-9,18,-25,95,-28,6,-1,4,-5,34,52,-18,9,1,17,17,14,27,-2,2,29,-43,-7,42,-37,-2,-9,-1,3,17,3,14,8,35,-73,25,-16,3,16,77,-1,-21,22,-5,0,41,16,26,16,28,-10,35,-54,28,28,28,-17, 
  /* [28][0][][] */ 43,19,-12,-29,-13,10,6,5,-15,11,-11,-43,-22,2,-29,-22,3,-23,19,20,-32,-10,-34,24,-29,-25,-60,35,14,28,66,-75,-102,58,-5,-71,9,2,-33,1,-39,27,15,-18,3,21,-22,-3,2,32,-25,4,21,27,-7,9,47,19,49,-5,-18,-50,25,-34,20,0,-36,12,-50,-10,-94,-2,20,52,-61,-70,34,56,30,-23,12,-4,-12,11,-5,-12,35,-13,-57,-17,48,-3,-6,8,-74,2,24,-5,-9,34,-3,40,109,-30,84,-32,-39,37,-23,-84,1,-43,20,39,-48,5,6,-14,16,18,-26,52,16,-11,-36,44,-20,45, 20,17,55,-5,-74,27,-23,4,17,115,-51,-62,8,7,-28,105,-33,-28,15,-39,-16,43,29,5,39,-15,22,37,28,37,-4,-47,-123,36,-40,-54,-25,-8,69,-14,28,3,78,-26,55,39,18,-65,62,-65,1,43,53,17,-21,13,63,-27,36,-16,80,-71,27,8,17,24,48,-35,-53,-5,-10,-3,-32,52,4,-24,-14,73,-21,10,12,34,19,-38,8,-6,35,4,37,49,28,-13,-1,-9,-30,1,26,-25,-11,-11,1,-21,59,-28,35,-54,-1,-10,-65,21,127,-19,1,37,56,44,95,-17,4,53,23,72,36,97,48,77,75,37, 20,-17,-12,-34,-71,6,32,-35,5,13,-22,-41,11,-43,24,33,-2,-14,7,-7,0,27,42,-23,15,-3,10,-48,15,23,39,-18,-46,-1,-7,-33,-79,4,-8,-5,1,11,-2,-40,30,2,36,-27,18,29,-12,7,0,23,14,29,-35,-3,52,-38,26,5,-53,-23,2,-7,8,27,19,-24,-41,-24,18,-36,-10,25,9,5,36,28,-21,-19,-51,22,-2,-14,-29,-26,-55,-10,18,-16,21,-56,-13,4,-39,-39,-4,-37,3,40,-4,-24,-34,-46,27,15,-18,-8,-46,20,-16,5,55,-17,-15,-53,1,-13,-7,-4,-49,20,11,3,17,-34, 
  /* [29][0][][] */ 41,4,-5,-10,-81,-57,8,3,10,25,-12,-40,-15,5,10,-18,29,-44,-40,-8,-24,41,-35,-36,-52,-15,-54,-42,-35,53,-41,-35,22,0,-10,-47,-26,-51,-42,-56,-6,13,-34,15,-31,5,-32,1,4,-4,-19,2,-4,26,-31,-23,-8,-25,-29,-20,-23,-21,-6,79,-13,-24,13,-57,-6,-41,-55,-5,-37,-13,-29,38,18,-48,-58,-5,-50,-21,-48,13,46,-7,8,23,-29,46,-27,-17,-14,2,-10,15,-27,2,-20,-6,-63,-27,-31,24,101,-24,-15,-11,-29,-60,4,-6,-25,-44,11,2,-31,-12,24,52,9,46,-15,10,-11,-32,-31,-34, 10,50,-29,-3,17,-99,24,-13,-57,-3,22,10,55,32,54,13,-19,-3,25,16,3,16,-35,3,2,-19,-5,-52,-12,-29,-5,-44,0,1,15,-76,-66,29,-3,-127,-4,16,-16,2,-30,12,16,-12,5,6,-11,-62,-20,18,16,27,55,-31,4,-19,-27,18,-38,-28,-54,15,-2,20,-56,1,-20,-25,-14,-28,-32,41,-8,1,32,-9,-86,-44,-32,37,-21,57,4,18,4,-49,-69,-83,-23,16,13,31,16,-2,-22,-31,-67,-9,-45,-62,34,48,-30,33,-3,-11,-46,26,-26,-22,18,-36,-18,-20,33,-7,49,52,-52,1,29,7,19,-57, -35,43,-17,29,-21,-75,18,27,-40,12,23,15,6,34,29,-32,-36,-17,-17,-2,16,-32,-18,31,2,-15,8,-37,-43,-25,1,4,17,15,4,-52,-31,37,-8,-33,-18,37,-54,31,0,31,0,-29,16,25,25,-50,20,26,52,-14,88,33,22,8,11,-54,-10,-52,-4,16,-6,58,-3,-23,-73,-4,56,4,-78,-3,-56,46,26,8,-37,-24,-25,-14,15,31,5,22,-27,-3,-29,-35,38,30,22,13,15,58,-37,32,-85,32,28,-19,33,1,-18,6,8,-32,-3,32,-3,52,13,26,-15,-17,16,5,-13,-30,-17,25,70,-18,-6,0, 
  /* [30][0][][] */ -20,20,23,-23,-13,-50,4,19,-40,12,-42,-40,8,28,34,-4,12,4,10,7,14,-41,-48,-20,-22,6,-31,-39,55,-50,-58,-53,-38,26,-45,1,-39,-31,-29,-55,-17,-6,-58,-4,-19,-18,19,-10,-17,24,9,-2,-24,24,8,-44,16,22,1,-18,21,7,-45,9,27,-2,49,23,-59,-41,36,-28,-29,-24,-11,50,3,1,-23,9,-19,-2,13,-6,70,20,-24,33,-10,22,15,-27,-54,-32,-18,-10,4,0,-24,15,-5,1,-18,26,-11,-23,-18,1,-16,3,-19,-37,-41,33,47,22,-36,-16,19,11,-21,31,-33,-15,68,-16,24,-50, -25,15,33,18,-26,-1,32,-12,4,-12,32,16,-12,37,-21,-11,9,27,-14,11,-15,-25,-35,-21,-36,-30,-19,-25,-44,-30,-27,-14,-50,-42,-39,-9,1,40,-36,-7,-7,18,-66,-33,-37,4,41,31,-5,-47,-18,-23,-46,-18,-29,0,-42,-16,37,-11,-25,19,-3,32,6,-11,-40,23,13,6,-63,6,35,2,-6,5,-13,-32,20,25,-30,-32,75,-19,18,-20,19,-11,11,-25,-32,-30,20,26,6,25,-17,-4,-32,21,-5,25,-12,-30,25,1,5,-28,27,-3,-17,-26,8,-37,-36,11,27,-16,0,20,-30,-36,-1,-21,4,-9,-31,-14, -43,2,4,-42,66,-57,-13,58,-60,-60,-51,-27,-7,13,3,30,-18,-34,-56,-12,-50,21,74,59,-32,-57,-38,-31,-2,-34,-8,30,118,-44,-5,-34,-48,-25,-17,-24,28,17,-45,-33,-21,22,-5,-39,116,7,27,-68,-35,-25,26,-47,13,-23,18,-58,-36,30,-10,-71,-35,0,-8,12,-9,-20,-4,-1,14,-28,-74,74,5,-41,-21,-42,-12,-37,28,10,49,-2,-14,5,-31,24,-18,-9,-35,-44,-19,6,-55,37,23,-22,8,17,-52,-27,127,42,-27,-33,-33,65,-88,-18,-25,51,50,-19,-9,-50,-49,-38,28,-86,15,-45,93,-40,-69,-21, 
  /* [31][0][][] */ -4,9,13,-11,-17,14,-28,43,26,-36,-12,7,8,95,17,-14,127,-21,-2,-21,-20,-5,7,3,-20,-18,-22,13,0,17,3,27,28,-4,-12,17,14,-8,15,11,27,-5,7,-24,-5,27,-18,-12,19,74,-1,10,-24,-13,6,1,7,26,2,-10,-13,13,-12,88,2,4,14,-22,28,34,22,4,-6,6,31,93,15,-22,-11,2,-8,25,-6,-13,21,-5,14,-19,2,12,40,2,3,11,-3,-1,-3,29,-3,-10,-3,4,0,3,60,25,20,-48,-1,8,-2,10,26,71,4,-20,10,16,-4,15,1,-1,18,-22,17,-14,-18,-23, 32,20,-7,-13,1,-21,-9,13,-22,2,18,15,16,82,20,-26,27,-22,-3,-16,-15,-17,9,30,-1,-8,-35,-20,4,-20,-35,-6,32,-9,9,-24,-10,-12,12,2,17,0,-25,14,-23,-1,-22,-17,10,50,0,-14,-20,17,18,3,31,-6,-14,13,8,14,-7,32,3,-1,12,-18,6,51,1,-13,-18,-21,-10,28,26,22,2,-20,-21,-8,54,-1,8,16,-34,-17,-1,-18,-34,7,-6,-14,27,-3,-25,28,-12,-18,17,-22,-3,-24,83,58,-6,12,13,-9,-10,15,-14,71,2,-8,-20,1,-1,12,-14,-15,0,-11,-9,12,0,-33, 49,-27,-3,-10,23,4,11,-48,14,4,43,43,-13,-78,34,-34,17,-1,2,-3,14,32,44,-9,-2,21,37,4,-41,32,35,39,-46,-14,17,20,-17,-7,-29,6,-17,48,-27,3,-5,39,19,5,-16,-4,-12,-8,2,-17,29,0,-52,24,23,15,22,20,-31,1,5,-11,-10,17,1,-16,16,2,27,-26,-17,17,-48,-15,38,51,-11,18,21,3,-56,2,-19,-20,-4,-11,14,6,-3,1,6,24,-33,7,-9,8,4,5,-1,-5,-34,30,24,33,26,15,1,-3,-23,-34,-39,0,24,-5,-21,11,18,2,13,26,17,-27,-18,14, 
  /* [32][0][][] */ 12,11,3,12,16,42,-11,-20,72,68,7,8,-58,20,13,37,-11,7,-7,28,19,24,34,2,-5,28,30,12,10,47,-1,53,20,28,-23,18,30,18,33,39,3,13,37,-10,-30,-25,21,28,19,-19,-19,31,39,10,15,0,33,48,1,9,9,-23,33,-58,51,-2,12,22,26,7,1,16,-6,-26,-1,-61,-21,63,34,-40,-10,-11,15,-3,28,-41,66,-15,-38,44,22,25,-8,63,3,13,17,-5,20,4,6,-28,29,33,-11,-9,20,21,19,3,28,-17,35,-4,-2,40,-7,21,-8,-1,-14,46,47,29,21,15,15,51, -27,-22,-31,8,127,-22,-30,-48,-18,-11,-27,-13,-32,-14,-8,22,-63,-32,14,-5,-35,-31,40,-16,-6,-6,-30,2,-29,-63,41,-33,-51,-14,-17,25,-51,4,-2,-40,14,6,-15,16,-15,-3,0,-18,12,-24,18,-43,23,-10,1,-1,-39,-21,-53,-1,-4,24,-34,-72,0,-4,21,-11,-49,22,20,52,-16,-19,-19,-64,40,-36,-6,-53,-8,-40,-2,-10,-3,-24,-27,3,-10,-35,20,-21,1,11,-20,-29,-4,54,-16,12,-44,-36,-17,-8,-35,-18,-41,22,11,-15,-103,-30,-5,-8,13,12,30,-15,-18,-7,-5,12,-29,6,5,-1,-24,-12, -7,-18,25,-13,-32,37,20,8,40,-29,15,3,16,48,31,15,-1,22,32,21,7,4,30,-22,18,-5,18,10,24,45,18,3,16,14,38,8,4,12,57,16,17,16,33,4,21,-31,-8,45,38,-23,11,5,27,5,-3,15,22,16,-64,7,46,14,5,58,-18,-4,28,0,34,-4,24,9,-22,-7,33,-21,37,-18,-8,2,17,105,-6,23,45,56,38,6,56,43,23,17,11,-24,26,-22,-20,13,-4,-13,51,0,2,22,26,-115,25,-10,-2,64,85,-15,23,-7,6,23,39,47,-11,24,-8,-5,51,35,76,39,30,18, 
  /* [33][0][][] */ 8,36,34,-30,-40,22,-2,-37,-18,-32,-39,-43,-35,-49,7,62,-2,1,26,12,23,-2,54,-39,27,26,-22,-43,27,-31,-22,-3,-49,-26,-40,-9,-52,27,-16,-41,-42,43,24,-43,20,29,22,-20,38,-31,-30,-59,23,43,21,28,-8,22,29,36,15,11,-20,-31,-43,31,-17,-10,-69,-46,14,-25,-22,-6,-44,-37,-46,-24,0,-21,-45,-10,-13,-34,127,-48,-52,9,15,23,-11,-66,-60,21,-24,-33,19,2,-25,26,26,-40,-45,-41,16,41,24,36,-12,-61,11,-7,29,1,-11,3,-3,-56,-29,-17,-24,-3,-27,-1,21,22,-54,12, 26,-33,-27,27,-48,-55,-3,-10,-50,8,-38,32,-38,-21,-21,55,-31,-18,35,34,-8,-30,6,-33,-1,38,-50,2,-29,-41,-18,-31,-45,19,22,-21,-35,-43,-43,-9,-40,20,-51,-14,-14,-61,-46,24,-41,-2,4,-13,3,14,-16,-36,-27,40,13,27,-12,15,14,-28,-16,12,55,5,24,34,-18,48,9,10,-53,25,-49,-47,-21,37,16,-61,-17,21,0,-40,-3,37,8,0,-49,5,-24,25,-44,-13,0,6,9,37,-18,1,14,-40,-74,-39,33,-36,25,-23,-48,18,-5,25,-8,-50,-27,28,13,-46,24,-19,-7,-55,27,9,-44,-44, -3,-21,31,28,-21,-42,-36,-25,41,-3,-59,32,0,-4,8,11,-39,9,-4,9,-67,27,3,-31,-34,16,-41,-41,54,23,-57,-11,82,27,-51,-5,7,-30,-4,2,45,-18,-8,-23,-31,26,15,-52,2,21,-53,-41,48,48,17,0,-35,-20,12,-40,-22,36,-7,39,22,19,17,-15,-17,-3,33,-21,-48,6,18,27,3,-35,-37,-6,-68,-58,50,-38,42,1,33,-41,-37,-20,-18,-49,-33,-35,-11,-24,16,-48,48,-34,26,-38,-36,10,11,25,-55,-29,-30,-36,-61,-50,-40,50,85,35,-38,34,12,-62,-23,-54,-8,-15,41,23,42,8, 
  /* [34][0][][] */ 34,31,23,-15,-22,59,-3,94,113,80,-33,43,1,11,-10,32,22,-45,-1,13,-11,32,17,52,63,32,63,71,9,95,26,62,28,12,-10,9,100,-26,48,84,24,0,13,35,-11,24,10,60,-12,93,33,101,70,26,-1,-20,-65,52,-30,21,7,-59,9,-84,60,-17,37,-27,85,6,-19,-26,14,-18,-40,-13,-18,66,-10,37,75,-23,20,-41,-11,-45,-1,34,-2,11,6,47,32,66,-19,-17,38,19,-35,-2,74,38,8,53,97,93,57,38,-17,16,44,42,24,72,11,63,42,63,-3,36,-8,67,79,75,5,19,20,127, -19,-20,-18,-12,-124,-47,-38,-1,-11,-5,-65,-16,15,23,-46,-39,2,-56,5,1,-52,-52,-15,24,1,1,11,2,-52,-33,30,-58,-31,-60,-13,-64,-25,-28,44,-77,4,-37,-41,24,29,-36,-36,-58,10,15,-30,-20,-23,24,21,-7,-76,-34,-14,15,-29,-51,-47,-15,-10,-36,-7,-21,-69,-14,-51,-13,-6,-23,-17,-79,-42,-32,-53,-43,-30,-37,-25,-48,-26,-14,-22,-30,-40,-7,-25,-61,9,-3,-44,-37,-70,21,-8,-13,-66,0,-35,-30,23,-56,-13,-14,-51,-46,-45,-10,15,-7,25,-40,25,-43,-17,10,-34,-35,-43,-20,-3,-33,-11,9, -16,2,26,21,-14,-62,71,-3,-39,-7,103,-6,14,76,26,-39,5,42,20,23,62,-60,0,-55,15,4,-19,-6,-2,-34,-16,-4,29,-32,11,-63,-38,-11,32,-6,-22,12,-51,-7,-9,-80,14,-32,8,40,100,-28,3,-5,39,53,-42,1,19,3,-30,37,-26,-18,-52,5,53,38,-48,70,-46,15,68,8,-36,19,-6,-50,14,0,-39,5,-42,-15,14,43,-43,5,-10,-13,-57,-49,-24,15,34,28,-20,-30,32,-20,12,42,12,-52,111,-97,-10,8,38,1,55,47,-10,18,18,19,-4,-20,40,5,18,-43,-40,6,17,-13,30,-41, 
  /* [35][0][][] */ 60,33,51,7,4,30,-15,-5,77,80,-40,7,-6,64,-43,56,32,8,23,-40,-2,36,58,41,54,-10,34,59,15,100,44,40,-19,24,23,18,81,-5,72,98,29,27,8,43,16,18,49,67,53,8,-16,69,79,-3,-18,-14,-12,49,50,33,36,-41,22,-60,38,21,63,-12,90,17,-21,26,4,-6,-16,43,30,54,1,-5,87,-33,48,11,21,16,4,22,15,100,22,57,52,50,-25,13,37,31,3,-15,59,72,78,70,46,86,8,-4,7,-25,79,2,50,26,85,26,26,71,-13,70,32,73,46,43,17,64,19,87, 32,-21,43,18,-127,-88,-1,-12,-57,6,-63,-18,30,54,-35,-13,-24,-62,13,-32,-57,-27,-13,8,-17,-10,19,-50,-26,3,3,-58,-3,25,-5,-57,-82,-4,37,-47,-6,-37,-30,4,24,-25,-21,-74,-9,-13,-13,-39,28,-3,-4,-27,69,-13,19,-2,8,-18,-30,-13,-39,-18,4,-46,-93,48,-59,-30,-6,8,10,-43,-10,-39,-56,-19,15,38,44,25,22,-39,-23,4,-40,10,19,-34,-28,11,-33,-4,-23,-21,-36,-15,-39,-30,72,0,-20,-71,1,-29,-52,-16,99,2,28,-35,53,8,0,-80,-23,37,-19,1,-20,-21,30,22,25,-56, -71,-12,-17,7,18,-47,25,7,-68,-37,47,4,71,76,3,-24,-28,21,-12,8,30,-31,-13,-17,-51,1,-51,5,-38,-58,-42,-8,30,48,18,-73,-37,4,20,-48,74,27,-58,21,-11,-23,47,-44,12,23,-4,-77,-18,-17,-9,54,-20,-47,54,9,14,65,-22,-55,-33,42,-25,-17,-80,52,-1,15,39,26,-78,-48,40,-40,-6,9,-45,7,-16,1,18,32,-22,27,2,13,-33,-46,-30,11,111,9,35,-18,-16,-14,-70,29,-52,-63,17,-100,-88,-13,37,-5,-22,68,-17,32,9,-1,-35,-62,1,40,10,-44,-65,-53,48,-30,11,0, 
  /* [36][0][][] */ 4,-7,11,27,64,-59,45,27,-66,20,79,-27,0,-15,65,12,-16,49,14,49,35,44,-26,-59,-13,43,5,-1,18,18,-4,-66,2,2,21,-73,-36,-3,32,-127,24,-4,-12,20,1,55,37,-23,31,-79,-8,-50,25,-38,-2,53,25,-45,26,16,-26,84,38,-55,1,54,6,-19,-55,-36,53,-16,25,0,-52,5,-16,12,-16,-21,-32,-66,26,28,-41,88,41,-5,25,-60,13,-22,21,0,56,46,23,-46,23,4,-69,22,-6,-60,-20,38,-51,6,8,-3,-44,-6,-56,-20,24,-10,8,0,18,22,33,-5,-21,-2,69,-6,37,-19, 10,-14,-20,0,-54,-51,39,-5,-26,27,18,-9,-3,-25,-25,-22,-55,-12,46,44,43,31,-12,-63,-11,-27,-40,-39,-34,-8,-61,31,40,-26,27,-69,30,-9,-2,-8,-2,6,0,31,11,28,-4,10,-14,-14,-4,-28,-24,-14,55,-6,33,-51,3,-3,-10,-29,-17,-72,31,-16,-37,40,-23,-28,-58,-35,4,29,-32,-38,-38,-12,33,-7,-46,-58,-35,49,-50,1,9,2,-34,20,8,-3,8,35,48,54,19,21,19,-24,-63,20,39,-46,-64,-86,-26,-28,-2,-43,-4,-38,-27,-5,51,8,-63,8,1,8,-27,-37,-27,10,71,20,31,48, 36,-39,9,-26,37,-24,28,21,-68,57,-8,25,5,44,-27,-77,-52,-49,6,19,-19,-28,-67,39,-27,17,33,28,-14,-6,95,-17,17,-10,47,-2,17,39,11,-28,6,31,-49,25,-18,8,33,-39,13,-58,34,-9,-22,-38,23,39,0,-13,-26,-10,19,-17,-10,-62,5,-9,37,-6,-80,-5,-102,32,-3,52,-34,12,-8,-13,7,-14,-28,-31,-1,10,3,0,2,33,-13,-1,-7,5,7,53,-11,37,-20,61,-32,4,-62,43,74,-38,-48,70,-25,-24,5,-52,-12,9,12,2,26,5,32,-8,-23,-28,-30,2,-38,1,60,17,-28,14, 
  /* [37][0][][] */ -21,-105,37,-5,-75,-23,-25,-59,-66,10,-65,-108,7,-73,-25,-96,-45,32,36,-77,-65,-99,25,122,9,17,-73,-68,-63,38,33,18,5,11,-46,-21,-62,-112,43,-41,47,-4,21,-30,-35,80,47,56,-18,-78,-16,35,-110,86,71,-23,-30,-39,8,-89,8,-42,31,-11,-109,-87,63,17,27,74,-29,-34,-71,25,13,6,-112,-46,-22,33,22,-9,47,-40,33,31,-48,61,-72,9,2,-55,-56,35,30,-68,-1,-85,-81,-87,15,41,38,-18,63,-63,-69,-27,-104,-79,4,-50,-57,43,-40,33,7,-48,13,-49,-38,-32,31,35,54,33,-85,-77, 64,-32,-110,-98,-30,-12,-101,-80,-16,54,36,29,7,68,-45,21,31,21,-14,-79,11,24,-95,35,-70,71,-11,-110,30,72,-124,77,-49,25,-50,58,-16,-102,8,42,-87,-32,-50,-35,53,-12,-92,36,-40,-57,-68,-102,-27,9,-105,-39,54,-47,3,9,53,-33,-61,48,27,-101,-65,-65,-10,-75,-68,-9,-28,62,38,-46,-55,-29,-91,77,-102,18,6,-30,21,-5,68,-69,-21,17,27,20,18,-15,-7,49,-111,34,62,39,-2,65,45,21,64,-9,-74,-43,38,7,2,-73,23,-17,22,28,-104,-110,-28,-113,16,55,-48,-105,-53,-5,-97,-94, 39,-7,-84,14,25,-82,-65,-99,-45,-72,-7,38,-54,79,47,-32,38,-10,48,-75,-16,-37,29,13,-21,-1,0,37,-54,-60,40,-23,7,25,-18,-28,17,19,-69,-99,-102,-38,54,-58,-42,-88,55,-10,-66,22,-12,-49,-17,52,-14,58,-46,-127,-71,-23,24,11,-118,-86,52,-46,25,42,-64,-83,-38,12,-9,-70,-88,-112,-28,-66,15,24,-34,-9,-5,-12,82,61,-112,-57,-38,-40,-64,12,-102,-88,-99,39,-83,39,32,-31,-71,-82,-49,-107,-20,-83,-28,-34,92,78,11,-18,25,-67,-26,36,-69,-102,76,-73,-23,-60,-114,14,-33,-95,-25,-35, 
  /* [38][0][][] */ 12,-9,4,26,-3,66,-10,34,127,39,-31,50,-7,34,-24,64,-3,-4,4,36,24,44,-10,3,36,47,29,92,16,103,35,63,-50,12,17,42,50,19,19,98,10,29,45,29,-20,37,40,95,-7,56,-6,52,69,31,4,-23,-72,97,-27,24,38,-60,59,-57,42,-31,50,-4,90,55,22,-2,34,-20,33,35,8,40,11,0,92,31,14,0,-7,-36,56,4,-19,39,56,73,55,74,-60,-17,93,31,18,14,73,26,37,59,21,53,26,-4,19,26,79,-6,24,36,103,34,67,77,-36,-3,2,17,72,42,10,48,58,117, 13,-14,27,-1,-52,-48,-11,-85,-32,1,-14,1,12,24,-24,26,-32,-2,2,-17,-29,-22,45,-9,32,-28,30,5,13,27,50,5,-8,4,-27,-23,-66,-57,23,-51,-4,-5,25,-24,63,-23,-41,-31,12,9,0,-3,-25,-37,2,-14,-20,-20,-21,25,44,11,-3,34,-20,-18,22,-12,-59,24,-34,10,-34,3,60,-60,-33,-60,-45,53,3,39,-8,-4,68,-29,19,-11,-11,36,8,-43,-27,-8,-2,1,-17,-30,-1,5,-25,12,36,16,-39,-61,-12,3,-54,8,53,-9,25,-22,42,21,39,-33,-20,41,-14,48,22,-25,29,25,-1,-42, -61,3,9,35,86,-22,22,-1,-2,-41,64,11,51,74,96,12,65,85,-13,37,72,-13,-22,-4,-34,-4,-16,-12,-15,-17,-53,-24,-41,2,68,-28,-49,1,4,-70,24,8,-30,4,-9,-82,13,-18,-8,41,-28,-34,-63,-28,19,71,-39,0,43,16,2,88,-29,-22,-12,4,-94,44,-23,-22,-18,-4,35,-5,12,-51,-10,-80,23,-12,-38,-2,-32,7,-8,64,-18,21,17,-29,-13,-45,29,-10,54,27,25,-33,-9,-2,-57,21,-71,-32,31,-67,-36,-14,6,33,14,32,13,-6,-40,-4,-18,-7,19,-2,-15,-75,-48,-18,0,-4,8,-45, 
  /* [39][0][][] */ 54,4,63,4,40,-7,-29,-14,-47,35,-26,18,38,11,1,24,-29,-1,-2,-33,8,-9,127,34,-4,-43,26,5,51,-13,-6,-38,-51,24,12,2,-37,12,65,-46,5,-16,-23,30,25,126,-12,27,51,15,-27,15,19,33,-31,-11,-52,-18,-16,-54,46,43,2,66,-29,-12,84,-13,-36,35,21,-31,16,23,23,72,8,4,18,-23,-1,14,-10,17,113,-28,-21,30,-10,-14,-2,-35,28,14,-38,-5,-58,3,-6,26,17,-44,5,-34,3,94,27,-12,9,97,1,-15,9,8,78,1,23,-1,35,44,-7,0,13,-17,65,37,36,4, 4,-16,-13,-3,-31,59,-4,7,40,-63,-4,43,-40,20,-23,0,-14,-13,27,-30,-37,-17,28,15,-16,-18,35,-31,25,-48,22,15,-5,-22,36,9,47,24,10,51,28,8,42,39,19,-34,10,5,69,-12,0,8,-43,-4,45,-4,-20,16,-19,-43,30,-35,-39,-5,33,-9,25,25,35,19,50,-7,34,15,56,50,5,13,-5,-25,-37,42,-20,31,-1,-11,40,38,-8,-13,26,34,11,-5,-27,-13,-28,-15,35,-6,50,8,-30,31,-9,77,26,13,6,35,-59,-17,-7,-34,8,4,-5,23,1,37,5,-23,14,-65,13,5,21,-30, -51,19,-51,35,95,-19,45,26,6,22,42,58,-1,-21,42,-26,-5,11,29,-19,24,10,81,16,29,38,-20,-15,-36,-39,-33,51,22,-18,40,62,-25,31,-26,-5,33,34,-2,-4,7,55,39,-19,2,11,15,9,-86,22,5,50,-87,3,3,-25,-50,35,-48,-11,31,30,6,-11,33,6,-3,37,14,12,2,53,34,-23,18,-33,-14,-27,-30,-27,-2,23,-29,8,21,7,27,-8,-28,7,-4,56,-12,38,-8,6,-26,13,-64,-42,53,99,30,-19,-14,38,-60,14,21,-1,-20,-30,-29,30,40,24,25,-17,9,-13,87,-29,-29,1, 
  /* [40][0][][] */ 41,-36,52,-25,-12,-55,-2,-20,-65,-8,0,-37,6,-21,5,36,-38,20,0,-1,13,1,99,33,43,-37,10,-30,72,-55,-14,2,-12,24,-20,20,-19,-49,63,-43,12,-43,5,-2,-8,7,-9,-16,28,6,26,-36,-27,-20,4,14,-64,19,-38,-25,51,-21,-4,-14,-5,-32,23,-7,-8,-28,-13,-3,6,-17,7,15,23,-12,11,-21,-20,14,2,-15,83,-21,-27,-27,7,26,-14,-20,-7,-30,31,-37,-9,-2,1,-16,-52,-3,-6,-30,19,12,-5,-15,-14,3,14,-25,24,17,19,26,-30,-25,18,28,-35,23,-4,-40,88,-5,14,-17, -3,25,-2,-4,8,-12,-11,-54,15,-50,32,-6,-26,-30,37,-19,2,8,-7,14,18,-42,40,-25,7,4,-22,-29,-12,-13,-23,30,-21,-9,13,43,-16,39,38,32,14,-29,-5,-8,-38,-55,22,-30,-7,-14,-29,34,-46,22,-9,13,-42,16,7,-13,-5,-18,-1,127,15,-24,0,0,38,1,41,-20,-5,-16,-30,15,-16,1,9,-21,30,48,-3,-16,-12,-20,3,-22,-32,-16,-13,0,-15,-18,-42,4,-27,11,26,26,-17,24,2,0,59,-22,32,-1,16,14,-3,-2,-7,12,21,-14,-14,1,18,14,-20,-54,4,-19,-10,-18,11,-39, -23,-20,-38,8,-2,11,-7,87,-53,30,-33,-33,27,15,13,-8,-11,-34,-7,-10,-13,-24,43,65,-28,-43,7,-19,34,-20,0,-4,42,-17,-8,-21,-32,-32,59,13,14,-34,-7,-41,-25,34,-53,6,29,40,-12,30,-32,-2,-8,-28,-33,-11,-44,-48,-25,9,-3,-15,26,14,12,-25,18,33,64,-15,-45,-4,6,123,16,-30,-25,8,-33,37,-36,-34,116,18,-10,14,-4,12,-10,-30,11,-32,-12,-29,-34,14,2,-2,6,-21,-62,-45,100,63,10,-20,-30,105,-68,-15,-8,7,36,-20,-1,-38,1,9,-35,-39,24,-45,63,-34,13,-21, 
  /* [41][0][][] */ -24,27,16,27,-20,-6,23,0,-58,-31,-5,-23,15,9,-49,17,-15,11,-21,-11,2,14,-45,-17,16,-34,-10,-30,-36,-19,-19,8,-20,-26,8,-23,6,2,-1,-10,0,12,2,30,-4,-24,29,-2,-4,-37,-22,12,2,28,2,1,37,9,-4,20,-30,-20,-9,8,-20,-19,-17,-16,9,27,-20,14,29,-24,-20,-46,21,-16,3,27,-12,0,40,21,127,7,21,-2,27,-3,-18,-54,-14,-27,-36,-17,-23,16,-21,7,-6,-8,21,-18,-3,4,-31,-13,6,-2,-21,20,22,-18,89,-21,-45,-21,21,16,-31,-6,1,15,-25,4,12,24, -46,-18,-37,-6,-8,-33,3,-11,-27,-34,-32,-2,-3,11,-16,-14,-13,24,-5,-28,5,-6,-52,22,23,-22,18,-31,-23,-29,20,12,-10,-10,-19,-8,-15,-1,-25,-29,-7,-4,-11,12,-36,-22,-26,-29,-26,-5,-30,-37,-39,2,-18,-1,5,-24,-11,17,-16,-41,4,-21,7,-5,-43,-30,4,-32,16,-22,-15,1,-58,37,-5,-45,-23,-16,-17,0,0,17,27,-33,15,-34,-3,-20,-35,-15,-16,2,-27,28,-27,6,-9,25,-35,-19,1,9,-12,-25,-15,27,-19,-14,-46,-8,-9,-21,42,18,-45,-12,9,-25,-36,19,6,10,28,-15,-17,-3, -10,-6,23,-13,42,-32,12,-12,6,-16,-36,0,-21,-2,-2,-3,-30,-5,-33,2,12,-34,30,-3,-30,-7,36,19,-24,45,-1,-15,4,-46,3,-24,-29,-33,40,-19,-28,-3,-45,-5,-25,-10,-25,-41,8,0,-26,-4,-7,4,-30,13,-2,-31,2,6,8,-17,1,67,-51,15,31,-5,-59,12,-6,28,30,20,-26,-29,-6,-36,-37,19,-12,-28,112,7,79,-14,-9,-16,28,-43,10,-54,-31,21,9,9,-33,-32,-24,20,7,-13,-4,-11,25,-13,-29,-22,18,3,43,-2,-12,-11,17,27,32,-30,-15,9,-28,-13,-30,-6,81,4,2,-17, 
  /* [42][0][][] */ 13,-96,-82,30,41,-93,-125,-76,-38,-79,-14,26,-22,41,-27,-36,-74,-32,-88,-31,83,79,-39,-34,5,-41,-30,15,-7,86,41,-39,18,0,7,-64,-48,46,55,-32,-13,49,-2,66,-75,-96,12,-12,30,40,-65,-115,50,-14,-92,-91,59,78,-72,-25,-53,-41,-13,35,38,-19,34,-47,11,-72,29,29,-33,-36,10,30,-70,8,-84,-80,20,-56,-9,-94,38,-62,69,57,-127,85,8,-74,77,-58,-3,27,-111,-41,-6,70,-63,0,-82,-31,35,-60,-73,48,-7,-89,-29,21,-75,33,31,10,-33,32,-36,51,25,-32,47,-78,-55,6,-81,-29, -75,15,-38,-62,-22,-43,-42,-12,-92,60,-87,13,-106,44,-10,-58,-80,-89,-87,-6,-51,-29,39,62,-39,-34,-25,-93,0,-70,65,-6,36,-10,26,15,-37,-82,14,-25,-87,-82,15,-31,21,75,-47,6,-94,-79,-26,-16,-19,-77,37,-123,80,-11,-95,-6,58,-17,48,-42,8,-51,-46,-92,-4,-10,4,-60,-56,43,-42,-38,-92,22,-19,33,-106,-32,-50,-19,83,9,46,-67,-59,-74,-125,-99,33,-97,-1,3,-48,13,67,12,-17,68,-91,-101,7,-71,4,-6,5,-57,-9,37,26,-63,-37,67,5,-5,-47,-17,-5,23,-93,16,-81,22,25,46, 5,72,27,-60,-62,-98,-18,-10,-107,24,-27,38,41,26,51,-33,8,19,5,-10,-59,13,26,-15,-42,-53,-81,0,15,-11,-73,-49,17,26,-95,-12,5,-50,0,-22,-32,-91,79,58,5,84,-37,-8,105,-84,71,-105,-92,35,-44,-71,9,28,-52,6,-56,-86,68,-5,-72,-51,-53,31,-79,5,-56,-33,70,42,-101,84,78,-1,28,8,13,-84,4,6,3,-41,-44,-44,8,71,-95,-81,76,54,47,37,-33,-91,-43,-25,9,-96,-78,39,45,-89,-93,-49,-119,11,83,11,-23,32,-53,62,68,-2,-101,79,26,-17,-37,6,76,-56,-92,-22, 
  /* [43][0][][] */ 39,-2,41,-14,-19,43,21,16,25,74,-1,-12,17,-30,3,14,-40,-1,-6,38,71,1,54,7,1,-24,-2,-27,19,42,37,3,-25,14,21,5,4,34,46,43,-27,-4,68,40,32,11,33,-14,-21,5,-6,32,80,23,-2,12,-11,29,-44,-13,1,-34,14,-79,58,-13,34,6,41,29,-13,20,34,-52,-4,-1,-37,83,22,-38,-20,-3,21,-3,7,-9,-3,9,-11,18,12,-5,58,19,-18,26,38,1,-25,21,25,45,2,-12,-4,-7,2,-6,30,6,88,9,21,26,60,18,33,43,-36,41,29,31,-12,75,9,12,45,48, -25,15,-13,-23,127,-88,-8,-49,-72,6,-21,0,-10,60,-35,24,-55,-57,30,-22,-48,-34,95,53,-3,-15,-70,-1,-27,-106,29,-73,-30,-49,-22,-20,-75,40,-4,-68,-14,-15,-48,-19,-16,-33,-5,-95,15,22,-3,-56,-26,-17,-34,-7,-10,-48,-60,-29,-34,-21,-26,-97,-13,-7,65,-18,-122,-10,-12,46,2,-25,18,-25,21,-10,22,-40,0,-13,-40,-46,13,-12,-87,29,-32,2,-52,-88,2,-19,-28,6,-46,24,23,9,-20,2,-10,-34,0,-44,-85,-12,15,-47,-70,-18,-11,17,34,25,8,-75,-14,-9,-27,-41,-74,2,6,2,24,-45, 42,9,-18,-15,2,25,10,12,26,-15,53,22,-5,-1,54,-10,-8,59,18,27,79,-3,-7,9,-2,-24,14,-28,11,34,-32,-10,-4,11,-14,-20,-32,21,-8,17,-16,-29,6,-41,8,-10,-28,-26,-33,-15,20,64,-6,11,12,50,15,-27,-50,-40,-6,-4,19,63,-3,30,-12,-17,-7,-12,62,-24,-12,14,95,-16,-4,-17,1,1,53,69,-14,-11,-31,51,-2,8,1,10,29,13,0,-5,36,1,-13,-17,-21,34,75,28,8,49,-7,-89,-3,-46,-7,45,63,44,4,4,-13,38,61,-13,19,22,39,2,40,-24,23,-4,12,-10, 
  /* [44][0][][] */ 20,6,-24,9,44,-23,6,25,-44,-50,-4,16,35,9,21,-4,-28,37,28,30,28,-3,-101,-17,-22,-21,-4,-69,5,-66,27,-17,-15,-8,20,-60,5,19,-25,-67,24,-14,-15,12,1,33,12,-10,31,3,-33,-20,3,7,0,8,9,-26,23,-16,-20,1,19,-91,-31,30,-20,-2,-50,13,-16,-40,41,11,0,-18,-45,12,12,-23,-53,-1,12,3,5,33,-20,-6,-50,-10,-25,-62,18,-12,40,17,5,-10,19,-24,-17,1,26,6,-4,21,-18,33,39,30,-17,27,-28,-23,-10,-2,21,-13,12,31,0,-3,-47,-19,-11,15,25,-72, 6,27,-23,-14,-15,4,30,-25,-32,19,-1,27,14,-36,13,-46,-20,44,-9,-12,40,10,-7,22,-10,-3,-61,-28,-55,-62,-4,-37,19,-33,0,-7,-6,15,9,-17,20,41,-22,1,26,15,26,-21,-61,-19,-6,-39,-40,18,24,43,79,30,61,-23,-46,-7,29,-46,8,38,-83,21,-39,-1,-114,-42,21,39,-13,-2,-21,8,36,-26,-2,-30,5,-14,4,23,-19,9,-12,18,11,4,19,25,23,38,10,22,-16,14,-40,-2,35,6,6,-19,-41,-1,-6,-96,59,20,-8,-8,0,-9,-45,-33,-2,4,-31,-9,-46,-4,20,18,27,25, 69,-32,-22,11,72,-18,11,-27,13,24,-46,-12,-9,31,15,-28,-28,5,3,28,-28,7,-33,26,-43,15,-4,28,19,-12,27,3,-47,-46,15,-38,40,-27,12,-16,26,-32,40,-27,-27,-55,30,4,-6,2,28,7,31,0,-8,-36,37,39,26,28,-4,-10,12,-127,8,35,-60,22,-27,-4,-94,-39,18,39,-25,-21,-76,37,-26,-15,50,-20,43,6,8,-45,14,22,-15,33,-21,33,28,28,-43,-44,32,30,-7,-1,22,-8,54,39,-29,39,-4,14,-12,-117,23,-51,18,-43,18,-27,-10,-22,-19,-13,-35,-2,13,40,-36,-1,48,55, 
  /* [45][0][][] */ -28,-82,-31,-70,-70,22,-25,51,5,31,43,-38,-79,-5,-44,20,-34,-62,77,-25,-95,-34,8,-14,-60,-60,-80,-86,21,-52,44,-67,-47,-17,-110,9,49,-10,-88,-13,38,43,-46,44,-56,54,-72,-8,-107,-75,-26,-82,-110,47,-88,-41,-37,-38,-99,-2,28,-5,-126,-45,1,21,-43,63,44,53,36,-58,56,-68,-10,-56,-59,42,-50,-78,11,-24,37,26,-73,-33,-102,-78,24,-15,-119,-19,-11,-48,-14,6,11,-35,-13,-38,-53,45,-25,-19,84,-64,-53,-86,60,-83,-108,-60,-94,10,-67,-35,59,16,-51,-101,64,22,-127,12,44,-49,-118,-76, -37,-55,-70,38,-16,-108,-93,58,63,-108,-73,36,-77,-17,-13,-10,81,-35,11,-75,-64,-104,-21,-65,-46,-84,58,51,-73,31,15,-79,-62,-114,26,-75,-68,-104,-33,43,-16,-76,-101,-20,33,41,-90,-68,-103,91,53,-44,-12,12,5,1,60,-52,64,-72,-22,-91,46,-58,-89,-48,-43,-52,-119,-78,41,-69,27,53,-5,48,-52,55,-84,-54,25,10,-34,-59,8,-14,26,-83,37,-64,25,-81,41,-14,-29,48,56,-7,-40,-64,-105,43,56,-98,74,-79,-42,-96,-61,48,-58,-17,20,0,22,-101,-73,-1,65,-106,-109,-50,-54,20,-83,-91,13,70, -23,-23,53,-74,55,54,-57,42,39,-70,-35,18,-44,83,68,14,-30,-47,35,-5,-22,-50,-40,-25,-38,40,-40,14,-30,-68,-42,-84,-72,75,61,-47,69,-31,60,32,79,-28,2,47,-71,14,78,-75,42,-78,-16,1,-21,-74,-30,56,-19,-2,-87,-93,-61,-17,59,-46,-56,78,44,-65,-51,-12,17,57,-57,-56,-7,13,74,-13,72,-65,28,-4,82,-91,-89,-16,13,-33,-64,-60,41,58,-44,19,-73,53,-31,49,-22,33,-31,34,3,-32,67,-71,-64,33,-30,73,59,46,53,-14,-27,-20,-11,-91,52,-38,75,77,62,8,35,80,-69,6, 
  /* [46][0][][] */ 70,-42,-2,7,-31,-6,-16,91,-63,16,-28,-40,26,-1,-3,-26,26,-33,6,15,-8,79,-9,-45,-10,-70,-49,26,10,74,-26,-16,29,-32,6,-10,-27,-21,-37,-18,-37,-10,-29,-40,-44,57,-63,8,9,-12,-5,-12,-42,34,-65,-25,-4,-9,-6,-53,12,4,-1,121,-9,3,16,-5,-44,-40,-5,10,-69,-30,75,53,34,-51,-76,13,8,50,-41,13,73,-22,-57,0,36,15,42,-34,-16,4,0,0,-54,25,16,-13,-3,9,-28,26,87,20,48,7,-52,11,-55,-25,-16,11,-21,18,-64,-24,27,50,39,9,-22,-26,64,-42,8,-30, 22,-4,-65,12,19,-20,54,-5,-59,19,39,5,24,35,59,-35,20,42,19,-23,13,72,-66,-3,-7,-28,-56,-72,-54,127,-73,-19,42,3,39,-31,-78,-13,-20,-71,9,37,-21,-8,-33,66,9,-18,-29,-43,29,-65,8,17,26,66,17,-51,8,-20,-41,91,12,4,-12,25,1,-32,-51,17,-11,7,16,-59,-55,111,23,-30,2,22,-71,-83,-14,12,-29,59,-59,-17,30,-65,-10,-37,-27,-41,69,-1,-3,8,26,-17,-33,34,-85,-36,46,52,19,26,-18,2,-58,35,13,56,-26,-13,-1,-1,9,-20,52,16,-22,28,53,-11,-22,-55, 29,-5,-37,31,-17,-38,69,93,10,-8,55,7,10,44,32,-49,62,28,44,56,59,26,44,-3,-2,-2,39,-43,-34,21,75,45,16,-59,39,3,-35,28,-27,-15,7,50,-10,3,11,-14,76,-2,-51,0,-20,-29,-34,-42,50,59,13,8,49,1,6,30,10,-23,4,-17,63,-13,61,16,-67,40,12,12,-69,38,-45,-11,57,29,28,-9,18,8,43,-1,-30,12,-16,-33,-14,24,12,-7,36,75,17,83,5,-13,-29,12,13,23,-1,63,22,32,57,29,-44,6,-45,47,-13,25,18,-15,13,-34,48,8,-30,31,48,-48,-52,2, 
  /* [47][0][][] */ 42,-4,60,-11,25,-1,-39,67,-18,37,33,4,26,88,0,46,17,8,-18,-41,-9,42,127,45,55,-26,13,-38,29,-30,-14,-5,48,6,-31,38,-2,-5,21,6,61,-13,24,21,30,40,19,-18,32,37,13,-15,22,2,-36,-28,38,-24,21,-28,39,1,-24,23,-7,-6,29,11,-12,81,30,8,3,-32,-23,124,29,-41,-24,-22,-11,47,24,4,99,-23,-14,-30,-38,82,33,-41,-6,-26,-15,24,-31,-5,-25,-22,8,-19,9,-8,20,98,23,-1,14,2,27,-1,24,65,73,31,1,-31,13,67,5,54,-4,34,34,39,33,-33, -48,-18,16,-11,-12,29,-6,-34,11,-29,-31,-13,39,63,-9,5,28,-19,1,24,-5,-19,16,22,26,22,20,1,26,-11,25,1,-38,31,-25,22,18,-10,27,29,40,-19,-6,28,9,-20,-37,25,32,-2,-9,38,-18,9,-30,-24,-51,41,-32,-23,6,-37,30,24,13,-7,-22,-17,70,29,21,-25,-12,-20,21,13,-19,28,1,12,36,13,-8,-26,-32,19,-12,-5,-24,30,-4,59,24,-21,-31,-5,43,-5,-11,-17,37,-1,-9,41,20,-32,26,-20,-9,36,-27,-9,41,27,42,28,-3,8,18,2,-22,-25,22,-25,-10,-18,-13,16, 51,17,22,19,9,-28,-20,3,-50,-3,-8,3,15,76,9,9,-14,4,8,30,19,-7,52,20,-10,-26,8,-24,25,-19,-4,-26,19,14,10,-20,-29,11,-1,-33,0,0,-2,17,-29,-20,14,-35,20,36,-10,-22,4,-18,-11,-12,-20,3,17,-22,48,27,-6,46,6,18,-10,15,-30,34,-1,-19,-1,-7,7,-4,15,-5,15,2,11,39,-28,17,40,3,-28,12,14,29,-14,-13,2,-16,24,-5,-13,10,30,-4,-12,-12,40,-21,-21,-17,-16,2,-22,-8,118,23,12,98,-30,40,14,-38,1,13,8,-10,-26,-47,26,-35,17,7, 
  /* [48][0][][] */ -8,-26,21,12,-41,-31,-5,12,-29,-40,-5,-39,-26,90,-10,-50,9,24,-42,-40,9,43,30,-90,4,-31,-60,30,-1,-24,-7,-69,34,-49,-42,-16,-56,-39,9,-38,-51,-35,-57,-18,31,16,-43,14,33,-27,23,5,-65,44,-49,11,-76,-16,-20,1,-23,-27,-35,114,-41,8,-2,-8,-17,17,-17,-31,8,43,69,-12,53,-7,2,26,9,69,-79,-12,67,-52,24,-8,18,50,-2,-3,-41,-9,-57,8,-6,19,-30,-33,-42,46,-43,27,10,32,-23,-29,-58,20,-55,-20,30,-17,127,13,-64,3,33,-25,-35,48,1,-45,-11,-20,-39,-56, 41,72,-17,-8,-34,-61,3,-24,-31,18,33,-6,89,12,81,29,-45,2,38,41,6,-4,-102,0,-29,-55,0,-32,8,5,4,-63,55,-9,44,-86,-53,26,12,-95,-20,-6,-19,19,44,38,56,-24,41,0,40,-73,34,16,-3,77,-12,-87,64,25,-14,18,36,-42,-44,5,46,9,-72,37,-18,-31,54,-47,-65,34,-9,-29,3,0,-55,-64,-2,43,15,80,-11,3,-2,-39,-40,-114,3,33,68,33,-18,-31,-9,-17,-54,58,-101,-11,88,31,-68,38,-1,-11,-77,53,-38,-6,119,28,7,-48,-24,13,88,33,-34,11,82,-10,-52,-65, 1,24,-26,27,-68,7,23,-46,7,-43,2,52,46,42,54,-96,-28,31,41,65,44,4,49,-12,37,-24,-29,35,-102,-7,32,43,28,2,23,59,33,72,-23,31,-3,23,-65,-18,5,38,116,43,-17,-66,-28,-31,-61,-34,61,35,17,51,112,38,-58,-27,25,-55,-26,1,29,53,-19,-28,-124,-1,83,-11,-83,-8,14,-37,61,46,11,5,-28,35,-53,77,50,-12,-19,35,-8,-41,-23,38,14,46,43,38,-23,50,-56,104,3,31,-14,-10,20,-17,35,-43,-14,78,6,37,111,-35,21,2,62,25,6,-64,-41,-4,25,-65,-6,-4, 
  /* [49][0][][] */ 86,17,37,11,27,56,15,66,61,37,4,-4,-52,-16,-51,121,-44,-7,45,-12,-26,50,-9,-33,23,-12,13,38,39,62,61,77,-22,29,29,31,76,16,23,127,11,-10,41,0,32,25,9,53,49,-19,31,89,56,-7,10,-17,-30,44,10,29,10,-70,66,-87,77,-13,40,-27,91,4,-41,26,28,-41,40,-22,30,26,16,14,69,18,10,7,1,21,12,-7,-30,22,67,105,38,49,-34,31,72,-3,8,27,64,32,87,95,-8,0,75,-5,-9,32,59,-4,41,-39,44,54,43,54,-36,50,-31,79,66,98,29,50,20,85, 38,-24,49,-27,-36,-57,15,-62,-100,11,-22,-57,-2,28,-36,32,-32,-12,-28,-36,-2,11,32,-21,-5,-4,26,-58,14,-55,24,-6,-13,-42,4,-65,-58,-62,49,-79,26,-16,13,26,62,14,-28,-26,26,-14,-1,-63,44,-34,-48,-16,-10,-44,-18,18,18,-1,-37,-12,14,-2,30,-18,-79,46,-57,15,-25,-19,23,-20,-15,-18,23,35,-3,37,16,-51,29,-72,-48,-1,-40,0,1,-69,-22,-37,-1,23,-68,15,5,10,8,-28,9,-39,-66,-111,-43,-10,-17,56,25,-36,0,-40,-27,-10,-3,-101,22,60,-21,-37,-8,-29,-30,-23,38,-60, -14,-8,-23,7,81,-30,22,27,-42,-31,52,47,-6,1,24,26,-48,34,-18,55,55,-15,-36,-13,-14,-7,-11,-18,-15,-20,-57,4,-6,-3,72,14,-28,19,14,-60,25,-11,-37,35,17,-49,-9,-50,9,-12,-3,-54,-39,-34,12,80,-43,-38,-23,10,23,80,38,17,-30,32,-34,46,-56,21,48,37,-10,10,-70,-1,19,-8,4,-12,-79,-47,-61,7,14,87,-26,11,43,-77,-39,-77,11,-15,46,52,16,20,0,28,-54,13,-7,-61,-14,-43,-23,-3,55,89,-7,19,8,-23,-69,27,-31,-58,46,1,-29,-5,-58,13,54,-26,-14,-44, 
  /* [50][0][][] */ 94,58,80,-6,67,-59,3,-18,-27,16,53,21,59,20,75,-37,-42,-9,-14,-35,5,-17,20,19,7,-71,-35,-11,59,10,34,-7,47,-32,6,-43,-15,43,37,-127,-6,-18,-13,-14,14,0,21,-21,26,12,-10,-21,-33,25,-13,5,-3,-58,17,7,8,58,-33,-44,-19,31,83,8,-101,-31,-52,27,-26,-41,-65,31,-2,-20,10,17,17,-9,-39,46,16,8,-61,28,23,31,-55,-52,-42,-11,59,-18,-6,48,6,-30,-53,38,-56,-1,42,72,-26,48,-17,-63,-45,-10,-15,50,54,-48,34,-67,9,64,-13,-18,23,13,52,-20,41,-71, -21,44,1,-19,-107,-27,52,-25,-54,36,37,-9,4,17,-2,5,-84,70,-13,5,77,-39,-72,5,-20,-13,-37,-42,6,-19,-5,11,26,19,22,-82,-31,26,-13,-79,-12,47,-27,31,-2,-32,49,9,-31,-33,-8,-56,-55,-4,-15,41,100,-76,26,49,-31,25,7,-69,-58,55,-62,10,-60,22,-49,-9,50,-28,-49,-73,-8,-42,3,46,-11,-81,33,18,-5,25,27,12,9,8,-64,-17,26,-29,44,16,-30,32,-49,-4,-41,47,-28,-20,58,-13,-3,-16,45,-42,-31,77,19,-62,1,-11,11,-77,7,-9,-16,-8,-23,12,17,-27,-40,-44, 8,33,-40,25,-53,-26,3,15,47,-2,5,46,7,-10,-12,-22,-13,-16,14,56,1,-47,42,-21,-42,-8,-3,63,-53,-32,24,82,-8,-43,34,46,28,26,-34,7,-33,29,-61,25,21,-7,106,5,-3,8,-11,-57,-19,-5,50,10,38,45,27,18,-28,-27,7,-109,44,15,-16,-16,-12,-66,-85,-12,47,-14,-91,1,37,17,15,-1,33,9,44,-54,-26,25,62,-10,-27,24,32,25,25,-2,4,45,46,74,19,25,-38,29,24,62,-4,9,19,-2,70,-54,-48,43,-38,-43,64,11,4,-19,33,-1,54,-12,0,-8,30,-23,-1,17, 
  /* [51][0][][] */ 10,0,10,-6,27,-25,22,58,-14,-55,26,-3,21,-12,17,-15,40,50,31,41,21,36,-4,-4,-8,13,-4,-37,-14,13,-15,28,3,-19,16,-22,-31,14,-5,-41,-7,-11,-17,-13,36,6,23,27,51,-18,27,3,-37,-19,54,55,24,0,22,-27,24,25,-24,127,7,1,44,19,-19,-20,71,7,-21,21,49,19,-19,4,27,-23,-20,-40,-8,-8,24,58,-22,-19,2,9,-13,-13,7,-5,19,-9,0,22,4,-23,14,28,-46,-31,52,58,6,-13,-9,72,-48,16,13,20,-37,-1,18,-5,-15,17,4,0,1,-1,105,-37,-16,-13, -28,21,-42,7,-9,-32,42,-1,-5,18,39,30,29,-36,19,-3,31,33,5,40,25,8,-15,4,3,20,-35,15,-43,-19,-21,41,5,5,49,44,4,37,26,2,-40,44,-40,-8,-18,35,40,12,24,-20,7,-24,-67,-30,28,8,50,27,25,-4,-12,36,-21,33,28,40,-11,58,-10,-7,-18,-13,11,30,-35,48,-6,6,4,-5,-13,-11,-15,22,19,14,29,-18,-22,18,-28,-5,8,9,28,37,22,46,17,29,-39,25,-7,0,79,63,-16,-9,60,-2,-66,38,-8,14,19,-36,-8,21,28,1,-6,6,-15,-43,71,2,-14,47, 110,-47,37,-12,24,-56,-1,-40,-29,52,-10,-29,-33,-22,-43,-26,-52,-37,23,-34,-30,-8,-127,-21,11,-26,-7,15,37,41,-18,24,-19,-23,-26,-17,-20,-42,-96,-26,21,22,-22,-29,-17,23,-13,-38,-1,-44,-2,-18,-14,32,-19,1,74,12,-40,-11,7,-92,7,10,18,-13,31,11,-14,-35,-76,-51,-58,50,-53,8,-60,54,7,-21,-37,-47,-44,-44,-65,24,26,-32,-36,-14,-36,-11,-19,30,-22,0,5,41,15,-12,-37,5,28,-30,10,-16,-64,-2,-7,-86,50,-50,-5,-14,-50,-1,-25,-57,-21,-31,-52,38,-35,54,17,33,-1,-1, 
  /* [52][0][][] */ -38,-26,33,-25,47,-5,-18,22,-38,-5,37,-15,14,54,26,26,6,45,-29,25,17,-3,88,83,6,5,10,-29,-17,-67,-38,30,-19,51,34,23,-53,30,104,-36,-15,-13,8,-26,-26,75,9,-46,23,-33,2,-53,-47,23,11,10,-31,-48,-28,15,13,45,-23,-26,-27,-3,39,5,-54,3,23,9,6,-21,-33,122,26,-62,11,-7,-21,90,-21,26,125,-27,24,-23,-29,50,-35,-27,1,-5,57,8,-21,22,6,22,-52,3,-50,12,-26,-1,-17,-44,21,25,8,-37,-33,127,76,9,29,-74,1,1,20,-24,-56,-28,77,1,-16,-43, -57,-6,-17,-23,-36,53,-31,-2,59,-60,-70,-21,-11,25,-7,-25,43,-46,10,12,-11,-28,20,-8,24,9,45,43,1,-44,35,-3,-25,19,-5,63,25,-7,-18,41,30,1,-29,25,16,26,19,51,-29,50,18,24,-16,7,-24,-30,-38,25,-15,1,-24,-55,10,-8,44,-43,-14,-30,77,-27,33,-25,-4,-13,61,-8,7,-13,-20,19,26,68,5,-5,-22,11,-22,5,-4,5,-25,54,-22,-16,-91,17,10,40,3,11,43,29,-38,9,-4,-65,58,-21,-61,24,-50,32,17,34,7,13,30,67,-39,-2,-25,-26,12,-40,15,-44,10,33, 5,-16,6,15,4,-32,11,49,3,-2,12,-12,-13,95,47,-29,24,-13,27,-18,-19,-6,21,100,27,-20,22,-21,12,-8,43,-4,44,27,-16,4,-1,24,-26,-23,21,-11,7,-14,-35,0,-9,-3,-5,-20,-23,-28,19,-40,-16,-23,-45,-42,38,25,-23,-5,-5,48,8,-18,21,-11,-23,-23,-17,30,12,17,37,20,68,29,20,29,31,26,-9,7,-6,8,-43,16,-7,23,-6,-44,-17,28,6,-23,-30,42,15,-1,-64,-2,-62,16,55,94,3,-26,21,-3,-75,44,23,70,-31,-35,-17,-33,-20,33,13,-14,-9,-18,41,0,12,-45, 
  /* [53][0][][] */ 51,-14,35,-17,40,-20,13,6,-84,-50,74,-2,63,14,115,1,-17,5,7,-32,-1,7,-13,49,1,43,20,11,60,1,-49,-47,-29,31,-2,-74,-71,-10,0,-112,-5,54,-31,-23,-13,-26,0,-1,-4,-46,27,-78,16,-40,2,57,-41,-42,53,-32,28,64,-14,-28,-41,5,48,15,-127,-24,4,22,-42,-29,-49,-8,50,-50,-2,-23,-44,18,25,-26,-85,74,-15,-3,27,-3,-4,-98,23,19,64,-3,-67,14,21,9,-48,-9,-42,-35,-107,-32,-15,-3,15,-18,-23,-17,11,5,50,-39,17,-14,-18,-10,34,-12,23,-35,7,28,8,-46, -27,7,-7,48,-107,15,-26,33,-14,-6,1,-3,35,-13,-8,-37,-4,77,0,19,63,-23,-73,-20,-31,-43,-65,25,-38,76,-79,-7,-44,-15,1,32,-45,-66,-69,40,18,22,-9,18,-45,-27,52,84,-33,27,-33,-63,-28,-24,69,59,10,-34,70,-19,-25,2,-1,42,37,6,49,34,15,-40,-76,39,17,10,-57,-25,-15,45,15,-10,-37,-94,13,-18,-43,-15,9,-1,-62,-17,0,-50,2,-25,-22,-10,4,-52,16,5,-15,-11,-49,24,-25,-30,20,2,-19,-62,10,11,33,-25,-32,-61,-71,31,-35,-17,-55,-31,-2,-12,45,-62,-61,8, 43,45,-32,29,-14,40,44,59,-12,55,-25,-20,28,4,-24,-94,63,28,45,-2,25,-50,73,60,0,6,-29,11,-60,-16,54,-1,55,-20,58,37,-12,27,-13,10,1,25,-14,14,-43,62,78,31,54,-13,44,-67,-10,20,28,-17,-53,70,38,51,-61,-7,-8,-78,-12,-33,75,34,47,-34,-56,-26,-4,36,-41,4,-32,-43,3,2,-8,27,52,19,18,-8,-20,-11,-61,-2,-4,-46,-30,27,13,40,56,33,-19,13,-36,-4,10,48,-26,78,4,-1,-7,-26,-15,36,23,83,1,-3,-18,-6,52,6,-18,-92,-52,8,48,-2,-8,39, 
  /* [54][0][][] */ -31,4,17,2,52,-36,31,6,-12,-33,-5,9,20,-20,1,-31,28,0,2,-11,8,9,-73,51,-16,-28,5,-51,12,-51,14,-17,6,41,23,-6,-24,43,-7,-41,19,27,-21,-16,-27,17,12,-5,-26,16,20,0,-38,14,42,41,43,-32,19,-3,10,16,-29,-23,-11,36,28,31,10,2,-13,-21,40,-19,-22,-7,-21,-1,33,4,-27,-28,23,15,-5,35,-29,13,-17,-63,19,-53,-27,-20,39,-11,-30,-13,7,2,-40,6,-20,-33,41,68,-22,-4,35,-1,-28,2,-17,20,-23,18,30,-3,22,-23,-13,-3,-57,-34,13,-18,-17,-6, -36,-11,-29,-26,-28,-30,38,-5,-4,-44,-17,3,24,-76,-37,-63,1,-2,-16,27,12,0,-24,22,8,-5,1,7,-5,-11,14,-4,25,-17,-4,-28,20,2,-62,-1,-16,6,-20,20,0,-41,1,-2,-39,10,10,-11,-42,18,10,13,25,32,27,12,-35,-49,35,-36,-21,21,-53,24,-19,4,-127,11,-17,36,-29,-4,-4,23,-7,2,24,-19,-31,31,-13,27,20,2,-24,-13,1,13,-26,11,18,4,2,-8,-28,-23,-3,-5,8,-21,60,-52,2,-3,-9,-78,11,16,-6,-11,-33,-7,-35,-30,-28,-11,0,-27,-16,-41,-24,-27,-2,44, 26,1,51,-16,45,3,-9,20,34,44,-30,-16,-10,-28,5,64,12,-31,-30,7,-5,32,37,34,44,2,36,45,30,58,41,-29,-41,22,-21,-25,25,11,4,3,19,-32,13,22,-4,-13,-22,-29,-4,-15,22,32,64,-14,-15,-14,45,18,-1,23,52,-40,17,6,33,-17,7,-34,-32,7,-40,-29,2,18,6,-21,-17,57,1,19,39,3,11,13,20,-17,-13,-7,4,45,41,15,3,24,-37,-5,40,11,21,6,39,20,44,35,25,-26,-27,-10,-16,-61,79,20,21,3,21,21,35,18,1,20,-23,15,39,29,-29,25,16,1, 
  /* [55][0][][] */ -89,-6,-28,-22,12,-1,-47,-65,-22,-78,-94,-37,-9,-73,-118,-51,-46,-34,-2,3,-78,-64,-69,-16,-67,-24,-16,-19,-63,-31,-18,-24,-84,-5,-27,16,13,-5,-50,7,-39,17,18,-30,-13,-53,-35,-10,-4,17,16,34,-91,18,-36,-42,-52,8,-76,-20,-40,-78,-20,-27,-24,-53,2,-43,-8,-10,-41,6,9,32,-8,-76,-64,9,-45,-12,3,-18,4,-46,-54,-34,-4,-30,-52,-56,-12,4,-71,-1,-41,-26,-35,46,-25,-31,3,-9,26,5,39,-127,-15,18,-41,-53,10,-32,-12,-18,-69,-45,7,-4,-22,-28,-33,-62,-38,-71,-18,-4,-7,19, 49,17,13,24,-13,16,-16,-67,56,37,-23,-33,-23,-10,-13,48,-40,-10,6,-16,-34,15,34,7,32,11,58,-28,6,46,64,3,-37,34,-18,-8,21,10,31,11,-2,5,61,1,55,5,-33,25,39,-1,-9,52,33,10,-31,-33,-38,20,19,10,52,-50,18,18,-4,-35,25,-19,31,-14,36,-32,-8,13,45,-19,-19,17,-25,2,48,37,36,28,4,-40,33,-6,-38,-19,17,13,-8,11,-5,-13,-16,25,-1,-29,90,13,59,19,5,-80,21,27,-40,32,96,17,5,3,57,58,81,17,5,42,19,3,23,40,24,53,35,27, -39,19,32,4,48,-43,-6,-1,-21,11,0,-5,6,38,31,5,15,-25,8,27,-18,-30,15,0,7,-7,-40,8,-18,-38,33,-66,-3,24,8,-38,-32,-3,14,-81,-23,-7,8,6,13,-53,30,-36,48,-8,2,-43,-10,-26,17,21,-17,-46,4,-17,-4,3,-11,-56,19,2,-9,-12,-49,0,-57,33,-9,-13,9,-26,-11,-28,17,-26,-11,-25,2,16,24,6,-47,25,19,8,-9,-21,-7,-11,5,13,-14,56,-21,7,-8,64,-16,-15,13,-19,-52,-36,-6,-55,-76,19,-3,25,23,-24,-4,-46,1,-12,-21,-5,-51,-16,-12,-27,-3,-2, 
  /* [56][0][][] */ 25,-52,72,29,-21,-31,-53,9,63,48,-13,-7,-6,15,-48,34,40,-19,-41,-44,-38,48,70,41,9,-33,40,-25,58,60,-24,-82,18,25,-44,-80,17,-33,8,39,17,-1,-16,55,-3,48,38,-44,-27,45,65,0,79,7,-1,-16,55,-4,41,19,56,-47,78,-24,-12,-57,49,-37,35,-32,-13,-9,-37,-18,-31,10,0,30,33,-17,23,39,29,-41,-23,-32,43,16,-38,-6,17,31,33,-6,-18,-7,10,-36,-24,11,38,-38,27,-22,32,28,35,12,-28,21,57,-33,13,41,64,87,-34,-32,-34,-30,-39,91,48,82,32,41,67,-2, 4,-38,10,-44,-30,1,-22,17,18,47,-81,10,-11,28,-97,62,-88,-11,-3,-35,20,-2,0,-11,-3,3,-65,-24,49,28,-76,-64,36,18,-55,-54,-9,-3,-32,12,51,-31,-10,14,-9,-41,-49,-31,20,47,-11,-22,3,6,-29,-51,1,-23,-18,14,8,-87,-37,-127,45,-22,-13,-68,12,-11,-2,22,3,-26,-35,4,0,-13,-12,37,-17,-28,62,-57,-3,-68,-4,-9,-19,11,-25,-34,-12,17,2,2,-4,37,7,-53,-53,2,-80,-46,23,-26,17,-58,-54,-58,-105,-4,-34,14,18,-39,-80,-52,13,18,-40,46,11,-21,25,26,-27,-37, -30,-33,32,-3,23,-9,-35,-23,22,18,-18,-26,-3,29,-17,9,14,-21,23,-39,-19,2,14,18,23,21,-7,-1,16,-68,1,-18,36,-27,-45,-1,-51,25,32,-6,-21,-25,-19,-48,0,-14,-15,-48,-24,-32,-58,-29,-2,-15,-23,7,4,-10,-12,-3,-15,19,-40,-10,5,-10,41,-16,-62,-53,20,4,-35,10,4,-17,-7,-54,1,-19,-57,2,-97,25,18,-19,-59,-46,21,-10,3,-27,-60,-57,-13,21,4,14,-20,-38,-34,28,-8,-1,36,10,-2,-56,-23,33,-60,0,-19,17,18,23,2,-16,44,-30,-11,-62,-7,-42,-14,-35,-12,-16, 
  /* [57][0][][] */ 30,-24,-28,-29,-99,17,-7,22,-23,-18,-50,-11,-23,4,24,-42,41,-41,-48,8,-7,39,-26,5,14,20,-93,4,-26,48,-15,22,-1,-59,1,4,-12,-53,-71,-53,-9,-28,-55,-27,-50,11,-47,-9,-8,-28,-36,5,-9,34,1,-28,-24,-6,-23,23,1,58,-44,63,7,-26,58,-78,-51,-55,-73,-5,-21,-37,13,41,8,-41,-27,-16,-9,10,-85,-24,103,-22,-18,-34,13,17,4,13,25,21,-22,5,-16,19,14,-18,-35,-13,11,9,119,14,-10,-42,-49,-69,11,-17,-20,-14,25,7,-57,-33,11,37,11,37,-19,25,6,-39,7,-49, 42,31,-3,35,31,-103,62,8,-50,-62,46,16,-7,-10,20,-22,43,-9,7,23,18,-28,-87,42,10,-57,15,-72,-19,59,-31,-11,42,-26,83,-30,-73,29,-40,-118,3,-28,-53,-7,-49,26,25,31,18,-31,-3,-48,-32,-36,79,25,12,-71,-10,11,-45,32,11,46,-47,65,42,1,-56,13,13,36,50,-20,-50,-27,-23,-39,-22,-30,-81,-87,-84,65,-38,116,-33,24,58,-105,-9,-52,7,-5,46,33,28,-9,-8,30,-32,30,-63,-2,18,45,-34,15,12,-43,-41,14,-4,-41,-20,-16,28,-49,3,-56,-3,46,-15,-51,36,14,-38,-1, 52,61,-27,27,-71,-42,67,41,-20,-36,44,54,4,26,51,-90,10,26,49,57,118,-11,23,-61,-64,32,-9,-40,-32,-2,10,41,62,-85,95,19,-4,43,-31,55,27,55,-49,6,35,46,92,28,37,-26,-18,-79,-37,-12,127,59,-7,61,13,-16,24,33,-35,-84,3,44,32,41,14,8,-101,3,123,-21,-75,11,15,-5,73,-32,7,0,-35,20,-25,10,104,27,0,31,2,18,-6,60,22,84,-2,36,2,-9,-13,89,36,7,6,-13,51,5,86,-82,-8,38,30,23,55,-24,29,32,-32,-33,43,-41,-56,-29,34,-36,-42,28, 
  /* [58][0][][] */ -92,52,-37,40,90,2,-39,-62,-49,47,-42,-76,29,-72,-57,-4,3,-97,62,-71,-28,-4,-36,-58,-43,78,-54,-15,-101,75,-56,-106,-6,-21,-82,30,-94,8,-56,-86,42,-4,-1,-14,-23,-92,25,58,27,-44,-33,-85,-33,15,48,-15,7,62,-87,-64,-49,20,-85,8,-47,-43,-84,75,-18,-39,22,-5,-108,-9,62,77,-67,-61,-5,-45,-16,-86,67,-10,-67,-25,42,-14,37,25,-78,-57,32,-92,50,9,4,4,-55,-87,-82,3,77,-98,-43,81,5,-76,-42,-18,51,-83,-15,-79,34,30,62,57,44,55,-21,43,-36,40,-31,-88,-87,72, 26,-61,-65,50,-101,-25,61,-9,21,31,18,-31,56,-5,-9,-16,27,-17,-38,-11,-45,-70,15,22,-63,-50,12,9,66,-65,73,-3,5,-48,-12,8,12,-31,-35,18,-90,-85,52,-31,33,19,64,-24,-57,31,20,3,7,78,14,-25,-81,-9,74,-6,-58,1,52,-4,74,39,-48,-69,-16,-52,8,-2,29,67,-54,-62,-27,-53,-99,56,-93,36,-55,21,-52,67,-78,-82,-49,-6,33,-85,-80,-96,59,-67,59,29,85,-89,-58,16,-13,6,38,39,-127,13,-64,10,24,37,-22,39,33,-28,-62,-59,-81,-37,-25,-65,-84,-84,-94,55,-36,46, 42,-39,53,-84,38,3,0,-2,-33,68,-97,31,-20,-44,-63,-59,53,-54,-22,-104,-64,34,43,-52,8,49,-33,50,79,90,-37,-85,-13,-63,-39,-46,50,-58,-86,-31,-5,-55,-76,-70,-22,33,-49,7,2,2,-22,36,-30,61,65,-101,-20,29,-53,-69,-83,-64,-55,22,-84,-97,-86,20,-14,5,-11,-90,-110,14,-58,29,4,-62,-106,-6,-29,-74,55,58,-88,46,9,54,17,-83,-21,-108,-89,-107,-89,69,-12,29,-66,-75,54,56,38,-31,-58,4,-96,66,50,-14,-88,-68,-79,60,-76,-23,-30,-63,-86,69,-54,-45,-109,-25,-12,-50,-82,-81, 
  /* [59][0][][] */ -8,32,53,5,-14,30,-12,41,12,8,20,3,15,99,-4,21,-22,-36,2,13,15,5,-18,56,13,-3,13,-15,45,2,38,0,25,48,24,25,-6,19,54,38,29,-7,16,-30,-17,2,9,-7,37,-3,1,8,-7,20,0,8,-14,3,14,-35,32,-38,-19,40,-2,-19,50,-33,4,17,44,33,-14,2,4,100,7,-36,-5,4,19,34,47,-30,56,10,68,-26,-29,-4,-22,13,-30,-12,2,-8,-24,14,12,-5,54,32,-37,30,-15,-16,32,-6,-10,33,-34,20,10,127,53,9,34,-17,-28,49,-13,-6,25,-23,47,-11,-2,10, 2,8,60,20,-18,-15,-33,8,-43,35,22,-1,21,37,48,39,21,12,15,-29,-13,11,77,-15,24,-26,-46,-27,58,-49,-20,-14,34,23,-28,0,-21,-19,46,-10,-31,-34,3,7,22,21,-6,-17,45,22,-22,-22,-10,-8,1,-12,-27,-27,31,11,5,29,4,-4,12,-4,29,-10,-31,11,23,-14,23,-32,24,53,33,-6,6,15,7,8,43,-27,48,-26,-17,-21,-30,37,7,-27,25,-42,9,20,-17,5,14,-18,-16,2,-20,-15,-28,16,-57,-13,-20,0,-28,33,3,10,41,2,-28,-43,1,10,14,46,-18,1,57,-22,-3,-43, -25,35,-1,-5,84,-4,32,53,-8,-6,41,20,23,-23,49,27,22,38,-19,-11,46,-5,17,1,23,-13,-34,-2,24,-25,-21,-26,18,-5,28,-13,-4,31,44,-40,10,0,-38,-15,-3,12,23,-45,61,-15,13,-12,-29,-1,6,14,-41,0,50,-27,-1,41,-14,-37,-21,4,65,0,-13,2,60,12,31,-17,13,3,20,-1,-21,-19,-23,-8,34,3,26,48,10,-16,14,20,-2,-18,18,-39,10,32,-28,11,-5,16,-18,2,-45,-13,8,58,-16,-10,20,74,-45,9,-31,25,42,-19,-9,6,-10,7,23,-9,-3,-40,55,-2,-37,-33, 
  /* [60][0][][] */ 17,4,25,-5,-45,85,57,-36,83,80,-9,13,-60,-34,-33,41,19,-2,4,13,60,23,-12,-34,17,27,32,-4,22,85,7,77,-3,45,-6,33,35,13,56,62,-31,22,52,20,19,-30,6,72,15,-12,-12,44,41,6,48,35,14,71,-3,33,-6,-92,17,-10,37,-19,-16,28,45,9,6,-3,39,-22,-46,-85,-26,49,56,8,68,-39,34,-13,-1,0,61,16,-20,22,24,84,11,35,-13,22,50,-38,-3,30,17,0,22,41,-71,-24,-3,-18,34,-27,63,-8,-1,-40,20,14,11,73,-42,44,-28,17,74,35,6,40,50,70, -64,-32,44,19,71,-36,-36,-22,-41,32,-2,-38,24,25,29,37,-70,-23,23,-37,-37,-32,127,34,22,-42,-39,5,-20,-99,35,-78,3,-48,-36,-39,-63,10,67,-57,16,-61,-28,25,39,-22,-7,-18,19,-27,-19,-50,29,-10,-8,-26,-94,0,-27,-23,3,28,-45,-84,-1,40,-35,-5,-90,16,4,60,-55,10,7,-85,21,-52,12,-82,-10,8,22,0,49,-89,-64,-26,10,7,-49,-57,31,8,8,-3,-34,-23,18,-23,-41,-35,0,13,-92,-21,-76,-11,-4,-73,-123,-41,20,28,53,-2,15,-41,32,-9,-21,-7,-54,15,15,33,38,-65, 28,11,2,-5,0,39,44,0,42,-50,40,6,-1,-15,26,10,-16,38,-1,23,65,14,9,-20,-49,18,22,-16,-21,33,-5,-6,-8,-6,58,-20,28,31,25,26,-9,-23,-2,-29,42,-24,-10,47,37,-2,-29,60,-32,-9,11,17,0,45,27,37,7,52,7,97,-62,9,-12,-10,28,-16,50,17,-24,-11,83,-13,-2,-22,8,11,30,66,3,-6,-7,56,-8,-24,51,-6,37,29,-22,-4,55,5,9,-7,27,-7,91,-3,35,58,-3,-79,1,-15,-11,69,45,25,19,-5,-18,-29,66,67,29,24,28,-6,34,-37,5,-13,24,-14, 
  /* [61][0][][] */ 17,-11,51,12,-45,53,17,16,74,26,-73,-30,-3,32,-72,42,-53,13,-15,0,-35,-29,21,-33,37,23,49,50,32,80,56,57,-43,8,10,22,65,-6,28,82,37,38,8,21,17,-6,3,92,39,11,-8,115,42,-34,42,-1,-22,108,-4,17,49,-80,36,-127,74,2,36,-21,101,-7,-46,5,16,-1,15,6,-29,56,7,-39,105,-66,66,-27,-19,-62,26,-36,-42,3,54,95,-8,35,-7,23,23,-27,-22,8,37,5,63,57,-1,-2,21,17,5,-18,53,-8,53,7,71,36,42,77,-16,11,-5,62,46,26,16,49,-7,45, 51,4,-11,-2,-39,-75,-73,-67,1,-17,-7,-93,16,34,-3,14,-23,-61,-20,-33,-48,-14,74,-24,-34,32,50,16,27,8,15,-14,-90,9,-23,-34,-33,-42,126,-89,4,-59,47,20,36,-22,-14,-45,6,-23,2,3,32,15,-33,-64,18,-21,1,-46,40,-30,39,58,-72,18,43,-42,-69,-9,-20,-61,-12,1,92,-46,-46,-12,-76,19,3,14,-6,8,70,-60,16,-43,-18,6,14,-11,30,12,2,-26,-21,-36,-21,6,8,-42,51,16,-84,-46,-18,-27,-48,70,57,-59,-23,7,70,-14,61,-59,0,48,-19,16,-10,23,43,46,52,-6, -73,33,18,24,102,-38,46,-60,-5,-2,30,-17,-35,-37,34,14,12,58,31,-6,44,-12,-45,-28,-2,-28,25,1,-33,37,-42,-25,-12,17,44,-16,-34,23,11,10,-11,-13,-14,29,28,-69,-15,15,22,-26,-3,-14,-40,-35,4,49,-64,26,5,-29,-15,22,34,52,8,19,8,-3,-53,-6,71,-5,35,-9,-11,-23,21,-51,-14,39,4,-41,-8,-17,5,-1,27,10,23,-55,27,-6,16,-35,87,35,12,-58,2,30,11,13,-18,-36,17,-107,33,-31,47,87,39,-15,19,-8,-41,-30,28,-23,-13,-15,-44,-3,-38,-40,17,-9,5,18, 
